[[-0.0376, -0.0125,  0.0000,  0.0125,  0.0251, -0.0251, -0.0125,  0.0000,
-0.0125,  0.0251,  0.0251,  0.0376, -0.0251, -0.0251,  0.0000,  0.0125,
0.0125,  0.0000, -0.0125, -0.0251,  0.0125,  0.0251,  0.0125, -0.0125,
0.0251,  0.0251,  0.0251,  0.0125, -0.0125,  0.0000,  0.0376,  0.0251,
-0.0376,  0.0251, -0.0251, -0.0125,  0.0251, -0.0376, -0.0376, -0.3758,
-0.4134, -0.0251,  0.0000, -0.2129, -0.2756, -0.0501, -0.0251, -0.0376,
-0.0251, -0.0251,  0.0251, -0.0125, -0.0125,  0.0000, -0.0125,  0.0251,
-0.0251,  0.0251,  0.0000,  0.0376, -0.0251, -0.0251,  0.0251, -0.1002,
-0.0501, -0.3883, -0.4134, -0.2881, -0.1002,  0.0376,  0.0376, -0.2004,
-0.1628, -0.1002, -0.1879,  0.1754,  0.1002,  0.3006,  0.3633, -0.3257,
-0.1503, -0.2129, -0.0125,  0.0000, -0.0125,  0.0000, -0.0125, -0.0125,
0.0251, -0.3633, -0.2505, -0.2129, -0.2630, -0.0626, -0.5136, -0.6889,
-0.3883, -0.2881, -0.1253, -0.1754, -0.4635,  0.1127,  0.0125, -0.1628,
-0.4635,  0.0626,  0.4635,  0.5762,  0.5261, -0.0877,  0.0376,  0.0251,
0.0125,  0.0251, -0.1879, -0.0251, -0.0376, -0.2129, -0.1503, -0.2129,
-0.4635, -0.1754, -0.2505, -0.2505, -0.1754, -0.1127, -0.1378, -0.1002,
-0.1503,  0.1503,  0.0251,  0.2255, -0.0752,  0.3633,  0.2380,  0.5261,
0.6138,  0.2004, -0.3883, -0.0251,  0.0125,  0.0000,  0.0251, -0.3507,
-0.5637, -0.6889, -0.3633, -0.2630, -0.0251, -0.1378,  0.0877,  0.0251,
-0.1378,  0.0501,  0.0877, -0.1378, -0.0501,  0.0125,  0.1253,  0.0251,
0.3006,  0.1879,  0.1002,  0.2380, -0.0501,  0.8267, -0.0501,  0.0251,
-0.0125,  0.0251,  0.2380, -0.2756, -0.2129, -0.3883, -0.1879,  0.1253,
-0.0877,  0.0752,  0.0752,  0.1378,  0.2630,  0.1503,  0.1127,  0.1879,
0.1503,  0.1628, -0.0877,  0.3507,  0.0752,  0.2004,  0.2129,  0.3257,
0.8643,  1.1900,  0.5637,  0.1253,  0.0376, -0.1628, -0.1628, -0.1879,
-0.5637, -0.3883, -0.1002, -0.0251,  0.1754,  0.2380,  0.3006,  0.3006,
0.2129,  0.3006, -0.0376,  0.3382,  0.0376,  0.0501,  0.0501,  0.0626,
0.0376,  0.0376,  0.1378,  0.4008,  0.9896,  1.1399,  0.5261, -0.0626,
-0.0251,  0.1503, -0.0125, -0.3883, -0.4760,  0.2004, -0.0376, -0.0376,
0.1378,  0.2255,  0.1879,  0.2630,  0.2129,  0.1754,  0.0752, -0.1378,
-0.1127, -0.0752,  0.0251, -0.1127, -0.1253,  0.0626, -0.0251,  0.4635,
1.5908,  1.4530,  0.8643,  0.2505, -0.0251, -0.0251,  0.2129, -0.1754,
-0.4259, -0.0501,  0.2004, -0.0501,  0.4134,  0.2505,  0.4885,  0.5887,
0.5136,  0.3758, -0.2756, -0.4885, -0.1628, -0.1378, -0.1127, -0.0376,
0.0626,  0.1879,  0.2756,  0.4509,  1.3152,  1.5532,  0.4384,  0.0125,
-0.0376,  0.0752, -0.1879, -0.3132,  0.1628,  0.1002,  0.2756,  0.4509,
0.6263,  0.7891,  0.6764,  0.8017,  0.6388,  0.5261, -0.1253, -0.4509,
-0.5511, -0.2505,  0.1127,  0.1378,  0.2881,  0.2004,  0.3132,  0.4008,
0.6639,  0.8894,  0.9269,  0.2004, -0.0251, -0.3257, -0.2505, -0.5887,
0.2756,  0.4760,  0.7516,  1.1524,  0.9520,  1.0021,  0.7516,  0.4384,
0.3633,  0.3633,  0.1879, -0.2881, -0.0877, -0.0376,  0.0000, -0.0125,
0.0501,  0.3633,  0.5261,  0.4008,  0.4885,  0.4134,  0.5887, -0.0251,
-0.0251, -0.0376, -0.1628,  0.5386,  0.6764,  0.6889,  1.0021,  1.0271,
0.9019,  0.4885,  0.2756,  0.3883,  0.0877,  0.1754,  0.0000, -0.1628,
-0.1378, -0.0501,  0.0501,  0.0501,  0.4008,  0.6138,  1.0146,  0.6889,
0.0752, -0.2630,  0.2756,  0.0000,  0.0251,  0.1002,  0.1253,  0.5637,
0.2129,  0.8518,  0.6013,  0.6013,  0.4509,  0.1754,  0.1628,  0.1127,
0.0000, -0.0501, -0.1503,  0.0877, -0.0125, -0.0752,  0.0125,  0.2881,
0.6138,  0.5637,  0.7390,  0.2756,  0.2505, -0.3257, -0.0626, -0.4384,
-0.0251, -0.1253,  0.1127,  0.4384,  0.3883,  0.4635,  0.5637,  0.4134,
0.0626,  0.0877,  0.3006,  0.0501, -0.1002,  0.0251, -0.0376, -0.1378,
0.0376,  0.0251, -0.2004,  0.2129,  0.2380,  0.0877,  0.3132,  0.1378,
0.2004, -0.4259, -0.5386,  0.0000, -0.0125, -0.1002,  0.0752,  0.0125,
-0.0752, -0.0251, -0.3132,  0.1002,  0.0626,  0.2255,  0.1628, -0.0877,
-0.0376, -0.2129, -0.0376, -0.0752, -0.1002,  0.0626,  0.2380,  0.3132,
0.0501,  0.0251,  0.0125,  0.0125, -0.2380, -0.3633, -0.5887, -0.2630,
0.0251,  0.0000, -0.3132, -0.6263, -0.2756, -0.2505, -0.2630, -0.2756,
0.5386,  0.1127,  0.0501,  0.0752, -0.0752, -0.3883, -0.0626,  0.1879,
0.0376,  0.1127,  0.0125,  0.0251, -0.0251, -0.0626, -0.2505, -0.0626,
-0.3257, -1.0772, -0.8017, -0.4134,  0.0125,  0.0125, -0.3257, -0.8267,
-0.4635, -0.2505, -0.1879, -0.0501,  0.2380,  0.6514,  0.5762,  0.3382,
0.2004,  0.0125,  0.1378,  0.0251, -0.0125,  0.1754,  0.0877,  0.0125,
0.1002, -0.0376, -0.2756, -0.3507, -0.2756, -1.0772, -0.6263,  0.0000,
0.0125,  0.0376, -0.4760, -0.6013, -0.4885, -0.4885, -0.2004,  0.0752,
0.2881,  0.3257,  0.5136,  0.2505,  0.1378,  0.1754,  0.0125,  0.0376,
-0.0626, -0.1002, -0.1253, -0.0251,  0.0626, -0.0251, -0.1127, -0.5010,
-0.3382, -0.9770, -0.2505, -0.2756,  0.0376,  0.0125,  0.0125, -0.4760,
-0.4760, -0.1127, -0.1002, -0.0752, -0.0501,  0.0626, -0.0125, -0.1503,
-0.0251, -0.0501, -0.0501, -0.1879, -0.1628, -0.2255, -0.0626,  0.0626,
0.0376, -0.4008, -0.1002, -0.0376, -0.4384, -0.8267, -0.4885, -0.0376,
-0.0251,  0.2004, -0.2756, -0.5511, -0.5010, -0.0376, -0.2756, -0.1378,
-0.0376, -0.1378, -0.1002, -0.1628,  0.1628,  0.1378, -0.1127, -0.0877,
0.0000, -0.1127,  0.0251,  0.0877, -0.1503,  0.0000,  0.1879, -0.1127,
-0.3883, -0.8392, -0.3006,  0.0251,  0.0125,  0.0000, -0.2380, -0.1127,
-0.4134, -0.2004,  0.0251, -0.1002, -0.1503,  0.0251,  0.0125,  0.1378,
0.2756,  0.1503,  0.2004,  0.1503,  0.0626, -0.0125,  0.0125, -0.1002,
0.1253,  0.2756,  0.0376, -0.5136, -0.1378, -0.4384, -0.0251,  0.0125,
0.0251, -0.0125, -0.3883, -0.7140, -0.3633, -0.3006, -0.1253, -0.1879,
0.0376, -0.1002,  0.1002,  0.0752,  0.3257,  0.3633,  0.2004,  0.2255,
0.1378,  0.0000,  0.1002, -0.1378, -0.3132, -0.1253, -0.2881, -0.2881,
-0.0501,  0.0752, -0.0626,  0.0000, -0.0125, -0.0376, -0.2380, -0.5762,
-0.5136, -0.3633, -0.1378, -0.3507, -0.1127,  0.0000,  0.1253,  0.2505,
0.2630,  0.4134,  0.3507,  0.2255,  0.2380,  0.1127, -0.0501,  0.0752,
0.1002, -0.0501, -0.4885,  0.0877, -0.4760, -0.2756, -0.2630,  0.0125,
-0.0125,  0.0125, -0.1754, -0.0877, -0.2756, -0.0626, -0.3257, -0.5010,
0.0376,  0.0376,  0.1378, -0.0376,  0.2380, -0.0376,  0.1879,  0.3132,
0.1127,  0.1002,  0.4008,  0.4885,  0.1253,  0.1002,  0.1253,  0.2004,
-0.3382, -0.4384,  0.0125,  0.0251,  0.0376, -0.0376,  0.0376,  0.2881,
-0.1002, -0.3507, -0.5887,  0.0000, -0.4134, -0.3507, -0.0752,  0.1503,
0.0376,  0.1879,  0.3507,  0.5010,  0.5261,  0.5762,  0.1002,  0.5511,
0.4760,  0.0877,  0.1127,  0.2255, -0.1628,  0.0125,  0.0251,  0.0376,
0.0125,  0.0376,  0.0125, -0.0251, -0.4008, -0.3382,  0.1378,  0.1754,
-0.1127,  0.0501,  0.3257,  0.3132,  0.5386, -0.2129, -0.1253, -0.1127,
0.1253, -0.2756, -0.4259, -0.6138, -0.1754, -0.0251,  0.1127, -0.1127,
0.0125,  0.0251, -0.0125, -0.0251,  0.0251, -0.0251,  0.0251, -0.0251,
0.0376, -0.1127, -0.0501, -0.5136, -0.6013, -0.5261, -0.5010, -0.6388,
-0.7140, -0.3382, -0.2004,  0.4384, -0.4134,  0.1503, -0.4259, -0.2630,
-0.2129, -0.3006,  0.3758,  0.0251,  0.0125,  0.0251,  0.0000, -0.0251],
[ 0.0324,  0.0000, -0.0243,  0.0081,  0.0324,  0.0000,  0.0324,  0.0243,
-0.0081, -0.0243,  0.0243,  0.0000,  0.0081, -0.0081, -0.0324, -0.0162,
-0.0081,  0.0243,  0.0081,  0.0162,  0.0000, -0.0243,  0.0324, -0.0162,
-0.0324, -0.0324,  0.0243,  0.0162,  0.0243,  0.0000,  0.0162,  0.0081,
-0.0243, -0.0243,  0.0081, -0.0162, -0.0324,  0.0162,  0.0000, -0.3242,
-0.3161,  0.0162,  0.0162,  0.2189, -0.3648, -0.0324,  0.0081, -0.0405,
0.0243,  0.0162,  0.0162,  0.0324, -0.0243, -0.0324,  0.0162,  0.0324,
0.0243,  0.0162, -0.0243,  0.0162, -0.0324,  0.0000, -0.0324, -0.0405,
-0.0324, -0.1054, -0.2108, -0.0243, -0.3648, -0.0405,  0.1297,  0.0973,
0.2351,  0.1702,  0.0811, -0.1702, -0.0567, -0.0973, -0.0486, -0.2837,
-0.0162,  0.0000,  0.0000, -0.0324,  0.0243, -0.0243,  0.0324, -0.0243,
-0.0081,  0.3242, -0.2432,  0.2351, -0.3567, -0.0243, -0.4377, -0.4702,
-0.8349,  0.1054, -0.2513, -0.4134, -0.3648, -0.4783, -0.5107, -0.5593,
-0.5593, -0.3486,  0.0324, -0.3161, -0.3567, -0.2432,  0.0243,  0.0162,
-0.0324,  0.0000,  0.1621,  0.0162,  0.1216,  0.0000, -0.4458, -0.4783,
-0.4377, -0.2189, -0.1945, -0.3810, -0.2513, -0.1702, -0.0567,  0.0730,
0.1783,  0.1378, -0.0405, -0.1540, -0.3324, -0.0730, -0.0973, -0.0973,
-0.2351,  0.0000,  0.2675,  0.0000, -0.0081, -0.0162,  0.0324,  0.1378,
0.3729, -0.0405, -0.1459, -0.1702,  0.0730, -0.1945, -0.2756, -0.1297,
0.0324,  0.0486, -0.1297,  0.0648, -0.2027, -0.1054, -0.1621, -0.0486,
-0.3486, -0.0648, -0.0324, -0.4134,  0.1135,  0.1378,  0.2270, -0.0162,
0.0243, -0.0162, -0.2027,  0.3161, -0.0567,  0.0892,  0.1216,  0.0892,
0.0486,  0.1702,  0.2108,  0.2594,  0.2675,  0.3810,  0.4458,  0.4621,
0.5026,  0.5999,  0.4377,  0.3405,  0.1783,  0.0730, -0.0405, -0.3729,
-0.6809, -0.0405, -0.2999, -0.0162,  0.0162, -0.0648,  0.0973,  0.0000,
-0.0892,  0.0486,  0.2351, -0.0648, -0.0567,  0.1378,  0.2513,  0.3242,
0.5026,  0.4458,  0.4539,  0.5674,  0.5026,  0.5512,  0.3891,  0.4539,
0.2675,  0.2270, -0.0324, -0.0730, -0.0730, -0.4864, -0.1297, -0.1540,
0.0243,  0.2108,  0.0162, -0.2351,  0.0567,  0.3486,  0.0081,  0.0648,
0.1945,  0.1945,  0.3324,  0.1702,  0.3161,  0.2675,  0.5512,  0.2756,
0.2270,  0.1864,  0.2675,  0.3242,  0.1459,  0.2108,  0.0730,  0.1783,
-0.1621, -0.4945, -0.4296, -0.0324,  0.0324,  0.1783,  0.3810,  0.4702,
-0.1540,  0.1297,  0.2837, -0.0486,  0.1864,  0.1540,  0.4296,  0.3567,
0.2918,  0.1945,  0.3161,  0.1297,  0.1540,  0.2432,  0.1459,  0.3242,
0.3405, -0.2108,  0.0486, -0.1297, -0.1459, -0.3729, -0.1783, -0.0405,
0.0486,  0.1945,  0.0811,  0.2027, -0.0811,  0.0324,  0.0567,  0.3567,
0.3972,  0.1540,  0.2351,  0.1378,  0.1702,  0.1297,  0.1540, -0.1135,
-0.0324,  0.1702,  0.3729,  0.3080,  0.4134,  0.2432,  0.1621,  0.1297,
-0.2432, -0.6890, -0.6323, -0.3242, -0.0081,  0.3729,  0.5188,  0.2270,
0.2270,  0.1135,  0.2837,  0.5512,  0.2756,  0.2756,  0.2756,  0.2594,
-0.2027,  0.1459,  0.4621,  0.2918,  0.1459,  0.4864,  0.3567,  0.2918,
0.4296,  0.5188,  0.5755,  0.5188, -0.0486, -0.1864, -0.5431, -0.0243,
-0.0081,  0.3810,  0.5431,  0.2108,  0.0243,  0.3405,  0.3567,  0.3486,
0.2351,  0.1702, -0.1054, -0.2837, -0.5674, -0.1945,  0.3242,  0.1135,
0.0162,  0.2918,  0.4134,  0.3972,  0.3324,  0.5836,  0.7539,  0.9646,
0.6647, -0.1054,  0.2351,  0.0081, -0.0324,  0.0811,  0.4864,  0.1621,
0.2351,  0.3972,  0.1054,  0.1621,  0.1783,  0.1540, -0.0892, -0.4458,
-0.4864,  0.0892,  0.2270,  0.1783,  0.2999,  0.1540,  0.2432,  0.3405,
0.1459,  0.4053,  0.5674,  0.5188,  0.4539, -0.3161, -0.0648, -0.3810,
0.0162,  0.2594,  0.1297,  0.3972,  0.0486,  0.0892,  0.1297,  0.0730,
-0.0324, -0.1621, -0.0486, -0.3242, -0.2432,  0.0648,  0.0811,  0.1459,
0.1459,  0.0892,  0.0324,  0.1540,  0.2270,  0.1621,  0.1621,  0.2432,
-0.2351, -0.0811, -0.3324,  0.0324,  0.0243, -0.1135,  0.0162,  0.0162,
0.2918,  0.1378,  0.2432,  0.1378, -0.1216, -0.1216, -0.1540, -0.2351,
-0.2837, -0.0324, -0.1459, -0.0811,  0.0324,  0.1054,  0.4134,  0.0162,
0.0081,  0.3161,  0.2756,  0.0081, -0.1216, -0.6890, -0.3891, -0.1864,
-0.0243,  0.0243, -0.2108, -0.1540, -0.0405, -0.1054, -0.1621,  0.0162,
0.1378,  0.1135, -0.1459, -0.1297, -0.1459, -0.1216, -0.2513, -0.0567,
0.1378,  0.0324,  0.1297, -0.0567, -0.2675, -0.1216,  0.0324, -0.0730,
-0.4215, -0.5188, -0.3080, -0.3161,  0.0324, -0.0243, -0.3648, -0.1054,
-0.2594, -0.3567, -0.4296, -0.0405,  0.1459,  0.0243, -0.1540,  0.0486,
-0.0811,  0.0000, -0.0892,  0.0162,  0.0243, -0.0405, -0.1540,  0.0243,
-0.1783, -0.0811, -0.0486, -0.3486, -0.5026, -0.7944, -0.3242, -0.0324,
0.0081, -0.0243, -0.3405, -0.3648, -0.4377, -0.5512, -0.4215, -0.2594,
-0.0162,  0.1621,  0.0892, -0.0081, -0.1945,  0.0243, -0.1540, -0.2594,
-0.2756, -0.1297,  0.0243,  0.0405, -0.1945, -0.2189, -0.1135, -0.5026,
-0.8187, -0.3810, -0.0892, -0.1540,  0.0162, -0.0081, -0.4377, -0.1540,
-0.5107, -0.3810, -0.1459, -0.1378, -0.1135, -0.1135,  0.0567, -0.2027,
-0.1297, -0.3486, -0.2675, -0.3567, -0.2999, -0.1864, -0.2351, -0.1216,
-0.1459, -0.2918,  0.1216,  0.1621, -0.5755,  0.0000, -0.2837,  0.0000,
0.0243, -0.1945, -0.2351, -0.2270, -0.5999, -0.2756,  0.1783,  0.1135,
-0.0892,  0.0811, -0.1864, -0.3405, -0.1540, -0.2675, -0.2432, -0.2756,
-0.0892, -0.1216, -0.2513,  0.0811, -0.2027, -0.0405, -0.2513, -0.3891,
-0.3567,  0.1297, -0.2432,  0.0243,  0.0162, -0.0405, -0.0730, -0.8917,
-0.8511, -0.3242,  0.1054, -0.1054, -0.0567,  0.0811,  0.0811, -0.0243,
-0.1297, -0.1054, -0.2027, -0.1864,  0.0405, -0.1783, -0.0892, -0.2108,
-0.1216, -0.1216, -0.4134, -0.6566,  0.3080,  0.2513, -0.0243,  0.0324,
-0.0162,  0.0000, -0.4864, -0.5593, -0.4458, -0.1216,  0.1378,  0.1297,
0.1216,  0.0567,  0.1297,  0.0324,  0.0811, -0.0648,  0.0405,  0.0567,
0.1783,  0.0324, -0.1540, -0.3080, -0.5674, -0.3486, -0.2432, -0.0162,
0.3972,  0.1864,  0.0081, -0.0081, -0.0243,  0.0243, -0.1378, -0.6242,
-0.1378, -0.2513,  0.3080,  0.4458,  0.4296,  0.0162,  0.0405,  0.0567,
0.0324,  0.1702,  0.1621,  0.0243,  0.0486,  0.0000, -0.1621, -0.2513,
-0.3080, -0.0730,  0.1216,  0.3972,  0.2675, -0.2675, -0.1540, -0.0081,
-0.0243,  0.0162, -0.1297,  0.0567,  0.0567,  0.3080,  0.3242,  0.3729,
0.3972,  0.0243,  0.1702,  0.0648,  0.0973, -0.0324, -0.0730,  0.0648,
-0.1783,  0.0324,  0.0486,  0.0324,  0.2027,  0.4783,  0.2999,  0.3486,
0.2837, -0.3891, -0.0324,  0.0324, -0.0243,  0.0162,  0.0243, -0.1459,
-0.0811,  0.5755,  0.0567,  0.4621,  0.4702,  0.4134,  0.1054,  0.2513,
0.1054,  0.1702,  0.2189,  0.3324,  0.5107,  0.3242,  0.3242,  0.5836,
1.0295,  0.6080,  0.3891,  0.3891,  0.1864,  0.0243, -0.0162,  0.0162,
0.0162, -0.0243, -0.0162, -0.0081,  0.1864,  0.4296,  0.3810,  0.6404,
0.6323,  0.2513,  0.5593,  0.5350,  0.4134,  0.5188,  0.7701,  0.4539,
0.5999,  0.6647,  0.7296,  0.3405,  0.5269,  0.3324,  0.5512,  0.0892,
-0.0162, -0.0243,  0.0243,  0.0000, -0.0081, -0.0162,  0.0324,  0.0081,
-0.0324,  0.0973,  0.0486,  0.5026,  0.5350,  0.0973,  0.5593,  0.0973,
0.3161,  0.6647,  0.5593,  0.1216,  0.3729,  0.4621,  0.2351, -0.0324,
0.1945, -0.2513,  0.3242,  0.0081,  0.0162,  0.0162,  0.0243,  0.0162],
[ 0.0104, -0.0104,  0.0000, -0.0104, -0.0311, -0.0207, -0.0207, -0.0311,
0.0311,  0.0104, -0.0104,  0.0000,  0.0311,  0.0104,  0.0104,  0.0207,
0.0207, -0.0311,  0.0000, -0.0207, -0.0311, -0.0104, -0.0207,  0.0104,
-0.0311,  0.0311,  0.0000,  0.0000, -0.0207, -0.0104,  0.0000,  0.0000,
-0.0207,  0.0104, -0.0104, -0.0104,  0.0000, -0.0104,  0.0207,  0.3941,
0.3941,  0.0000, -0.1141,  0.1659,  0.3526,  0.0518, -0.0104,  0.0000,
0.0207, -0.0104,  0.0104,  0.0000,  0.0104,  0.0311,  0.0207, -0.0207,
0.0104,  0.0207,  0.0000,  0.0104,  0.0000, -0.0104,  0.0000,  0.0518,
0.0311,  0.0622,  0.3837, -0.4044,  0.1867, -0.2178, -0.2904, -0.0933,
0.5392,  0.1763,  0.3215, -0.0726, -0.1970,  0.0518,  0.2385,  0.3215,
0.2178,  0.1659, -0.0207,  0.0000, -0.0104,  0.0104,  0.0104,  0.0000,
-0.0104, -0.3629,  0.1348, -0.4874,  0.1763, -0.2178,  0.1555,  0.6429,
0.2696,  0.5185,  0.3941,  0.5392,  0.7674,  0.3733,  0.0104, -0.1141,
-0.2489, -0.3111, -0.1970, -0.2904,  0.0104,  0.3111,  0.0000,  0.0311,
0.0104, -0.0311,  0.1141,  0.0311, -0.4252, -0.5289, -0.4355, -0.2178,
-0.0830,  0.0311, -0.0311, -0.0311, -0.0830,  0.0933,  0.1970,  0.3007,
-0.0104,  0.0000,  0.0726, -0.1244,  0.0000, -0.3111, -0.2074, -0.4355,
-0.6222,  0.2800, -0.5703,  0.0104, -0.0207, -0.0311,  0.0000, -0.0518,
-0.2800, -0.6326, -0.0933, -0.3007, -0.0518, -0.0104, -0.0622,  0.1348,
-0.1244,  0.1348,  0.3733,  0.0622,  0.2489,  0.2592,  0.4563,  0.0207,
-0.0622,  0.1244,  0.2489, -0.3526, -0.4666, -0.1867, -0.1555, -0.0104,
0.0104,  0.0311,  0.0933, -0.1970, -0.3111, -0.8711, -0.2904, -0.2178,
-0.2696,  0.0933,  0.3733,  0.0518,  0.1348,  0.1452,  0.1763,  0.0104,
0.2178, -0.0830, -0.1867, -0.0622, -0.1141, -0.0207,  0.3526, -0.0311,
-0.1452, -0.2696, -0.6118, -0.1659,  0.0311,  0.0518,  0.1659, -0.3215,
-0.4874, -0.5807, -0.3733,  0.1348,  0.2178,  0.3526,  0.2592,  0.3111,
0.0726,  0.1037,  0.0726,  0.0104,  0.0726, -0.2385, -0.1037,  0.0311,
0.0933,  0.1348,  0.3318, -0.0415, -0.0104, -0.1244, -0.4252,  0.1555,
-0.0104,  0.3007,  0.3215,  0.2904, -0.2904,  0.0104, -0.3007,  0.2696,
0.1763,  0.2074,  0.4977,  0.4563,  0.3837,  0.3422,  0.2800,  0.1555,
0.0830,  0.0104,  0.1141,  0.2074,  0.3941,  0.1867,  0.2592,  0.3837,
-0.3629, -0.4977, -0.2074, -0.4044,  0.0415,  0.2074, -0.0518,  0.2281,
0.1244,  0.3215, -0.0415,  0.1970,  0.3111,  0.3318,  0.0726,  0.2489,
0.2281,  0.4770,  0.3629,  0.2074,  0.2696,  0.3422,  0.1970,  0.2074,
0.3111,  0.5496,  0.2904,  0.3422,  0.3629, -0.7570, -0.5496,  0.0311,
0.0415, -0.0622,  0.6014,  0.4252,  0.2385,  0.1555, -0.0311,  0.0104,
0.0415,  0.4148,  0.1452,  0.1763,  0.4044,  0.5289,  0.4874,  0.4874,
0.2696,  0.3111,  0.2385,  0.3215,  0.4148,  0.6740,  0.4977,  0.8296,
0.5911, -0.6637, -0.1141,  0.3422,  0.0000,  0.1037,  0.3629,  0.0311,
0.1037,  0.0518,  0.0726, -0.0415, -0.0518,  0.0104, -0.3215, -0.4459,
0.0622,  0.4874,  0.2696, -0.2281, -0.1244, -0.2178,  0.1452,  0.1348,
0.3629,  0.4874,  0.3733,  0.5081,  0.2385, -0.4977, -0.2904,  0.0104,
0.0311,  0.0622, -0.0518, -0.0830, -0.1970, -0.1452, -0.3941, -0.4355,
-0.1555, -0.1659, -0.4148, -0.4459, -0.3733, -0.4563, -0.8399, -0.4459,
-0.4252, -0.4770, -0.3941, -0.3422, -0.0415,  0.1867,  0.3941,  0.4874,
0.8296,  0.4044, -0.1141,  0.0207, -0.0104, -0.0104,  0.2489, -0.6118,
-0.6533, -0.7259, -0.4252, -0.4252, -0.3318, -0.4355, -0.1555, -0.1867,
-0.3215, -0.4355, -0.4977, -0.7155, -0.7363, -0.6533, -0.7051, -0.4252,
-0.1867, -0.3111,  0.1763,  0.9955,  0.8711,  0.5600,  0.0104,  0.0622,
-0.0104,  0.0415,  0.0207, -0.6429, -0.6222, -0.5081, -0.2074, -0.0726,
-0.3629, -0.2904,  0.0622,  0.0104,  0.1244, -0.2385, -0.1970, -0.5289,
-0.4148, -0.3837, -0.4355, -0.1348, -0.0726, -0.1037,  0.1763,  0.6014,
0.9851,  0.6222,  0.5081, -0.0311,  0.0311, -0.1348,  0.0622, -0.1867,
-0.5289,  0.1244, -0.0933,  0.1037,  0.0000, -0.1348,  0.2800,  0.2281,
-0.0830, -0.0933, -0.1659, -0.3318, -0.3837, -0.1244, -0.1037,  0.0104,
0.0311,  0.2178, -0.0311,  0.5911,  1.3170,  0.6844,  0.4252,  0.2385,
0.0207, -0.0207,  0.2178,  0.1867,  0.1452, -0.1141,  0.1867,  0.1141,
0.0000,  0.1141,  0.1763, -0.0830, -0.1244, -0.0415,  0.1867,  0.0518,
-0.2074,  0.1244, -0.1348, -0.0726,  0.2800,  0.5496,  0.1659,  0.3111,
0.3629,  1.1510,  0.5911,  0.2489,  0.0000,  0.0415,  0.1763,  0.1037,
0.0415,  0.4563,  0.4252, -0.0518,  0.0000,  0.2178,  0.6014,  0.3111,
0.0311,  0.2074,  0.0311, -0.0726, -0.0207,  0.0830,  0.0104,  0.0000,
0.0622, -0.0726,  0.4148,  0.4459,  0.7155,  1.1718,  0.4148, -0.0104,
-0.0311, -0.0207,  0.0415, -0.2800,  0.3733,  0.4355,  0.1763,  0.3318,
0.1555,  0.1037,  0.6222,  0.2281,  0.3111,  0.3111,  0.3318,  0.1452,
0.0830,  0.3215,  0.0933, -0.1970,  0.0518,  0.0311,  0.3837,  0.7985,
0.9851,  0.8711, -0.0207,  0.0207, -0.0311,  0.0207, -0.0518, -0.2385,
0.4666,  0.0933,  0.4770,  0.4252,  0.5600,  0.4977,  0.5496,  0.4148,
0.5807,  0.3629,  0.3629,  0.2385,  0.3007,  0.2074,  0.1348,  0.0518,
0.2281, -0.0622,  0.3837,  0.3629,  0.8088,  0.5392,  0.2489,  0.0415,
0.0104,  0.2592, -0.3007, -0.1763,  0.6014,  0.5081,  0.1452,  0.3422,
0.6948,  0.5911,  0.9125,  0.7777,  0.7674,  0.6533,  0.6637,  0.4770,
0.2696, -0.0518,  0.0726,  0.1141,  0.0415, -0.0518,  0.2800,  0.6014,
0.4874,  0.1348,  0.2281,  0.0207, -0.0104, -0.0104,  0.2281,  0.5703,
0.3629,  0.3215,  0.2904,  0.4563,  0.4148,  0.5911,  0.7881,  0.9644,
0.7155,  0.6740,  0.5289,  0.4666,  0.1348,  0.1763,  0.1555,  0.1867,
-0.1970, -0.2800,  0.0726,  0.7777,  0.3422,  0.4666,  0.0207, -0.0207,
-0.0207,  0.0311,  0.4770,  0.4355,  0.4044,  0.2074,  0.3215,  0.3629,
0.1867,  0.5081,  0.1244,  0.3111,  0.4666,  0.3526,  0.2178,  0.1555,
0.0000, -0.0830,  0.0415,  0.1763,  0.3733,  0.2178,  0.0830,  0.2281,
-0.2385, -0.0622,  0.0207,  0.0000,  0.0207, -0.0207, -0.0311,  0.4874,
-0.0830,  0.3837,  0.2800,  0.1348, -0.0311,  0.1037,  0.3422,  0.2800,
0.2696,  0.3111,  0.2385,  0.4252,  0.1970, -0.0311,  0.0000,  0.0933,
0.0518,  0.1348, -0.1555, -0.4666, -0.1970,  0.3837, -0.1763,  0.0207,
0.0000, -0.0104,  0.0830, -0.0622, -0.2800,  0.0000, -0.0830, -0.2592,
-0.1867, -0.3215,  0.0207,  0.0726,  0.3215,  0.2489,  0.3422,  0.0415,
0.3837,  0.1037,  0.0622, -0.1970, -0.2800, -0.5081, -0.6222, -0.5081,
-0.2281,  0.4355,  0.0311,  0.0104, -0.0311, -0.0311, -0.0311,  0.1867,
-0.2074, -0.7466, -0.4148, -0.6533, -0.7363, -0.5807, -0.2489, -0.2489,
-0.1037, -0.2281, -0.1141,  0.0415, -0.2696, -0.2800,  0.0518, -0.4563,
-1.0266, -0.4666, -0.3111, -0.5911, -0.2178, -0.0207,  0.0000, -0.0104,
0.0311,  0.0000,  0.0104, -0.0104, -0.5703, -0.3629, -0.1037, -0.7155,
-0.3007, -0.2800, -0.2385,  0.0518, -0.0622, -0.0622,  0.0104,  0.1659,
0.1452, -0.3422, -0.3215, -0.0933, -0.3007, -0.5703,  0.2800, -0.0830,
-0.0207,  0.0000,  0.0104, -0.0207, -0.0207,  0.0104, -0.0207, -0.0311,
-0.0311,  0.1141,  0.1141,  0.0830,  0.2074,  0.3007,  0.4874,  0.1141,
0.1970,  0.7570, -0.0830,  0.0207,  0.3733,  0.5807,  0.0622, -0.1970,
0.0415, -0.2281, -0.0726, -0.0104, -0.0207, -0.0207, -0.0207,  0.0000],
[-0.0167, -0.0083, -0.0333,  0.0000, -0.0083,  0.0000,  0.0250, -0.0250,
0.0000,  0.0333, -0.0333,  0.0250,  0.0167, -0.0167,  0.0083, -0.0250,
-0.0333, -0.0333,  0.0333, -0.0167, -0.0250, -0.0167,  0.0167, -0.0083,
0.0083, -0.0250,  0.0083,  0.0250, -0.0333,  0.0250,  0.0250,  0.0333,
0.0000,  0.0333, -0.0167,  0.0250, -0.0250,  0.0167, -0.0083,  0.1000,
0.1250,  0.0333,  0.0583,  0.1417,  0.0000,  0.0417,  0.0250,  0.0083,
0.0167,  0.0250,  0.0250,  0.0167,  0.0250, -0.0250, -0.0250,  0.0333,
-0.0167,  0.0083,  0.0250, -0.0333, -0.0250,  0.0000, -0.0083, -0.0083,
-0.0083, -0.4000, -0.0500, -0.1250,  0.0917,  0.1333,  0.3167,  0.3583,
-0.0917, -0.1417,  0.4083,  0.2167,  0.1750,  0.2750,  0.3250, -0.0250,
-0.0667, -0.0417,  0.0083,  0.0000, -0.0333,  0.0333, -0.0167, -0.0167,
0.0000, -0.2833,  0.1583, -0.1333, -0.1333,  0.2833,  0.0917,  0.2583,
0.2917,  0.2083,  0.1750,  0.3750,  0.4167,  0.7417,  0.3667,  0.3833,
0.4583,  0.1750,  0.3250,  0.2583,  0.3833,  0.2750, -0.0167,  0.0000,
-0.0167,  0.0083,  0.0250,  0.0000,  0.1917,  0.1500,  0.1250, -0.1167,
-0.0417,  0.0667, -0.0917,  0.2250, -0.0500,  0.0083,  0.0833,  0.0833,
-0.0583, -0.0417, -0.1250,  0.2833, -0.1000,  0.3583,  0.5667,  0.7250,
0.1583,  0.3667,  0.0167, -0.0167,  0.0083,  0.0083,  0.0000,  0.0417,
-0.3417,  0.0000, -0.2250, -0.0250, -0.0167,  0.0750,  0.1750,  0.0167,
-0.0583,  0.1750,  0.0833,  0.1250,  0.0083, -0.1750,  0.1583,  0.1000,
0.3000,  0.1083,  0.2500,  0.3000,  0.0083,  0.7583,  0.0417,  0.0333,
-0.0250, -0.0083, -0.2500, -0.3000, -0.2333, -0.1667, -0.0167, -0.2833,
-0.2500, -0.0167,  0.0417, -0.0333,  0.1000,  0.1667,  0.2083,  0.2583,
0.2500, -0.0333,  0.1500,  0.3500,  0.3167,  0.1667,  0.1167,  0.4250,
0.6667,  0.6667,  0.3500,  0.0167, -0.0167,  0.0250, -0.3750,  0.1000,
-0.5333, -0.1167, -0.3167, -0.1583,  0.0250,  0.0083, -0.0333,  0.1000,
0.2000,  0.1667,  0.3583,  0.3583,  0.1167,  0.1000,  0.2750,  0.1250,
0.4083,  0.1583,  0.0583,  0.1333,  0.5417,  0.6167,  0.3000,  0.0500,
0.0250,  0.1917, -0.1833, -0.0667, -0.6417, -0.3000, -0.3083, -0.1833,
-0.1167, -0.3083, -0.0917,  0.2083,  0.3083,  0.2917,  0.4500,  0.2500,
0.0333, -0.1333, -0.0833, -0.0833,  0.2250,  0.0750, -0.0167,  0.1500,
0.4500,  0.5167,  0.4583,  0.0750,  0.0250,  0.1583,  0.2083, -0.3500,
-0.3500, -0.5167, -0.1500, -0.2083, -0.1333,  0.0083,  0.0333,  0.4333,
0.5917,  0.7250,  0.2750, -0.2000, -0.4167, -0.7250, -0.4750, -0.6250,
-0.4000, -0.3750, -0.2500, -0.1833,  0.0583,  0.4833, -0.1333,  0.0333,
0.0500,  0.1250,  0.4417,  0.3917,  0.3417, -0.0917,  0.2500,  0.1417,
-0.1750,  0.1833,  0.4417,  0.4500,  0.4000,  0.6583,  0.1417, -0.5500,
-0.8833, -0.8833, -0.6500, -0.8417, -0.7250, -0.7583, -0.6333, -0.7000,
-0.4167,  0.6417,  0.7000,  0.1500,  0.0250, -0.0917,  0.1583,  0.2583,
0.5333,  0.4167,  0.3750,  0.3083,  0.4333,  0.3333,  0.3167,  0.2083,
0.2833,  0.3083, -0.0667, -0.4750, -0.3750, -0.2000, -0.1000, -0.3000,
-0.5083, -0.6833, -0.8083, -1.0667, -0.6917,  0.1167,  0.4667, -0.0250,
0.0500,  0.0500,  0.2500,  0.2583,  0.5417,  0.5083,  0.3833,  0.3417,
0.0583,  0.0667,  0.2083,  0.1833, -0.1750, -0.2500, -0.0333, -0.2250,
-0.3083, -0.0333,  0.0000, -0.0250,  0.0417, -0.3417, -0.3500, -0.6833,
-0.9000, -0.1667,  0.0667, -0.0250,  0.0250,  0.1250,  0.5250,  0.1917,
0.2833,  0.3667,  0.6167,  0.2917,  0.3083, -0.0167,  0.0833, -0.0417,
0.0083,  0.0000,  0.0750, -0.1000, -0.3750, -0.2833,  0.0083,  0.0667,
0.2083, -0.5000, -0.0083, -0.0333, -0.1667, -0.0833, -0.0917, -0.1917,
0.0083,  0.1583,  0.0917,  0.5000,  0.1750,  0.1083,  0.3000,  0.1417,
0.0917, -0.0417, -0.0417, -0.4417, -0.3167, -0.4250, -0.0250, -0.1417,
-0.3667, -0.2250, -0.2250, -0.1000, -0.0667, -0.2083,  0.2167,  0.5083,
0.5500,  0.1417, -0.3750, -0.0167, -0.0333,  0.1750,  0.2833,  0.1833,
-0.1917, -0.1500, -0.2000, -0.0250,  0.1583,  0.0417, -0.0833, -0.4583,
-0.3333, -0.2583, -0.1500, -0.1750, -0.2833, -0.2667, -0.0667, -0.0500,
0.1417, -0.0333,  0.1417,  0.7250,  0.5833,  0.4750, -0.3167,  0.0000,
0.0167,  0.0333,  0.2000,  0.0250, -0.3333, -0.1583, -0.5333, -0.2583,
-0.2917, -0.3417, -0.2917, -0.0833, -0.3083, -0.4000, -0.1583, -0.3833,
-0.3167, -0.0917, -0.1167,  0.2833,  0.2000,  0.1583,  0.4000,  0.3917,
0.1917, -0.6750, -0.6000, -0.4000, -0.0167,  0.0000, -0.1250,  0.3500,
-0.1917, -0.2417, -0.3167, -0.2833, -0.5333, -0.5333, -0.4333, -0.2083,
-0.3250, -0.6833, -0.4333, -0.1750, -0.2833,  0.0417,  0.2000,  0.0667,
0.2083,  0.3083,  0.1667,  0.2500,  0.2083, -0.4583, -0.4333, -0.0250,
0.0000, -0.0083,  0.2750,  0.5250,  0.2500,  0.1417,  0.0083, -0.0583,
-0.2667, -0.5917, -0.4500, -0.5000, -0.7583, -0.4000, -0.1000, -0.0583,
-0.2167,  0.2750,  0.2250,  0.2250,  0.3083,  0.3917,  0.2000,  0.1333,
0.3500, -0.1667, -0.1750, -0.2667,  0.0167, -0.0167,  0.1750,  0.6167,
0.5000,  0.4750,  0.0417,  0.1833,  0.1583, -0.1750, -0.3167, -0.5417,
-0.3417, -0.1667,  0.0000,  0.0417,  0.2333,  0.2167,  0.2417,  0.2000,
0.1667,  0.0000,  0.1250,  0.1833,  0.3667, -0.4250, -0.3000, -0.0833,
-0.0250,  0.0417, -0.1583,  0.0750,  0.1083,  0.1500, -0.1667, -0.0500,
0.2917,  0.0667, -0.1000, -0.0667,  0.1000,  0.2417,  0.1333,  0.2917,
0.3417,  0.4083,  0.0750,  0.3167,  0.0833,  0.0167,  0.4667,  0.4500,
0.2750, -0.8083,  0.0417,  0.0167,  0.0000, -0.0333, -0.1333,  0.0583,
0.1500,  0.1417, -0.0917,  0.1000,  0.2500,  0.0917,  0.2083,  0.1250,
0.3250,  0.3083,  0.4417,  0.4333,  0.3417,  0.2083,  0.2000,  0.0667,
0.0417,  0.3000,  0.3333, -0.1167, -0.1583, -0.4250,  0.0000,  0.0250,
-0.0333, -0.0083, -0.0333, -0.3667, -0.1833,  0.1500, -0.4083, -0.1167,
-0.1500, -0.0833,  0.0167, -0.0167,  0.2333,  0.1167,  0.3833,  0.2583,
0.3917,  0.2167,  0.1833,  0.2250,  0.2167,  0.2000, -0.0083, -0.2500,
-0.3417, -0.1750,  0.0833,  0.0000, -0.0167, -0.0167,  0.0167,  0.3500,
-0.0333, -0.0833, -0.1500, -0.1750, -0.1667, -0.1417,  0.1250,  0.2333,
0.1333,  0.0000,  0.2167,  0.2750,  0.1333,  0.2833,  0.2250,  0.1000,
0.2250,  0.0833, -0.2250, -0.4167, -0.3083, -0.1583,  0.0250,  0.0333,
0.0083, -0.0333,  0.1250,  0.3333,  0.3583, -0.0083,  0.0500,  0.1167,
0.1083,  0.2833,  0.3250,  0.2750,  0.3000,  0.2000,  0.2000,  0.0583,
0.1083,  0.4000,  0.3667,  0.3417,  0.2833,  0.3500, -0.3000, -0.2250,
-0.3250, -0.1083, -0.0167, -0.0250, -0.0333,  0.0250,  0.0250,  0.3000,
0.4917,  0.2083, -0.2000, -0.1917, -0.3083, -0.0750,  0.2750, -0.0667,
0.0750, -0.1833,  0.2167,  0.0083,  0.2333,  0.2167, -0.0750, -0.1833,
-0.4833, -0.2583, -0.4583,  0.0083,  0.0000, -0.0250, -0.0167, -0.0333,
0.0000, -0.0333,  0.0250,  0.0167, -0.0833, -0.3417, -0.3500, -0.5833,
-0.2250, -0.0417, -0.4583, -0.1750,  0.0167,  0.0250, -0.2417, -0.3167,
0.1583, -0.2333, -0.5500,  0.3667, -0.0167,  0.0917, -0.0333,  0.0000,
0.0167, -0.0167,  0.0250,  0.0083, -0.0250,  0.0333, -0.0250,  0.0250,
-0.0083,  0.1167,  0.0750,  0.1000,  0.1833,  0.2417,  0.4833,  0.4583,
0.5750,  0.5500, -0.1167, -0.1333,  0.3250,  0.5583, -0.0083,  0.1167,
0.2417, -0.4083,  0.0000,  0.0000,  0.0250, -0.0333, -0.0167,  0.0333],
[ 0.0142,  0.0142,  0.0142, -0.0071, -0.0071, -0.0071, -0.0213, -0.0071,
-0.0213,  0.0354,  0.0142,  0.0213, -0.0283, -0.0213, -0.0071, -0.0142,
-0.0142,  0.0000, -0.0213, -0.0142, -0.0283, -0.0142, -0.0283, -0.0071,
0.0213,  0.0283,  0.0213, -0.0213,  0.0283,  0.0000,  0.0213,  0.0142,
-0.0354, -0.0283,  0.0283,  0.0213,  0.0567,  0.0142, -0.0425, -0.2904,
-0.2975, -0.0071, -0.1275, -0.2479, -0.1488, -0.0354, -0.0213,  0.0000,
0.0000,  0.0142, -0.0071,  0.0142,  0.0142, -0.0283,  0.0071,  0.0000,
0.0213, -0.0142,  0.0213, -0.0213,  0.0283,  0.0283, -0.0354, -0.0496,
0.0496, -0.3258,  0.2692, -0.2550,  0.0283, -0.0354, -0.4250, -0.1275,
-0.0496, -0.6234, -0.4179, -0.2054, -0.1488,  0.0354,  0.3258,  0.3046,
0.1771,  0.1983, -0.0213, -0.0213,  0.0000, -0.0213, -0.0071,  0.0213,
0.0000,  0.2904, -0.0779,  0.5525,  0.3967, -0.1133,  0.1842,  0.4250,
0.3967, -0.0071,  0.0779,  0.0213, -0.2125, -0.2125, -0.0354, -0.0850,
0.2338, -0.1913, -0.1842,  0.1063,  0.2904,  0.2479,  0.0071, -0.0142,
0.0142, -0.0071,  0.0000, -0.0071,  0.3967,  0.3400, -0.4038,  0.0850,
0.1063, -0.2763, -0.2833, -0.2975, -0.2975,  0.0354, -0.1133, -0.0992,
-0.1771,  0.1771,  0.1488,  0.2904,  0.2196,  0.1063,  0.2621, -0.2621,
0.3967, -0.2763, -0.1913, -0.0142, -0.0071,  0.0142,  0.0000, -0.0071,
0.2904,  0.1771,  0.3896,  0.1558, -0.0425,  0.2479, -0.3613, -0.1558,
-0.1700,  0.0354,  0.1204,  0.1913,  0.2125,  0.4250,  0.3188,  0.0567,
0.0213, -0.1417, -0.4038,  0.0213,  0.0142, -0.3896, -0.4108, -0.0213,
-0.0213,  0.0283,  0.0921,  0.2338,  0.7650,  0.4746,  0.3117,  0.2833,
0.1133,  0.0000,  0.2125, -0.0213,  0.2054,  0.0071,  0.0638,  0.0496,
0.0921,  0.4534,  0.0071,  0.0708,  0.0496,  0.0425,  0.0850, -0.0425,
-0.2267, -0.3258, -0.4250, -0.1629, -0.0213,  0.1417,  0.0638,  0.4179,
0.7154,  0.1983,  0.6517,  0.2833, -0.0992, -0.0283, -0.1063,  0.1204,
0.1771,  0.3683,  0.1700,  0.3258,  0.2692,  0.4392,  0.1842,  0.0213,
-0.0283, -0.1771,  0.1063, -0.1913, -0.0850, -0.0708, -0.5738,  0.0496,
0.0213,  0.1629,  0.3896, -0.1417,  0.6871,  0.3258,  0.1133,  0.0496,
-0.1204,  0.0213,  0.0425,  0.0850,  0.1842,  0.0921,  0.2975,  0.2904,
0.2692,  0.0992,  0.1629,  0.0992,  0.1275, -0.1842,  0.0142, -0.1417,
-0.1700, -0.4038, -0.8855, -0.4038,  0.0142,  0.1346,  0.2338,  0.0921,
0.1204,  0.2621, -0.1771, -0.1275, -0.2125, -0.1488,  0.0000, -0.1842,
0.2125,  0.2621,  0.3471,  0.1558,  0.0354,  0.2692,  0.3542,  0.3613,
0.2621,  0.1488,  0.0354, -0.2054, -0.0638, -0.7721, -0.1346,  0.0142,
-0.0142,  0.0425,  0.4321,  0.2267, -0.0496,  0.2125, -0.1133,  0.0283,
-0.1133, -0.0921, -0.0921, -0.1488, -0.0142,  0.1063, -0.3613,  0.0213,
0.2054,  0.4817,  0.4746,  0.6871,  0.4817,  0.1983,  0.0992, -0.3258,
-0.2763, -0.8996, -0.8642, -0.1346,  0.0000,  0.2550,  0.2975,  0.4888,
-0.3471, -0.0354, -0.3471, -0.1913, -0.2267, -0.0850, -0.0354,  0.1346,
0.2692, -0.0708, -0.3613, -0.1771,  0.0708,  0.2408,  0.1629,  0.3683,
0.5171,  0.3117,  0.2054, -0.0638, -0.4179, -0.6871, -0.7650,  0.0213,
-0.0283,  0.2196,  0.2196,  0.2904,  0.1063, -0.2054,  0.0567, -0.0779,
0.3046,  0.3188,  0.1842,  0.4392,  0.3400,  0.1063, -0.3046, -0.2550,
0.1771,  0.2125,  0.2196,  0.2692, -0.1346,  0.2196,  0.1913,  0.3613,
0.3613, -0.1842, -0.5667, -0.0213,  0.0142,  0.2479,  0.3258,  0.3683,
0.6375,  0.3046,  0.4463,  0.4888,  0.2550,  0.4534,  0.4675,  0.2338,
-0.1488,  0.0000, -0.2550, -0.2621,  0.1063,  0.0779, -0.1700,  0.1629,
-0.0567, -0.0496,  0.4463,  0.4534,  0.6942, -0.0425, -0.6375, -0.4038,
-0.0283,  0.1488,  0.1983,  0.3188,  0.6092,  0.5950,  0.5738,  0.7013,
0.3188,  0.2338,  0.1417, -0.1275, -0.1063, -0.2125, -0.4817, -0.1983,
-0.1700, -0.0071,  0.0000,  0.2054,  0.2125,  0.3683,  0.3400,  0.7084,
0.4888, -0.1417, -0.5242,  0.0213, -0.0213,  0.0708,  0.2621,  0.3896,
0.6588,  0.4392,  0.8359,  0.6304,  0.4675,  0.1133,  0.0000, -0.2975,
-0.2408, -0.3400, -0.3967, -0.0921, -0.1346,  0.1842,  0.1417,  0.2267,
0.2692,  0.4604,  0.6446,  0.5879,  0.1842, -0.5879, -0.4746, -0.2479,
0.0000, -0.0283, -0.0354, -0.0425, -0.0071,  0.3400,  0.7296,  0.6234,
0.5171,  0.1913,  0.1771, -0.2550, -0.1629, -0.2833, -0.4250,  0.0071,
0.1488,  0.3471,  0.4604,  0.5242,  0.3683,  0.5667,  0.5242,  0.0354,
0.1488, -0.2054, -0.0708,  0.0496, -0.0283,  0.0425,  0.0708, -0.4038,
-0.2692,  0.4108,  0.6092,  0.3613,  0.3117,  0.1275, -0.0425, -0.2408,
-0.2479, -0.2763, -0.1771,  0.1558,  0.2550,  0.3046,  0.4675,  0.4604,
0.2975,  0.3683,  0.2054,  0.0850, -0.3825,  0.1983, -0.0142,  0.0071,
0.0283,  0.0000,  0.2621, -0.0354, -0.2763,  0.1488,  0.0921,  0.4392,
0.2621, -0.0496,  0.0213, -0.1983, -0.2054, -0.3825, -0.0708,  0.2408,
0.3471,  0.2479,  0.3258,  0.4179,  0.2054,  0.2550, -0.3471, -0.1346,
-0.3683, -0.1913, -0.0708, -0.1629, -0.0213,  0.0213, -0.0638,  0.3896,
0.3471,  0.2692,  0.4108, -0.1063,  0.0071, -0.0921,  0.0213, -0.2833,
-0.3825, -0.0567,  0.0850,  0.2125,  0.0921,  0.1488,  0.2196,  0.1204,
0.0000,  0.0708, -0.3471, -0.1629,  0.3117,  0.1842, -0.1346, -0.0354,
-0.0142,  0.2692,  0.2408,  0.4250,  0.3613, -0.0213,  0.2196, -0.0850,
-0.0567, -0.0071,  0.0638, -0.0779, -0.0567, -0.0638,  0.0638,  0.2267,
0.1700,  0.1204,  0.0567, -0.0354, -0.1063, -0.3046, -0.5667, -0.1417,
-0.0425,  0.0000,  0.2054,  0.0142, -0.0142,  0.0213,  0.2338,  0.0071,
0.1275, -0.2550,  0.0213, -0.0992, -0.0638,  0.0567, -0.1913,  0.0000,
0.0708,  0.0425,  0.0496,  0.0000,  0.0708,  0.0071, -0.0283,  0.0142,
-0.0850, -0.4888, -0.3754, -0.2338,  0.2054, -0.0992, -0.0071, -0.0354,
0.0000,  0.0213, -0.0142,  0.4108,  0.0567, -0.4817, -0.0142,  0.1275,
0.2267,  0.1913,  0.0567,  0.2338,  0.2833,  0.1913, -0.1133,  0.2338,
0.0708, -0.1842, -0.3188, -0.1346, -0.1700, -0.0992,  0.0567,  0.2054,
-0.0921,  0.2975, -0.0567,  0.0354, -0.0071,  0.0071,  0.0708,  0.4463,
-0.0708, -0.0992, -0.2763,  0.3329,  0.1063, -0.0071,  0.3188,  0.2833,
0.1629,  0.2692,  0.3825,  0.1558, -0.0779, -0.1133, -0.0213, -0.2621,
-0.2763,  0.2621,  0.0708, -0.1063,  0.1842,  0.0779, -0.2621, -0.0283,
-0.0213, -0.0354, -0.0425,  0.4959,  0.4108,  0.4817,  0.3471,  0.2196,
0.1842, -0.0213,  0.4604,  0.1842,  0.0000,  0.1913,  0.0779,  0.0496,
0.1913,  0.0779, -0.3258, -0.2479,  0.2054, -0.1063, -0.0638, -0.1346,
0.1771,  0.0567, -0.0142,  0.0000, -0.0283,  0.0142,  0.0283, -0.1275,
0.2267,  0.4675,  0.1417,  0.3117,  0.2408, -0.0496,  0.0496,  0.2692,
0.1275,  0.1983,  0.0000,  0.0921, -0.0071, -0.3825, -0.2408, -0.2054,
-0.2904,  0.0071,  0.0000, -0.2196, -0.2833,  0.0142, -0.0283,  0.0000,
0.0000, -0.0354,  0.0213, -0.0213, -0.2338,  0.2408, -0.0638,  0.1346,
-0.0921, -0.6588, -0.5950, -0.3754, -0.1063, -0.5950, -0.3188, -0.0921,
-0.5809, -0.7154, -0.3258,  0.1700,  0.0850, -0.0992,  0.0638, -0.1275,
0.0213, -0.0283, -0.0213,  0.0000,  0.0000, -0.0213,  0.0283, -0.0283,
0.0354,  0.0425,  0.0213, -0.4250, -0.4179,  0.0142, -0.0992, -0.3046,
-0.4746,  0.4108, -0.5525, -0.2054,  0.2054,  0.2692,  0.0425, -0.3683,
0.2125, -0.1275,  0.0921,  0.0354,  0.0283,  0.0142, -0.0142, -0.0283],
[ 0.0000, -0.0086,  0.0172, -0.0086,  0.0343,  0.0086,  0.0343, -0.0172,
0.0343,  0.0258,  0.0343, -0.0086, -0.0343,  0.0172, -0.0172,  0.0000,
0.0000,  0.0258, -0.0086, -0.0343,  0.0172, -0.0172,  0.0172, -0.0086,
-0.0172, -0.0172,  0.0086,  0.0000, -0.0172, -0.0172,  0.0258,  0.0172,
0.0172,  0.0086, -0.0086, -0.0343,  0.0515, -0.0086,  0.0086,  0.1373,
0.1288,  0.0172, -0.1116, -0.3520, -0.1202,  0.0086, -0.0343,  0.0000,
0.0000,  0.0000, -0.0343, -0.0086, -0.0172,  0.0343,  0.0086,  0.0343,
-0.0172, -0.0258,  0.0343, -0.0343,  0.0258,  0.0000, -0.0172, -0.0429,
0.0343,  0.3605, -0.2146,  0.1889,  0.3090,  0.0687, -0.4292, -0.3863,
-0.6867, -0.5408, -0.4120,  0.1459,  0.1373, -0.1717, -0.2661, -0.2833,
-0.0343, -0.0429,  0.0172, -0.0258, -0.0172,  0.0086,  0.0172,  0.0000,
-0.0172,  0.3691,  0.2661,  0.6009,  0.0601,  0.1974,  0.4464,  0.2833,
0.7898,  0.0515,  0.0172,  0.2661,  0.2146,  0.4464,  0.8842,  0.8413,
0.8327,  0.2489, -0.0773,  0.6009,  0.4206,  0.3004,  0.0086, -0.0086,
0.0258,  0.0000, -0.2060, -0.0258,  0.2833,  0.4893,  0.4979,  0.4721,
0.5923,  0.4292,  0.6267,  0.7898,  0.7039,  0.4721,  0.6867,  0.4035,
0.4636,  0.2747,  0.6009,  0.6438,  0.2575, -0.3863, -0.3176, -0.2833,
0.8670,  0.4807, -0.0687,  0.0086,  0.0343,  0.0000,  0.0258,  0.0601,
0.3434,  0.8413,  0.2146,  0.4292,  0.2146,  0.4206,  0.4206,  0.3863,
0.3863,  0.5494,  0.3348,  0.3691,  0.3176,  0.2575, -0.0086,  0.3090,
0.3434, -0.1116, -0.3863,  0.2747,  0.2489,  0.7812, -0.1373, -0.0258,
-0.0258, -0.0172,  0.1717, -0.1202,  0.1545,  0.2833, -0.0601, -0.1288,
0.1288, -0.1889, -0.0687, -0.1202, -0.0429,  0.1545,  0.0429,  0.0773,
-0.0343, -0.0429,  0.1116, -0.0773,  0.0858, -0.1202, -0.1202,  0.3949,
1.0902,  0.7640,  0.6267,  0.1116,  0.0172,  0.1116, -0.1803,  0.0258,
0.2060,  0.1116, -0.0944, -0.0258,  0.0086, -0.1631, -0.1373, -0.2318,
-0.1116,  0.0687,  0.2747,  0.1030,  0.1288,  0.0172,  0.0858, -0.0858,
-0.0687, -0.1373, -0.0515,  0.2146,  0.1974,  0.7468,  0.5666,  0.1288,
0.0172, -0.2489, -0.0515,  0.1803,  0.0515, -0.4464,  0.0687, -0.0429,
-0.1116, -0.0429, -0.3348, -0.3004, -0.3004, -0.0258, -0.0601,  0.0944,
0.1288,  0.0172, -0.0343,  0.0773,  0.1631,  0.0944,  0.0858, -0.0343,
0.5494,  0.8241,  0.8756,  0.2404, -0.0258, -0.1889, -0.3691, -0.4120,
0.0944, -0.1545, -0.1717,  0.0515, -0.2919, -0.0944, -0.3262, -0.3605,
-0.2575,  0.0172,  0.1545,  0.2318, -0.2146, -0.1803,  0.1030,  0.0687,
0.1459,  0.2661,  0.2833,  0.7039,  0.2919,  0.9099,  0.4206,  0.0000,
-0.0086, -0.2060, -0.2404, -0.2575, -0.0687, -0.1373,  0.0258, -0.1459,
-0.3176, -0.2575, -0.2575, -0.1803, -0.1803,  0.0000,  0.2060, -0.0258,
-0.0687, -0.1631, -0.2232, -0.0343, -0.1202, -0.1288,  0.1889, -0.0172,
0.3348,  1.0044,  0.8155,  0.2747,  0.0000, -0.4292, -0.5923, -0.3863,
-0.0687, -0.1631, -0.1545, -0.4550, -0.0687, -0.3176, -0.1459,  0.0687,
0.1889,  0.0515,  0.1803, -0.1373, -0.2489, -0.1717, -0.2232, -0.0258,
-0.1803, -0.5065, -0.3176, -0.2404,  0.1631,  0.6867,  0.7297, -0.0258,
-0.0086, -0.3777, -0.6181, -0.4378, -0.2489, -0.0515, -0.0773, -0.1202,
-0.2232, -0.1202,  0.3434,  0.4378,  0.7125,  0.8241,  0.7898,  0.3004,
0.1202,  0.0515, -0.1030,  0.0944, -0.1288, -0.6267, -0.6524, -0.7211,
-0.8241,  0.1116,  0.3863,  0.0343,  0.0086, -0.1545, -0.5751, -0.2575,
-0.3605, -0.0258,  0.1030, -0.0343,  0.0515,  0.2833,  0.2661,  0.5236,
0.7812,  0.9872,  0.6095,  0.3262,  0.1631,  0.1288,  0.2232, -0.0858,
-0.0858, -0.0944, -0.3863, -0.8670, -0.9700,  0.1116,  0.2747,  0.0000,
-0.0086, -0.2404, -0.1717, -0.4206, -0.3004,  0.0773,  0.0343, -0.0601,
0.3777,  0.4979,  0.3176,  0.3605,  0.5151,  0.6867,  0.3520,  0.2146,
0.0515,  0.0687,  0.1373, -0.2060, -0.3863,  0.0601, -0.1459, -0.3434,
-0.3777, -0.2919, -0.1717,  0.0343,  0.0343,  0.1288,  0.0172, -0.3176,
-0.3434, -0.3262, -0.2404, -0.3090,  0.0858,  0.3777,  0.1889,  0.1288,
0.3262,  0.3777,  0.1545,  0.1373,  0.1803,  0.0773, -0.3777, -0.2060,
-0.0601, -0.3176,  0.0000,  0.0773, -0.2318,  0.1545,  0.3176,  0.2232,
-0.0086, -0.0086,  0.2747,  0.0429, -0.1974, -0.0687,  0.0172, -0.1803,
-0.4120, -0.2575,  0.1202,  0.0601,  0.1373,  0.1116, -0.0172, -0.1717,
0.1030,  0.1116, -0.0515,  0.0258,  0.1030, -0.1717,  0.1803,  0.0773,
0.3090, -0.2404, -0.0515,  0.0343, -0.0343, -0.0086,  0.4035,  0.4464,
0.1803,  0.1373,  0.1116,  0.2060, -0.2318, -0.4636, -0.6438, -0.5580,
-0.2404, -0.4035, -0.4206,  0.0258,  0.2232,  0.0944,  0.1116,  0.0515,
0.0773,  0.2232,  0.2318,  0.3691,  0.1803, -0.1373,  0.0515,  0.0086,
0.0000, -0.0258,  0.2318,  0.8413,  0.3348,  0.5236,  0.6696,  0.3863,
0.0601, -0.2833, -0.6524, -0.4893, -0.2146, -0.4120, -0.2833,  0.2661,
0.3605,  0.2060,  0.1545,  0.3691,  0.3520,  0.3520,  0.3434,  0.6352,
0.2575,  0.0172, -0.1202,  0.1974, -0.0343,  0.0258,  0.0515,  0.5837,
0.4464,  0.7382,  0.5236,  0.4807,  0.2404,  0.2661,  0.1717, -0.0429,
-0.3004,  0.0258, -0.0172,  0.2919,  0.4120,  0.3605,  0.5494,  0.3434,
0.2318,  0.7468,  0.1889,  0.1202,  0.0944, -0.0086,  0.2404, -0.0172,
-0.0258, -0.2318,  0.4464,  0.6009,  0.5236,  0.4979,  0.6267,  0.4206,
0.3520,  0.4292,  0.1889, -0.0515, -0.1459,  0.0343,  0.0858,  0.1545,
0.2404,  0.4206,  0.5322,  0.2146,  0.6782,  0.3777,  0.3176,  0.2919,
0.0172, -0.3262, -0.0858, -0.0172, -0.0172, -0.0172,  0.2575,  0.1288,
0.6009,  0.4721,  0.3605,  0.5065,  0.4550,  0.3090, -0.0172, -0.1202,
0.0601,  0.1202,  0.1373,  0.0258,  0.1631,  0.2318,  0.2919,  0.3777,
0.5065,  0.3777,  0.4979,  0.5322, -0.3520, -0.6009,  0.0687, -0.0172,
0.0172,  0.0172,  0.3863,  0.4120,  0.4206,  0.0172,  0.0343,  0.0773,
0.1202,  0.0343,  0.2661,  0.5494,  0.2661,  0.3262,  0.0773,  0.1631,
0.1202,  0.2232,  0.1030,  0.2404,  0.6352,  0.4206,  0.2146,  0.0000,
-0.3090, -0.2489,  0.0000, -0.0086, -0.0172, -0.0343,  0.1631,  0.7554,
0.4979,  0.2232, -0.1202, -0.0172,  0.0944,  0.3348,  0.1288,  0.2661,
0.3434,  0.1116,  0.1974,  0.2060,  0.0773,  0.2404,  0.2232,  0.3434,
0.4120,  0.0687,  0.1803, -0.1116, -0.0773,  0.1116, -0.3004, -0.0172,
0.0000,  0.0086,  0.1459,  0.1803,  0.2232, -0.1373,  0.1288,  0.3090,
0.0343,  0.5151,  0.1459,  0.4807,  0.1288,  0.2318,  0.4206,  0.2833,
0.2318,  0.0515, -0.0086,  0.0000, -0.1889, -0.1202,  0.1373,  0.0086,
-0.1974,  0.3348, -0.0172, -0.0172,  0.0000,  0.0086, -0.0343, -0.1202,
0.1889, -0.1030,  0.3605,  0.1631,  0.2919,  0.2575,  0.3262,  0.2833,
0.1717,  0.1459,  0.1116, -0.1974, -0.3691, -0.3520, -0.3949, -0.5837,
-0.5322, -0.2232,  0.0858, -0.1373, -0.1030,  0.0086,  0.0258,  0.0343,
-0.0258,  0.0086, -0.0343,  0.0172,  0.0858, -0.2146, -0.1459, -0.1889,
-0.1717,  0.1889,  0.0086, -0.1974, -0.0687, -0.1202, -0.3262, -0.4035,
-0.2747, -0.2489, -0.2661, -0.3863, -0.2661, -0.1459, -0.1974, -0.0172,
0.0258,  0.0172, -0.0086, -0.0258,  0.0172,  0.0258,  0.0343, -0.0172,
-0.0172, -0.1717, -0.1288, -0.3262, -0.4035, -0.1288, -0.4721, -0.0687,
-0.0687, -0.7726, -0.2919, -0.0858, -0.4636, -0.5065, -0.1116,  0.0429,
-0.1889,  0.3176, -0.2404,  0.0258,  0.0172,  0.0258, -0.0086, -0.0172],
[ 0.0175, -0.0088,  0.0088,  0.0000,  0.0350, -0.0088, -0.0350, -0.0175,
-0.0088,  0.0000, -0.0263, -0.0175, -0.0088,  0.0088, -0.0263, -0.0263,
-0.0175,  0.0088,  0.0088, -0.0088,  0.0263, -0.0088,  0.0000,  0.0000,
0.0088,  0.0263,  0.0000, -0.0088, -0.0263,  0.0175,  0.0000,  0.0175,
-0.0088,  0.0263,  0.0088, -0.0088,  0.0088, -0.0088,  0.0000,  0.3680,
0.3592, -0.0175,  0.0263, -0.1840, -0.2278,  0.0088,  0.0263, -0.0088,
0.0263,  0.0350,  0.0175, -0.0175, -0.0263, -0.0088,  0.0175,  0.0175,
-0.0088,  0.0175,  0.0350,  0.0175, -0.0088,  0.0000,  0.0350,  0.0088,
-0.0438, -0.3767, -0.4118, -0.2716,  0.1840, -0.0175, -0.1139, -0.1752,
-0.7272, -0.5870, -0.2453,  0.1927,  0.1752,  0.3154,  0.3855, -0.3329,
-0.1314, -0.1489,  0.0000, -0.0088,  0.0263, -0.0175, -0.0175,  0.0350,
-0.0175, -0.2804,  0.0788,  0.1402, -0.2190,  0.1314, -0.0438, -0.0438,
0.3855, -0.2190, -0.1402, -0.1402, -0.1665,  0.2453,  0.2365,  0.0788,
0.2541,  0.2891, -0.0088,  0.3855,  0.3855,  0.2453,  0.0263, -0.0263,
-0.0088,  0.0263, -0.1665, -0.0088,  0.3592,  0.3767,  0.0876,  0.0350,
-0.0613,  0.0438, -0.0788,  0.3592,  0.1402,  0.0701,  0.0088,  0.0350,
-0.1227, -0.0613, -0.1051,  0.1489, -0.0613, -0.0350,  0.2015,  0.6834,
0.5695,  0.1227, -0.4205,  0.0263,  0.0088,  0.0088,  0.0175, -0.0964,
-0.3942, -0.1489, -0.2979, -0.0088,  0.0175,  0.2015,  0.2278,  0.1840,
0.0088,  0.2365,  0.0088, -0.0526, -0.0263, -0.0438,  0.0088, -0.1402,
0.2103, -0.0788, -0.0263,  0.5519,  0.2190,  0.2979, -0.1927,  0.0000,
-0.0088,  0.0000, -0.2453, -0.3855, -0.1314, -0.0175, -0.0701, -0.0175,
0.0613, -0.0701,  0.1577,  0.1489,  0.1314,  0.1927,  0.0175,  0.0175,
-0.0263,  0.0088, -0.1577, -0.0175, -0.0438, -0.0175, -0.0526,  0.3154,
0.9111,  0.4731,  0.2891,  0.0088,  0.0088,  0.0788, -0.4643,  0.0788,
-0.2190,  0.0964, -0.1402,  0.1051,  0.1402,  0.1402,  0.2453,  0.1665,
0.1752,  0.2453,  0.1227,  0.1227,  0.0526,  0.1051,  0.1402, -0.1227,
0.0000, -0.1927,  0.0526,  0.2103,  0.4030,  0.7447,  0.1927,  0.1314,
0.0175, -0.1840,  0.0964,  0.1051, -0.1752, -0.1139,  0.1139, -0.0526,
0.0964,  0.0876,  0.0175,  0.2278, -0.0438, -0.0526, -0.2015, -0.0350,
0.0876,  0.2015,  0.0788, -0.0701,  0.1840,  0.0263,  0.0701, -0.0088,
0.5695,  0.8586,  0.5957,  0.0088, -0.0350, -0.1752, -0.1227, -0.7009,
-0.2015, -0.2365, -0.1051,  0.0701,  0.0788,  0.1577,  0.0964,  0.0526,
0.0350,  0.0175, -0.1051, -0.1227, -0.1927, -0.2015,  0.1402, -0.0788,
0.0088,  0.2190,  0.1139,  0.1489,  0.4906,  0.6571,  0.1489,  0.0000,
-0.0175, -0.1402, -0.0088, -0.1665,  0.0613, -0.2015,  0.1840,  0.1227,
-0.0613,  0.1402,  0.0964,  0.0350, -0.1139, -0.0701, -0.1314, -0.1139,
-0.2015, -0.1314, -0.2453, -0.0964, -0.0263, -0.1227,  0.0350,  0.1577,
0.4819,  1.1126,  0.7359,  0.3066, -0.0350, -0.3680, -0.4468, -0.4643,
-0.1665, -0.0175,  0.1489,  0.0876,  0.2190,  0.1139,  0.0876,  0.1051,
0.1752,  0.0526, -0.0175, -0.2979, -0.1577, -0.2015, -0.1051, -0.0613,
-0.1314, -0.0964, -0.1489, -0.3680,  0.1227,  0.4906,  0.7096, -0.0263,
-0.0350, -0.3767, -0.4994, -0.2804, -0.0788,  0.0000,  0.2190,  0.2541,
0.1402,  0.1577,  0.3592,  0.3942,  0.3504,  0.3592,  0.1051, -0.0876,
-0.0613, -0.0613, -0.1402, -0.1402, -0.0350, -0.1840, -0.1227, -0.4556,
-0.5169,  0.0175,  0.1840,  0.0350,  0.0350, -0.1139, -0.4731, -0.0526,
-0.1051,  0.1927,  0.5169,  0.4030,  0.4380,  0.1927,  0.2190,  0.2979,
0.4731,  0.2628, -0.0350, -0.0438, -0.1227,  0.0088,  0.1314,  0.0350,
0.1314,  0.0175,  0.1665, -0.2541, -0.2190, -0.2628, -0.0876, -0.3680,
-0.0263, -0.2716, -0.1752, -0.0613,  0.1227,  0.3066,  0.2716,  0.3592,
0.4468,  0.4293,  0.3504,  0.2541,  0.3504,  0.1314, -0.0088, -0.1051,
-0.1139,  0.0175,  0.0526,  0.0088,  0.0000,  0.1752,  0.3154,  0.1314,
0.2716, -0.4468, -0.6571,  0.0175,  0.0000,  0.1314,  0.0964, -0.2453,
-0.0613, -0.1051, -0.3592, -0.0438,  0.2979,  0.4205,  0.3242,  0.2716,
0.3329,  0.0088, -0.1227, -0.1139, -0.0964,  0.0175,  0.0000,  0.1227,
0.1577, -0.0876,  0.1227,  0.2716, -0.0438, -0.0263, -0.5607, -0.0526,
0.0088,  0.0175,  0.0350, -0.2278, -0.2278,  0.0263, -0.1051, -0.2453,
-0.1752, -0.2453,  0.0613,  0.1402,  0.0613, -0.0175, -0.2541, -0.2015,
-0.1402,  0.0701,  0.1752,  0.2979,  0.0788, -0.0438,  0.0438,  0.0788,
0.0613, -0.9900, -0.6395, -0.3942, -0.0263,  0.0175,  0.0788,  0.0088,
-0.2190,  0.1489,  0.0876,  0.0000, -0.3066, -0.1489, -0.1752, -0.2015,
-0.0701, -0.4643, -0.4293, -0.1402, -0.0876,  0.2278,  0.3504,  0.2190,
0.2365,  0.3592, -0.0088,  0.1314, -0.0263, -0.7534, -0.4819,  0.0000,
0.0175,  0.0350,  0.1314,  0.4994,  0.0526,  0.1227,  0.3417,  0.1051,
0.0000, -0.2103, -0.3329, -0.2541, -0.1840, -0.4994, -0.3417,  0.1577,
0.2103,  0.2541,  0.1665,  0.1840,  0.2365,  0.2804,  0.0613, -0.0964,
-0.0088, -0.8235, -0.0964, -0.3066, -0.0263,  0.0438,  0.1927,  0.3417,
0.2103,  0.4819,  0.0788,  0.2365,  0.1840,  0.1051, -0.0175,  0.0088,
-0.2190, -0.0613, -0.1665,  0.1051,  0.2365,  0.2541,  0.3417,  0.2278,
0.0876,  0.0964, -0.2453, -0.0701, -0.1577, -0.8673, -0.3767, -0.0788,
0.0088,  0.2453, -0.0088,  0.2804,  0.1402,  0.1227,  0.0438, -0.0876,
0.1752,  0.0876,  0.2190,  0.0000, -0.0175, -0.0263, -0.0701,  0.0788,
0.0526,  0.3592,  0.2891,  0.1227,  0.1227, -0.0088,  0.1577, -0.0701,
-0.1840, -0.9199, -0.0088,  0.0000,  0.0263,  0.0263,  0.2015,  0.2979,
0.3680,  0.0964,  0.1139,  0.0964,  0.1402, -0.0175, -0.0788, -0.0876,
0.0876,  0.0613,  0.1051,  0.1139,  0.1927,  0.2103,  0.0613,  0.1139,
0.0876,  0.1489,  0.0526, -0.3942, -0.4380, -0.7885,  0.0000, -0.0175,
-0.0263, -0.0088,  0.1577,  0.0613,  0.0788,  0.1665, -0.0876, -0.1665,
-0.0175, -0.1577,  0.0088,  0.1840,  0.2453,  0.2278,  0.0263,  0.1227,
0.2541,  0.1752,  0.0350,  0.0526,  0.0088,  0.0613, -0.2979, -0.3942,
-0.5519, -0.2365, -0.0438, -0.0088,  0.0088, -0.0350,  0.1051,  0.4380,
0.1840,  0.2365, -0.1665, -0.1051, -0.2015,  0.0438,  0.0613,  0.2628,
0.1139,  0.0438,  0.2190,  0.2453,  0.1139,  0.2891,  0.1402, -0.0526,
0.0175, -0.3066, -0.5432, -0.3504, -0.5519, -0.1489, -0.1840,  0.0175,
0.0263,  0.0175,  0.1139,  0.2541,  0.3504,  0.1139,  0.1927,  0.2453,
0.1402,  0.3417,  0.2190,  0.3154,  0.3242,  0.3855,  0.3855,  0.3592,
0.1665,  0.2541,  0.1752,  0.0088, -0.2278, -0.1665, -0.3329, -0.2365,
-0.7009, -0.3329,  0.0088, -0.0088,  0.0175,  0.0350,  0.0000,  0.2716,
0.4030, -0.1051,  0.4030,  0.2365,  0.0438,  0.2716,  0.4468,  0.4118,
0.5519,  0.4293,  0.4293,  0.2015,  0.0613, -0.0438, -0.2453, -0.5695,
-1.0776, -0.7359, -0.3855, -0.2453, -0.2804, -0.0350, -0.0175, -0.0263,
-0.0350, -0.0175, -0.0088,  0.0000, -0.1577, -0.4556, -0.3242, -0.5257,
-0.5344, -0.0088, -0.3066, -0.2891, -0.0788, -0.3592, -0.7710, -0.3417,
-0.4468, -0.6220, -0.8235, -0.6133, -0.8323, -0.5169, -0.4468,  0.0175,
-0.0088, -0.0350, -0.0350, -0.0263,  0.0088, -0.0263, -0.0263,  0.0175,
0.0000, -0.1227, -0.1139, -0.4293, -0.5169, -0.1227, -0.4643, -0.0438,
-0.2804, -0.6571, -0.4819, -0.1314, -0.3767, -0.4118, -0.5344,  0.0263,
-0.4293,  0.2365, -0.3767,  0.0350, -0.0350,  0.0263, -0.0088, -0.0088],
[ 0.0292, -0.0097,  0.0292, -0.0097,  0.0292,  0.0097, -0.0195,  0.0097,
-0.0097,  0.0097, -0.0097, -0.0097, -0.0195, -0.0097,  0.0195,  0.0292,
-0.0195,  0.0000,  0.0097, -0.0097, -0.0292,  0.0195, -0.0195,  0.0000,
-0.0195,  0.0000, -0.0292,  0.0000, -0.0097, -0.0292,  0.0195, -0.0195,
-0.0097, -0.0292,  0.0195, -0.0195, -0.0195,  0.0000,  0.0292, -0.1850,
-0.2240,  0.0292, -0.0097,  0.0584, -0.0584,  0.0097, -0.0097,  0.0195,
-0.0097, -0.0292, -0.0097, -0.0195, -0.0292,  0.0000,  0.0292,  0.0389,
-0.0389,  0.0292, -0.0195,  0.0195,  0.0000, -0.0389,  0.0097,  0.0389,
-0.0584,  0.1461,  0.2434,  0.0195, -0.3700, -0.2824,  0.2726,  0.2629,
-0.0292, -0.3311, -0.0876, -0.1168, -0.0682, -0.1363,  0.0097,  0.0292,
0.0000,  0.0292, -0.0097, -0.0292, -0.0195, -0.0292,  0.0292,  0.0195,
0.0097,  0.3505, -0.0292,  0.2532, -0.4382, -0.3408,  0.1363,  0.1461,
-0.0779,  0.2142, -0.2726, -0.4869, -0.4382, -0.6719, -0.5842, -0.7595,
-0.2726, -0.1655, -0.1753, -0.1071,  0.1266,  0.0000,  0.0097, -0.0389,
0.0097,  0.0097,  0.0389,  0.0292,  0.1168,  0.0195, -0.1558, -0.2532,
0.0779,  0.1071,  0.2240,  0.3408,  0.4382,  0.7498,  0.1753, -0.5063,
-0.6913, -1.1003, -1.0711, -1.2366, -0.7984, -0.5550, -0.3213,  0.0389,
-0.1558, -0.0779,  0.0097, -0.0195,  0.0000, -0.0097,  0.0292,  0.1655,
0.3700,  0.3019,  0.2337,  0.1753,  0.2824,  0.3019,  0.1168,  0.2337,
0.1850,  0.1655, -0.1363,  0.2045, -0.3505, -0.6524, -0.5161, -0.4771,
-0.6913, -0.5355, -0.7206, -0.9250, -0.5063, -0.2434, -0.1071, -0.0097,
0.0000, -0.0195, -0.0487,  0.4966,  0.2726,  0.2240,  0.3992,  0.3019,
0.3311,  0.4576,  0.2240,  0.1947, -0.0389,  0.1947,  0.2921,  0.2434,
0.1266,  0.0000, -0.0876, -0.1947, -0.2921, -0.2434, -0.7011, -0.3992,
-1.1392, -0.5550, -0.1558, -0.0195,  0.0000, -0.0292,  0.2532,  0.0097,
0.0487,  0.2045,  0.6427,  0.2142,  0.0195,  0.0876, -0.0876,  0.1168,
0.2337,  0.2434,  0.3019,  0.2921,  0.3213,  0.0584, -0.3505, -0.4576,
-0.4090, -0.2921, -0.4090, -0.8471, -0.7498, -0.7790, -0.5842, -0.1655,
0.0000,  0.2629,  0.0682,  0.0292,  0.3603,  0.3603,  0.0487,  0.1753,
0.1850, -0.0487,  0.1168,  0.0876,  0.2142,  0.3408,  0.6719,  0.2824,
0.1363,  0.0097, -0.3895, -0.5258, -0.4674, -0.0876, -0.3505, -0.2921,
-0.5550, -0.6524, -0.7303, -0.1947, -0.0097,  0.2142,  0.3797,  0.5940,
0.1558,  0.3311,  0.1071, -0.0974,  0.1168,  0.0000,  0.2142,  0.1753,
0.4966,  0.4674,  0.9542,  0.4674,  0.0779, -0.0682, -0.2824, -0.2142,
-0.3116, -0.3603, -0.3797, -0.7400, -0.5550, -0.5940, -0.5550,  0.0097,
0.0389,  0.1947,  0.2142,  0.3505,  0.0097,  0.0097, -0.0195,  0.0682,
0.1168,  0.0000,  0.1363,  0.2629,  0.4966,  0.9056,  0.7887, -0.0097,
-0.1461, -0.1655, -0.1655, -0.1753, -0.0876,  0.0584, -0.0487, -0.2726,
-0.7400, -0.6524, -0.5161, -0.2726,  0.0097,  0.4284,  0.6134,  0.3797,
0.1558,  0.0292,  0.0389,  0.3603,  0.0000,  0.0876,  0.2240,  0.3797,
0.3311,  0.5355,  0.3019,  0.1558, -0.0974,  0.0974, -0.1655,  0.0000,
0.2142,  0.2629,  0.1168, -0.2532, -0.8569, -0.3116, -0.3992, -0.0195,
0.0000,  0.3700,  0.6427,  0.1168, -0.0487,  0.0487, -0.0195,  0.0195,
0.2142,  0.2045, -0.1168, -0.0389, -0.3603, -0.1168,  0.0584, -0.0682,
-0.0195,  0.1461,  0.0000,  0.0779,  0.0584,  0.1850,  0.0097, -0.1168,
-0.4187, -0.4576, -0.0097, -0.0195,  0.0000,  0.1850,  0.5648, -0.0779,
0.1363,  0.0389, -0.1071, -0.0097,  0.2434,  0.1850, -0.0195, -0.2142,
-0.4674,  0.0097,  0.1558, -0.1071,  0.2240,  0.1558,  0.2240,  0.3311,
0.0097,  0.1655,  0.0000, -0.0779, -0.3408, -0.7790,  0.0487,  0.2142,
0.0000,  0.2240,  0.1753,  0.0779, -0.1363, -0.2532, -0.1071,  0.0195,
0.0195, -0.2142,  0.0000, -0.2921, -0.3797, -0.0682,  0.0292,  0.1168,
0.1753,  0.1461,  0.2824,  0.4284,  0.3895,  0.1071,  0.1266, -0.0195,
-0.4869, -0.0097,  0.2337,  0.0097, -0.0195,  0.0487,  0.1558, -0.1071,
0.1558,  0.0389,  0.1558,  0.0292, -0.0097,  0.0389,  0.0292, -0.1753,
-0.2629, -0.1850, -0.1850,  0.2629,  0.1850,  0.2142,  0.4382,  0.2629,
0.2921,  0.2142,  0.1850, -0.0584, -0.0682, -0.1558,  0.0682, -0.0292,
-0.0195,  0.0000, -0.0389,  0.0000,  0.1363, -0.1266, -0.0584, -0.0584,
0.1071,  0.0682, -0.1753, -0.2142, -0.2824, -0.2337, -0.3019,  0.0779,
0.2434,  0.0195,  0.2921,  0.1947,  0.0974,  0.0389, -0.0195, -0.0195,
-0.1850,  0.4966,  0.1655, -0.0584, -0.0097,  0.0195, -0.1461,  0.0487,
0.0584, -0.0292, -0.0779, -0.1461, -0.0682, -0.1071, -0.1558, -0.1363,
-0.3213,  0.0584,  0.0195,  0.3311,  0.2434,  0.0584, -0.0682, -0.0487,
0.1461,  0.0779, -0.0195, -0.1168, -0.3505,  0.2824,  0.1363,  0.0000,
-0.0097,  0.0292, -0.2240, -0.1266,  0.4674, -0.0389, -0.1363, -0.3311,
-0.0487,  0.0682, -0.1363, -0.2337, -0.6037, -0.0389,  0.1558,  0.1753,
0.1168,  0.0682,  0.0487, -0.1071, -0.1266,  0.0292, -0.1947, -0.4674,
-0.7206,  0.1558,  0.0974,  0.1266,  0.0000,  0.0195, -0.2045,  0.0195,
0.2045,  0.0779, -0.5745, -0.1655,  0.0097, -0.6232, -0.3895, -0.4576,
-0.1461, -0.0195,  0.1558,  0.1461, -0.0097,  0.0487, -0.2532, -0.0389,
-0.0487, -0.0389,  0.1363, -0.0195, -0.3895,  0.3992,  0.1363, -0.0195,
-0.0195, -0.1461, -0.1558,  0.1655, -0.1363, -0.1850, -0.3408, -0.5258,
-0.2532, -0.5161, -0.5550, -0.2921, -0.1363, -0.1168,  0.3505,  0.1947,
0.0682, -0.0195, -0.2434,  0.0487, -0.0779, -0.0097, -0.1655, -0.3700,
-0.2921,  0.3992,  0.2045, -0.0195,  0.0097,  0.0292, -0.0195, -0.1655,
-0.4674, -0.6719, -0.7692, -0.8861, -0.6621, -0.6621, -0.3992, -0.1363,
0.0876, -0.0195, -0.0195, -0.0779,  0.0487, -0.0682, -0.1558, -0.1266,
-0.1266, -0.1947, -0.3700, -0.3116,  0.2726,  0.3700, -0.0195,  0.0292,
0.0000,  0.0097, -0.2434, -0.1850, -0.4090, -0.6329, -0.6427, -0.8471,
-0.5453, -0.3603, -0.2045,  0.0487,  0.0389, -0.1947, -0.0487, -0.0292,
-0.0584, -0.0487, -0.1266,  0.0974, -0.1461, -0.4382, -0.0195,  0.0876,
0.4771,  0.2240,  0.0292, -0.0292,  0.0097,  0.0000, -0.0584, -0.2434,
-0.3116, -0.5453, -0.6621, -0.3992, -0.3797, -0.3019, -0.1071, -0.1363,
-0.0389, -0.0682, -0.0292, -0.1655, -0.2434,  0.0097, -0.0876, -0.3213,
-0.3895,  0.0584,  0.3408,  0.1558,  0.2240, -0.1558,  0.0389, -0.0195,
-0.0195, -0.0195, -0.1850,  0.2142,  0.2142, -0.0974, -0.3116, -0.1071,
-0.1266, -0.1655,  0.0974, -0.1363, -0.1071, -0.0487, -0.2045, -0.1266,
-0.2434,  0.2045,  0.0097,  0.0097,  0.2726,  0.4382,  0.3019,  0.2532,
0.1655, -0.1266, -0.0195,  0.0000,  0.0097, -0.0097,  0.0195, -0.2629,
-0.4771, -0.3700, -0.3603, -0.0584,  0.1461,  0.3116,  0.0195,  0.1168,
0.2921,  0.2142,  0.1655,  0.2434,  0.4090,  0.1461,  0.4479,  0.5161,
0.8277,  0.4771,  0.2921,  0.3992,  0.0584, -0.0195,  0.0000,  0.0292,
0.0097,  0.0097,  0.0195, -0.0292,  0.0682, -0.1850, -0.0292,  0.2240,
0.5453,  0.2045,  0.3505,  0.4674,  0.2240,  0.3895,  0.6816,  0.4674,
0.5063,  0.5161,  0.5940,  0.3992,  0.3505,  0.2240,  0.5648,  0.0974,
0.0097,  0.0000,  0.0000,  0.0000, -0.0292, -0.0292,  0.0389,  0.0000,
0.0195,  0.1850,  0.1071,  0.4966,  0.6037,  0.1947,  0.5648,  0.0974,
0.3019,  0.7206,  0.4382,  0.0974,  0.3797,  0.5355,  0.2629,  0.0000,
0.1947, -0.2726,  0.1947, -0.0195,  0.0000,  0.0292,  0.0000,  0.0292],
[ 0.0290,  0.0000, -0.0386,  0.0290, -0.0193,  0.0097, -0.0193, -0.0097,
-0.0097,  0.0193, -0.0097, -0.0290,  0.0386,  0.0097,  0.0193,  0.0193,
-0.0097, -0.0290,  0.0193, -0.0097,  0.0097, -0.0097, -0.0193,  0.0290,
-0.0097, -0.0386, -0.0290, -0.0290,  0.0097,  0.0000, -0.0097, -0.0097,
-0.0097, -0.0290,  0.0386,  0.0000, -0.0290, -0.0097,  0.0386, -0.0193,
-0.0579,  0.0097,  0.1834,  0.0579, -0.4248, -0.0097,  0.0386, -0.0193,
0.0193, -0.0193,  0.0386,  0.0000,  0.0097, -0.0290,  0.0097, -0.0193,
0.0097,  0.0290, -0.0193, -0.0097,  0.0097,  0.0193,  0.0000,  0.0290,
-0.0386, -0.2317, -0.3862,  0.1738, -0.0097,  0.0483,  0.0097, -0.2510,
-0.3379, -0.1931, -0.0579,  0.1545,  0.0483,  0.2703,  0.2317, -0.3572,
-0.2221, -0.2317,  0.0290,  0.0097,  0.0290,  0.0000,  0.0290, -0.0290,
0.0290,  0.1159, -0.1159, -0.1641, -0.4055,  0.1641, -0.0097, -0.4634,
-0.1352, -0.2414, -0.2028, -0.3572, -0.1062,  0.2510, -0.0290, -0.3379,
-0.0676, -0.1062, -0.0869,  0.1352,  0.1545,  0.3669, -0.0193, -0.0193,
-0.0386, -0.0193,  0.1545, -0.0386, -0.0193,  0.2897, -0.0869, -0.1159,
-0.0579, -0.3090, -0.2897, -0.0097, -0.0966,  0.1545, -0.1448,  0.4538,
0.1931,  0.0676,  0.0386, -0.0193,  0.0097, -0.1352,  0.2800,  0.5407,
0.0869, -0.0386, -0.5600, -0.0097, -0.0290,  0.0097, -0.0193,  0.0193,
0.0579,  0.1159,  0.0579, -0.0483, -0.4441, -0.2897, -0.2800, -0.5117,
-0.1255, -0.1062, -0.3090, -0.1352,  0.0097, -0.2510, -0.0772, -0.1641,
-0.0483, -0.2221, -0.2800,  0.0772,  0.0483,  0.0290, -0.1931,  0.0097,
0.0000,  0.0290,  0.0772,  0.5117,  0.0290, -0.0386,  0.0483, -0.1738,
-0.2028, -0.1738, -0.1352,  0.0193,  0.0000, -0.0869, -0.0097,  0.0386,
-0.1834,  0.0772, -0.1062,  0.1062, -0.0579, -0.1255, -0.3379, -0.1062,
-0.0097, -0.0579,  0.0290,  0.0290,  0.0000,  0.0579, -0.1448,  0.4828,
0.0290,  0.3283,  0.0772, -0.0579, -0.2317, -0.1062, -0.0483,  0.0966,
0.0000,  0.1062,  0.1255,  0.2510,  0.1159,  0.0290,  0.1448,  0.2317,
0.2607,  0.2510,  0.2124,  0.1159, -0.1738, -0.0869, -0.0386, -0.1062,
-0.0193,  0.2607,  0.0869,  0.2124,  0.1834,  0.3379, -0.0483,  0.1641,
-0.1545, -0.2993, -0.1062, -0.0966, -0.1448,  0.2124,  0.3090,  0.1738,
0.2028,  0.2510,  0.2414,  0.4152,  0.4248,  0.6662,  0.5793,  0.2607,
0.4152,  0.5214,  0.3379,  0.0966,  0.0579,  0.2028,  0.2993,  0.1448,
0.2607,  0.1062,  0.2124, -0.0579, -0.2607, -0.3959, -0.3572, -0.2317,
0.2221,  0.4345,  0.5793,  0.3765,  0.4152,  0.2800,  0.3186,  0.3379,
0.3283,  0.4731,  0.4248,  0.3186,  0.9365,  0.6469, -0.0966,  0.1062,
0.0386,  0.2221,  0.4248,  0.4345,  0.4152,  0.0000,  0.0966, -0.1062,
-0.4538, -0.8497, -0.4248, -0.2028,  0.1545,  0.4055,  0.7724,  0.4538,
0.4152,  0.1834,  0.1834,  0.2607,  0.2607,  0.3572,  0.4345,  1.0621,
1.0524,  1.2262,  0.6565,  0.1545,  0.0097,  0.2993,  0.5310,  0.3669,
0.2607, -0.1448,  0.1448, -0.3379, -0.5310, -0.6469, -0.4828, -0.0869,
0.2028,  0.5310,  0.6759,  0.4055,  0.2703,  0.0869,  0.1448, -0.0676,
-0.1448,  0.0193, -0.0869,  0.2897,  0.5697,  0.5793,  0.6855, -0.0097,
0.0000,  0.3572,  0.5021,  0.3765,  0.1738,  0.0966, -0.1834,  0.0097,
-0.2414, -0.4731, -0.2028, -0.2221,  0.0290,  0.4055,  0.4634,  0.2703,
-0.0676, -0.0966, -0.1062, -0.4828, -0.6662, -0.4538, -0.6565, -0.7338,
-0.9559, -0.1448, -0.0869,  0.0097, -0.0290, -0.1738,  0.4634,  0.4731,
0.7724,  0.1062,  0.3283,  0.1062,  0.0483, -0.4152, -0.3862, -0.1834,
0.0097,  0.1738,  0.2897,  0.2607,  0.0290, -0.0193, -0.0579, -0.1352,
-0.4731, -0.5117, -0.5890, -1.0717, -0.8110, -0.7724, -0.4055, -0.0097,
0.0000,  0.0483, -0.0966,  0.4828,  0.0966, -0.0966, -0.0193, -0.1255,
-0.0483, -0.1834, -0.1931, -0.1641,  0.0483,  0.0676,  0.3186,  0.1545,
-0.0290,  0.0869, -0.0966, -0.1931,  0.0000, -0.3186, -0.8110, -1.1103,
-0.7531, -0.1641, -0.2414,  0.0193, -0.0290,  0.0869,  0.0097, -0.1159,
0.2124,  0.0386, -0.1545, -0.3669, -0.4248, -0.0966, -0.3476, -0.0483,
0.2221, -0.0097,  0.1641,  0.0676,  0.0386,  0.0483,  0.0966, -0.1641,
0.1545, -0.1931, -0.6179, -0.8207, -0.6179, -0.8400, -0.2221, -0.0483,
0.0193, -0.0097, -0.0966, -0.2607,  0.0676,  0.2414, -0.0869, -0.4538,
-0.3572, -0.3283, -0.4634, -0.2607, -0.0097,  0.2800, -0.0097,  0.0772,
0.2124,  0.2897,  0.0676,  0.0676, -0.1931, -0.5600, -0.8979, -0.7241,
-0.7048, -0.6759, -0.0869, -0.0193, -0.0193, -0.0097, -0.3862, -0.1255,
0.0966,  0.3862,  0.3765,  0.1834, -0.3572, -0.2510, -0.0676,  0.0097,
0.1255,  0.2800,  0.2510,  0.2510,  0.0386,  0.2414,  0.0386, -0.1448,
-0.2800, -0.4345, -0.6759, -0.8400, -0.7434, -0.6469,  0.0483,  0.0193,
-0.0290,  0.0386,  0.0483, -0.1641,  0.0000,  0.0386,  0.5793,  0.2607,
-0.0772, -0.1159, -0.1641,  0.0483,  0.0193,  0.2414,  0.4152,  0.2607,
0.1159,  0.2510,  0.2510, -0.2607, -0.4828, -0.6083, -1.2165, -1.0814,
-0.5793, -0.5890,  0.1255,  0.0290, -0.0290,  0.0000, -0.2317, -0.1255,
-0.0097,  0.0676, -0.1159,  0.4055, -0.0386,  0.1255, -0.0193,  0.0869,
0.1255,  0.2897,  0.3476,  0.2317,  0.0097, -0.1062, -0.2510, -0.1352,
-0.2510, -0.7628, -0.6179, -0.5890, -0.4345,  0.0676,  0.0869, -0.0097,
0.0386,  0.2124, -0.2317, -0.0097, -0.3283, -0.2800,  0.2028, -0.0386,
0.0579,  0.1641,  0.0966, -0.0772,  0.0966,  0.0483,  0.3283,  0.2124,
-0.2607, -0.2028, -0.3669, -0.3959, -0.9269, -1.0234, -1.0041, -0.2703,
0.0193,  0.0290,  0.1352,  0.0290,  0.0386, -0.0193,  0.1448,  0.1062,
-0.2124, -0.0097,  0.2221,  0.0483,  0.1255,  0.0000,  0.0676, -0.0097,
-0.0193,  0.1352,  0.1545, -0.0483, -0.1159, -0.3476, -0.4055, -0.5407,
-0.5697, -0.8883, -0.7048, -0.5117, -0.2703,  0.0869,  0.0097, -0.0097,
0.0097,  0.0097, -0.2897,  0.1352, -0.0483,  0.2897,  0.2800,  0.0386,
0.1255,  0.1545,  0.1545,  0.0290,  0.1738, -0.0483,  0.1255, -0.2510,
-0.1931, -0.3186, -0.6565, -0.2993, -1.2165, -0.6565, -0.5503, -0.4538,
-0.2414, -0.1641,  0.0579, -0.0097,  0.0290,  0.0290, -0.1641, -0.4538,
0.0097,  0.1062,  0.0579,  0.2897,  0.1448, -0.0097,  0.0386,  0.1448,
-0.0772, -0.1255, -0.1352, -0.1159, -0.6662, -0.5310, -0.7531, -0.9559,
-0.6083, -0.4924, -0.5117,  0.0193, -0.3765, -0.0772,  0.3090,  0.0097,
0.0290, -0.0290, -0.1255,  0.1255,  0.0483,  0.4248,  0.3669,  0.2414,
0.2897, -0.2221, -0.0290, -0.1255,  0.1448,  0.0966, -0.1641, -0.0193,
-0.3283, -0.0386, -0.4055, -0.2221, -0.0869, -0.2124, -0.2317, -0.1738,
0.0000, -0.0290,  0.0290, -0.0193, -0.0193, -0.0097,  0.0097,  0.0483,
-0.0290,  0.4441,  0.1641,  0.4152,  0.2800,  0.5117,  0.3090,  0.3090,
0.4345,  0.5117,  0.3862,  0.5600,  0.8207,  0.2993,  0.4538,  0.3379,
0.3090,  0.0676, -0.0097, -0.3379,  0.0386,  0.0000, -0.0193, -0.0193,
0.0193,  0.0386, -0.0193, -0.0097, -0.1352,  0.0869,  0.1545, -0.0386,
0.1738,  0.1159,  0.1545,  0.3669,  0.2607,  0.2703,  0.3476,  0.4345,
0.1931, -0.0579,  0.0290, -0.0290,  0.2317,  0.0869,  0.3379,  0.0193,
0.0097,  0.0097,  0.0193, -0.0193,  0.0193,  0.0290,  0.0290,  0.0097,
0.0000,  0.1545,  0.1159,  0.3765,  0.4828,  0.1834,  0.5021,  0.0772,
0.1352,  0.7821,  0.1255, -0.0772,  0.4924,  0.5117,  0.1641, -0.0966,
0.2124, -0.0386,  0.0193,  0.0193, -0.0386,  0.0097, -0.0097, -0.0193],
[-0.0150,  0.0075, -0.0075,  0.0000,  0.0300, -0.0075, -0.0075,  0.0075,
-0.0150,  0.0000, -0.0075, -0.0225,  0.0000,  0.0150, -0.0075, -0.0150,
0.0300, -0.0150,  0.0225,  0.0000,  0.0225,  0.0300, -0.0225, -0.0375,
-0.0075, -0.0150, -0.0150,  0.0300, -0.0150,  0.0000,  0.0000,  0.0150,
0.0075,  0.0075,  0.0150,  0.0075, -0.0075,  0.0150,  0.0075, -0.2024,
-0.1874, -0.0375,  0.0600, -0.2473, -0.2773, -0.0600, -0.0225,  0.0075,
-0.0225, -0.0150, -0.0150,  0.0075, -0.0150,  0.0225,  0.0075, -0.0150,
0.0225, -0.0075,  0.0225,  0.0225, -0.0225,  0.0075, -0.0225,  0.0000,
0.0000, -0.0375,  0.2998, -0.4272,  0.0075,  0.2473,  0.2024,  0.1124,
-0.0899, -0.2998, -0.4197, -0.0824, -0.0075,  0.0000,  0.0075,  0.0000,
-0.0075,  0.0150,  0.0000, -0.0300,  0.0075, -0.0075,  0.0000, -0.0150,
-0.0075, -0.0225, -0.0150, -0.0075, -0.1049,  0.0450,  0.2623, -0.1349,
0.1049,  0.0974,  0.4422, -0.0300, -0.2998,  0.0075, -0.3972, -0.3223,
-0.0300,  0.3822,  0.1349,  0.2773,  0.0000, -0.0075,  0.0225,  0.0150,
0.0300, -0.0075,  0.0000, -0.0225, -0.0749,  0.1274,  0.3448,  0.3298,
-0.1724, -0.4647, -0.4572, -0.5246, -0.1274,  0.1124, -0.1124, -0.5321,
-0.1274,  0.1349, -0.4722, -0.1124,  0.2698,  0.5021,  0.2848,  0.3672,
0.4872, -0.2623,  0.3897, -0.0300,  0.0150, -0.0300,  0.0225, -0.1199,
-0.0525,  0.2173,  0.4422,  0.4347,  0.0150,  0.1874, -0.0375, -0.3223,
-0.0824, -0.3298, -0.0600, -0.0824, -0.0225, -0.2848, -0.3747, -0.3897,
-0.2473, -0.2998, -0.4422,  0.4797,  0.2548, -0.0824,  0.0300, -0.0225,
-0.0075, -0.0075,  0.1199, -0.2473, -0.1499,  0.4572,  0.1274,  0.3148,
0.1124, -0.2323, -0.1874, -0.2623, -0.2548, -0.5096, -0.3223, -0.3672,
-0.5171, -0.2099, -0.4422, -0.3822, -0.0899,  0.1199,  0.0824,  0.0075,
0.2173, -0.2623,  0.1499,  0.1049,  0.0000, -0.0450, -0.0525,  0.1274,
0.1724, -0.0899,  0.2473,  0.0525, -0.0075, -0.1274, -0.2398, -0.2398,
-0.1799, -0.0075, -0.3523, -0.3223, -0.2323, -0.1649, -0.3073, -0.2323,
-0.1724, -0.0225, -0.0974, -0.0600, -0.1124,  0.0450, -0.2173, -0.0375,
-0.0450, -0.2548, -0.0974, -0.1649,  0.2248, -0.0375,  0.1649, -0.0375,
-0.0150,  0.1424, -0.1349, -0.2698, -0.3448, -0.1124, -0.3448, -0.1424,
-0.2024, -0.2398, -0.1649, -0.1724, -0.2173, -0.3298, -0.2024, -0.3298,
-0.1649, -0.2923, -0.4797, -0.4347, -0.0225, -0.2248, -0.3223, -0.2773,
-0.0824, -0.3073, -0.3298,  0.0375, -0.0899, -0.0600, -0.0525, -0.1574,
-0.0600, -0.2173, -0.3448, -0.2024, -0.1724, -0.1574, -0.1799, -0.0225,
-0.2024, -0.1424, -0.1049, -0.1574, -0.5171, -0.3597,  0.0824, -0.0300,
-0.0075, -0.2024, -0.4497, -0.6371, -0.2698, -0.2173, -0.3672, -0.0749,
0.3073,  0.1124, -0.0075, -0.0600, -0.0225, -0.3148, -0.5771,  0.1124,
0.0675,  0.0600, -0.0075, -0.0749, -0.3822, -0.1949, -0.0525, -0.8469,
-0.7495, -0.3597, -0.5471, -0.3223, -0.0150, -0.1724, -0.4797, -0.3223,
-0.5396, -0.4122, -0.2248,  0.1199,  0.0675,  0.0974,  0.2623,  0.4797,
0.3523, -0.8544, -0.7495,  0.2473,  0.3897,  0.2173, -0.0899, -0.0300,
-0.0225, -0.0225, -0.1799, -0.2773, -0.2024,  0.1799, -0.4497,  0.0225,
-0.0150, -0.1724, -0.5171, -0.2473, -0.0225, -0.5246,  0.2473,  0.4347,
0.2998,  0.2848,  0.3448,  0.6071,  0.7570, -0.0525,  0.1799,  0.3298,
0.5696,  0.3597,  0.3597,  0.1649,  0.0375,  0.0375, -0.2473, -0.2398,
-0.6296, -0.3822, -0.4947, -0.0225, -0.0150, -0.0375, -0.5021,  0.0075,
0.1124,  0.0824,  0.2848,  0.4797,  0.2698,  0.4647,  0.5771,  0.7045,
0.6446,  0.2698,  0.2473,  0.5246,  0.3523,  0.5321,  0.4272,  0.4497,
0.2398,  0.4122,  0.0600, -0.2998, -0.4122, -0.4197, -0.4647,  0.0225,
-0.0075, -0.1724, -0.1949, -0.2698,  0.6371,  0.3972,  0.3223,  0.3597,
0.2998,  0.4947,  0.4497,  0.7195,  0.4422,  0.3373,  0.2248,  0.3972,
0.4872,  0.4572,  0.4722,  0.2548,  0.1799,  0.1349, -0.0450,  0.1349,
-0.1124, -0.5321, -0.4797,  0.0225,  0.0075, -0.0150,  0.0450,  0.3897,
0.2099, -0.1424,  0.1274,  0.0899,  0.1349,  0.2173,  0.3448,  0.5171,
0.3822,  0.0525,  0.3822,  0.4572,  0.5546,  0.4047,  0.1274,  0.2698,
0.0225, -0.0450,  0.4047,  0.0000, -0.6371, -0.5321, -0.4722, -0.2548,
0.0075,  0.0150, -0.3073,  0.0225, -0.0974, -0.0675, -0.1124,  0.1349,
0.1499,  0.1049,  0.3223,  0.2099,  0.1874,  0.1424,  0.2698,  0.2848,
0.4047,  0.3148,  0.2398,  0.0749, -0.0525, -0.0075, -0.0375, -0.2698,
-0.1349, -0.4722, -0.3148, -0.1274,  0.0225, -0.0300, -0.1874, -0.4272,
-0.2398, -0.4047, -0.4497, -0.1349,  0.2848,  0.1724,  0.0749, -0.0150,
0.0225,  0.1199,  0.4872,  0.3597,  0.2473,  0.0675,  0.0075, -0.1499,
-0.1274, -0.2323, -0.5171, -0.2473, -0.5096, -0.2998,  0.0974,  0.0150,
0.0075,  0.0300,  0.0525, -0.0675, -0.3523, -0.5846, -0.7495, -0.3897,
0.0150, -0.1799, -0.1574,  0.1274,  0.0000,  0.0450,  0.2773,  0.2623,
0.1049, -0.1649, -0.4197, -0.4572, -0.4347, -0.3448, -0.7645, -0.7120,
-0.6071, -0.5171, -0.0225,  0.0225,  0.0000, -0.0375,  0.0300, -0.1424,
-0.0824, -0.2398, -0.3822, -0.7870, -0.7270, -0.7570, -0.3448, -0.1424,
-0.3822,  0.0749,  0.1349, -0.0150, -0.0525, -0.3148, -0.5021, -0.6895,
-0.8394, -0.4122, -0.9294, -0.7570, -0.1874, -0.2623,  0.1574,  0.0075,
-0.0300, -0.0225, -0.0075,  0.1499, -0.3897, -0.4722, -0.2099, -0.4347,
-0.9593, -0.7495, -0.5921, -0.2323, -0.3897, -0.2923, -0.1574, -0.1424,
-0.2848, -0.1424, -0.3223, -0.6970, -0.7345, -0.5471, -0.8844, -0.4047,
-0.2323, -0.1949,  0.2473,  0.0000, -0.0300, -0.0375, -0.0450, -0.4422,
-0.4872, -0.5771, -0.8169, -0.7495, -0.5021, -0.2773, -0.3822, -0.4647,
-0.3897, -0.5096, -0.2848, -0.4047, -0.3073, -0.0225, -0.2323, -0.3897,
-0.1199, -0.3523, -0.3073, -0.2173, -0.1049, -0.3073, -0.0225,  0.0150,
0.0300,  0.0225, -0.0675, -0.0899, -0.0749, -0.7795, -0.2773, -0.1124,
-0.1124, -0.1574, -0.0899, -0.2698, -0.4122, -0.3897, -0.3523, -0.1574,
-0.2773, -0.0375, -0.1874, -0.0450, -0.2248, -0.1949, -0.1424, -0.2398,
-0.0824,  0.2173, -0.0075, -0.0075,  0.0225,  0.0225,  0.0075, -0.0525,
-0.5771,  0.0749,  0.1049,  0.2848, -0.1499, -0.1724, -0.0899, -0.1349,
-0.2099, -0.1499, -0.2548, -0.5021, -0.2099, -0.0300, -0.1199, -0.0749,
-0.1424,  0.3223, -0.0824, -0.0450, -0.2998,  0.1124, -0.0450,  0.0150,
0.0000,  0.0075, -0.0225, -0.3148,  0.0450,  0.5096,  0.0824, -0.1574,
-0.1049, -0.0899, -0.0075, -0.1424, -0.2923, -0.1274, -0.2998, -0.2923,
-0.1049,  0.0000,  0.0075,  0.0675,  0.2548,  0.3897,  0.2173,  0.0300,
-0.1649, -0.1124,  0.0225, -0.0075, -0.0075, -0.0150, -0.0075, -0.0150,
0.1199,  0.1649,  0.1724,  0.2923,  0.1949, -0.0675,  0.0525,  0.0150,
-0.3223, -0.0525, -0.0600, -0.1949, -0.1649,  0.0675, -0.1649, -0.0375,
0.0749,  0.2773,  0.0675, -0.0675, -0.0600,  0.0075, -0.0075,  0.0150,
-0.0300, -0.0300, -0.0300, -0.0225,  0.1949,  0.3148, -0.0225,  0.4047,
-0.0075, -0.0824, -0.3747, -0.4197, -0.2323, -0.2998, -0.3523, -0.1874,
-0.3897, -0.2473, -0.0375,  0.1874,  0.1949,  0.0749, -0.1874, -0.0225,
0.0150,  0.0000, -0.0075, -0.0300,  0.0075,  0.0150, -0.0150, -0.0075,
-0.0075, -0.1199, -0.1274, -0.5546, -0.6446, -0.2398, -0.5696, -0.2248,
-0.4347, -0.7570, -0.3597,  0.1649, -0.4197, -0.4122, -0.1349,  0.0225,
-0.0600,  0.2398, -0.0600,  0.0075, -0.0150,  0.0075, -0.0300,  0.0225],
[-0.0134,  0.0000,  0.0000, -0.0134, -0.0268, -0.0134, -0.0134,  0.0134,
0.0000,  0.0000, -0.0268, -0.0134,  0.0134,  0.0134,  0.0000,  0.0134,
0.0134,  0.0000,  0.0000,  0.0268,  0.0000,  0.0000,  0.0000, -0.0134,
0.0402, -0.0134,  0.0134,  0.0268, -0.0134,  0.0268,  0.0268,  0.0000,
0.0134,  0.0000,  0.0134,  0.0134,  0.0536,  0.0134, -0.0402,  0.1475,
0.1073, -0.0268, -0.0671, -0.2280, -0.2414, -0.0536, -0.0402,  0.0000,
-0.0402, -0.0268,  0.0268,  0.0000,  0.0268,  0.0268,  0.0134, -0.0268,
0.0268, -0.0268,  0.0402,  0.0268,  0.0134,  0.0268, -0.0134, -0.0134,
0.0402, -0.4023, -0.4158, -0.1475,  0.1609, -0.0536, -0.5230, -0.5767,
-0.5767, -0.4694, -0.2146,  0.0671,  0.0939,  0.3487,  0.2682, -0.3085,
-0.1743, -0.2012,  0.0268,  0.0134, -0.0268, -0.0134,  0.0268,  0.0134,
0.0134, -0.2012, -0.2146,  0.2414, -0.1743, -0.1743, -0.3085,  0.1207,
0.2951, -0.1609, -0.1878, -0.3621, -0.6169,  0.0805,  0.2548, -0.0805,
-0.3085, -0.5096, -0.1073,  0.1341,  0.3353,  0.0536,  0.0134, -0.0268,
-0.0134,  0.0134, -0.1878,  0.0268,  0.2816,  0.3621, -0.1609, -0.4023,
-0.5230,  0.0939,  0.2012,  0.3487,  0.3085,  0.2012,  0.2816,  0.0671,
0.0000,  0.3487,  0.2951,  0.4560, -0.0805, -0.2548, -0.1341, -0.2548,
0.3621,  0.0536, -0.1341, -0.0268,  0.0134,  0.0000,  0.0268, -0.1341,
-0.4292, -0.3353, -0.4694, -0.0536,  0.4694,  0.3353,  0.2682,  0.4560,
0.2816,  0.7242,  0.4023,  0.2280,  0.0268,  0.4158,  0.1475,  0.1207,
0.1743, -0.0671, -0.3755, -0.2816, -0.2414,  0.3889,  0.1743, -0.0134,
-0.0134,  0.0268,  0.0671, -0.3487, -0.3353, -0.1475, -0.3219,  0.3889,
0.1073,  0.0671,  0.5365,  0.3219,  0.7510,  0.9388,  0.7376,  0.8047,
0.7510,  0.8717,  0.3621,  0.4023,  0.1878, -0.0268, -0.0268, -0.0402,
0.3755,  0.5767, -0.2280, -0.0268,  0.0268, -0.0939, -0.4426, -0.4962,
-0.3353, -0.4023,  0.2012, -0.1475,  0.0268,  0.2146,  0.2682,  0.4023,
0.7108,  1.0729,  1.0327,  1.2741,  0.8852,  0.8449,  0.4962,  0.1743,
0.0402, -0.1878, -0.1341,  0.1475,  0.6974,  0.7645, -0.1073,  0.0805,
-0.0268, -0.2012, -0.0536, -0.4426, -0.4426, -0.0939,  0.0671, -0.2951,
-0.0134,  0.2280,  0.2146,  0.1207,  0.3353,  0.4292,  0.7108,  0.4694,
0.5096,  0.2012,  0.1609,  0.1475,  0.0805,  0.1475,  0.0805,  0.5767,
1.1266,  0.3353, -0.6706, -0.3889, -0.0134, -0.1207, -0.0939, -0.3085,
-0.4694, -0.0134,  0.1609, -0.2548,  0.0000,  0.1207,  0.2280, -0.1073,
0.4023,  0.4292,  0.3353, -0.0134, -0.3219,  0.1073,  0.3621,  0.4560,
0.5767,  0.2414,  0.4560,  0.7376,  1.1936,  0.4694,  0.1743, -0.0536,
-0.0402, -0.1073, -0.1207, -0.2951, -0.0134, -0.0134,  0.5230,  0.4158,
0.2548,  0.1207,  0.0000,  0.1207,  0.0939,  0.2414, -0.1609, -0.5096,
-0.6169,  0.0000,  0.3889,  0.7645,  0.8315,  0.4292,  0.2951,  0.4426,
0.5365, -0.4560, -0.1341, -0.1341,  0.0000, -0.0268, -0.2951, -0.1073,
0.0000,  0.2146,  0.6840,  0.8047,  0.5901,  0.2682,  0.1743,  0.3219,
-0.0134,  0.2548,  0.3487, -0.3621, -0.3085,  0.1878,  0.3085,  0.5901,
0.7645,  0.5901,  0.9254,  0.6169,  0.5633,  0.0134, -0.2280,  0.0134,
-0.0134, -0.2012, -0.2682,  0.1073,  0.2012,  0.6974,  0.9254,  0.8315,
0.7108,  0.2414,  0.0671,  0.2682,  0.0268,  0.5767,  0.5499, -0.0671,
-0.2146,  0.2951,  0.3219,  0.7108,  0.7242,  0.6035,  1.4350,  1.7033,
1.1534, -0.0402,  0.0939, -0.0268, -0.0268, -0.1609, -0.5096,  0.4292,
0.3353,  1.0997,  0.7510,  0.8583,  0.5499,  0.4962,  0.3353, -0.1743,
-0.1743,  0.5767,  0.3085,  0.0671,  0.0268, -0.1609,  0.0671,  0.4962,
0.4158,  0.7376,  1.0461,  0.6706,  0.9254,  0.0536, -0.1609, -0.3889,
0.0268, -0.1878, -0.1878,  0.4694,  0.5767,  0.7779,  0.8717,  0.7376,
0.3889,  0.3219,  0.4962, -0.4023, -0.0671,  0.4023, -0.0939, -0.2414,
-0.4828, -0.3889, -0.4023,  0.0268, -0.1609,  0.3085,  0.4694,  0.4292,
0.5096, -0.4023, -0.6303,  0.0268,  0.0402,  0.0536, -0.2548, -0.0805,
0.4158,  0.3085,  0.1609,  0.3755,  0.4694,  0.3755,  0.0134, -0.6974,
-0.2548, -0.1743, -0.4694, -0.3889, -0.5633, -0.0536, -0.2146,  0.0134,
-0.1609, -0.2548,  0.0805, -0.0805, -0.2816, -0.4023, -0.5633, -0.2414,
-0.0268,  0.0000, -0.2816, -0.7645, -0.3487, -0.0805,  0.2146,  0.1341,
0.7108,  0.0268,  0.0402, -0.4426, -0.4023, -0.6169, -0.7108, -0.4694,
-0.0268,  0.3085,  0.0402, -0.1475, -0.4023, -0.5096, -0.1475, -0.0805,
-0.2816, -1.1936, -0.5633, -0.3889, -0.0134,  0.0268, -0.2816, -0.4828,
-0.5633,  0.1073,  0.1475,  0.4023,  0.4426,  0.2548, -0.1341, -0.3085,
-0.2414, -0.6169, -0.7510, -0.2548,  0.2682,  0.4292,  0.2816,  0.2951,
-0.0134,  0.1878,  0.2280, -0.0671, -0.3085, -0.6438, -0.5499, -0.0402,
-0.0134,  0.0000, -0.1743, -0.2816, -0.6035, -0.0671,  0.3487,  0.4962,
0.5365,  0.1743,  0.1475, -0.2012, -0.2414, -0.4560, -0.6303, -0.0402,
0.0939,  0.2012,  0.3219,  0.4962,  0.4828,  0.3219,  0.2682, -0.1073,
-0.4292, -0.8449, -0.1341, -0.2548, -0.0268,  0.0268,  0.0134,  0.1878,
-0.2280,  0.4962,  0.7779,  0.4292,  0.1073,  0.1878,  0.2414, -0.3755,
-0.5499, -0.4560, -0.4828, -0.2951, -0.1073,  0.0268,  0.5365,  0.5096,
0.3085,  0.3621,  0.2146,  0.2816, -0.2682, -0.7376, -0.3889, -0.0536,
0.0000,  0.1609,  0.0536, -0.0536, -0.0536,  0.4426,  0.5096,  0.2548,
0.3755,  0.3621,  0.0939, -0.3487, -0.2548, -0.3889, -0.3487, -0.1743,
0.0268,  0.0134,  0.3085,  0.5499,  0.6303,  0.6169,  0.4158, -0.3755,
-0.2414, -0.2951, -0.2816,  0.0134, -0.0134,  0.0134, -0.0536, -0.3889,
-0.3085, -0.0536,  0.2951,  0.1743,  0.1609,  0.3889, -0.0536,  0.0134,
0.1073,  0.0805, -0.0536, -0.0805,  0.1609,  0.0134,  0.2816,  0.4158,
0.7242,  0.5096,  0.1207, -0.5767, -0.0402, -0.4560,  0.0000,  0.0000,
0.0268,  0.0268, -0.1609, -0.4962, -0.4023, -0.6438, -0.1609, -0.0268,
0.2012,  0.0402,  0.2548,  0.5901,  0.6974,  0.5633,  0.1341,  0.4292,
0.3621, -0.0805, -0.1207, -0.1878, -0.0805,  0.0134, -0.1609, -0.1341,
0.0134,  0.1341, -0.0536, -0.0268, -0.0134,  0.0134,  0.0402,  0.2951,
-0.2951, -0.4560, -0.3487,  0.0268,  0.2682,  0.1475,  0.2951,  0.5499,
0.5901,  0.6572,  0.8181,  0.4962,  0.1609,  0.1475, -0.1743,  0.0268,
0.0805,  0.0402,  0.0805,  0.2951,  0.0402, -0.0939, -0.2682,  0.0000,
0.0268,  0.0000,  0.0536,  0.4560,  0.2816, -0.0134,  0.0402,  0.1207,
0.2951,  0.5499,  0.6840,  0.5767,  0.5499,  0.4962,  0.7242,  0.7913,
0.6974,  0.4426,  0.3085,  0.3487,  0.1609,  0.2548,  0.4962,  0.3219,
0.0536, -0.4560, -0.0134,  0.0268, -0.0134, -0.0402,  0.0134,  0.2548,
0.2548,  0.4158,  0.4426,  0.7645,  0.4694,  0.5365,  0.7779,  1.2339,
0.8852,  1.0461,  0.9790,  0.8986,  1.0193,  0.5365,  0.0671,  0.6438,
0.8986,  0.2414,  0.3353,  0.4828,  0.3621,  0.0268, -0.0134, -0.0134,
0.0268,  0.0268,  0.0000,  0.0268,  0.4560,  0.1609,  0.0939,  0.5633,
0.3219,  0.3755,  0.5901,  0.4828,  0.8852,  0.5230,  0.4292,  0.1743,
0.5633,  0.4023,  0.5230,  0.1878,  0.2951,  0.3889, -0.3621,  0.1207,
0.0268,  0.0268, -0.0134, -0.0268,  0.0134,  0.0268,  0.0268,  0.0268,
-0.0134, -0.1743, -0.1207,  0.0402, -0.0402, -0.0805, -0.2548,  0.0671,
0.2012, -0.6303,  0.2548, -0.0805, -0.2682, -0.4023, -0.0268,  0.1475,
-0.1073,  0.3487, -0.0671,  0.0134, -0.0134,  0.0134, -0.0268, -0.0268],
[ 0.0330, -0.0247, -0.0165,  0.0082, -0.0247,  0.0165, -0.0330,  0.0330,
-0.0165,  0.0330, -0.0082, -0.0330,  0.0165, -0.0165,  0.0412,  0.0330,
0.0000, -0.0082, -0.0082, -0.0082,  0.0082,  0.0000, -0.0165,  0.0330,
-0.0165,  0.0247,  0.0247, -0.0247, -0.0247,  0.0165,  0.0082, -0.0082,
0.0082,  0.0000, -0.0165,  0.0247,  0.0412,  0.0247,  0.0000, -0.0825,
-0.0825, -0.0082, -0.0825, -0.2226,  0.6102, -0.0082, -0.0412, -0.0082,
-0.0330,  0.0082, -0.0165,  0.0247, -0.0247, -0.0082,  0.0247,  0.0082,
-0.0165,  0.0330, -0.0330,  0.0082,  0.0165,  0.0000, -0.0082,  0.0000,
0.0247,  0.3958,  0.3958, -0.0577,  0.0742,  0.0907, -0.1154,  0.0082,
0.4370,  0.3216,  0.4288, -0.1484, -0.0742,  0.1484,  0.2061,  0.3463,
0.1402,  0.1896,  0.0330,  0.0082,  0.0247, -0.0247,  0.0000,  0.0247,
-0.0165, -0.0742,  0.1896,  0.1567,  0.3875, -0.2144,  0.1072,  0.3051,
0.1237, -0.0660,  0.0660,  0.3463,  0.0495, -0.2474, -0.3546, -0.0577,
-0.2474,  0.0082,  0.1814, -0.0577, -0.1072, -0.0907,  0.0082, -0.0082,
0.0082,  0.0082, -0.0165,  0.0247, -0.4123, -0.3463,  0.2226,  0.2886,
0.2803,  0.2474,  0.3628,  0.1896,  0.2474,  0.0247,  0.0825, -0.1896,
-0.1402, -0.2391, -0.1237, -0.2886, -0.1979,  0.0000, -0.1814, -0.3793,
-0.0825, -0.0989,  0.2309, -0.0247, -0.0082,  0.0082,  0.0000,  0.0082,
-0.0165,  0.0577,  0.4123,  0.1814,  0.1402,  0.0825,  0.1567,  0.1979,
0.2639,  0.0082,  0.2803,  0.1402,  0.1814, -0.1072, -0.1154, -0.2144,
-0.2803, -0.1154, -0.3133, -0.1237,  0.0082, -0.4617, -0.0495, -0.0082,
0.0330, -0.0165, -0.2226, -0.2309,  0.2886,  0.2474, -0.0247,  0.1154,
-0.1072, -0.1237, -0.0907,  0.0000, -0.0082, -0.1237,  0.1154,  0.0247,
-0.1484, -0.1319, -0.0989, -0.1979, -0.1896, -0.3875, -0.3298,  0.0000,
-0.1402, -0.5524, -0.2968,  0.0495,  0.0165, -0.0330,  0.2639, -0.1154,
0.2226, -0.0742, -0.0412, -0.0165, -0.0495, -0.0907, -0.1237, -0.0495,
-0.0247, -0.0330,  0.1402,  0.0577, -0.1319, -0.1319, -0.1732,  0.0660,
-0.0577, -0.0907, -0.6019, -0.2803, -0.5195, -0.5854, -0.2309,  0.1237,
-0.0082, -0.2721, -0.2474, -0.1484,  0.1402, -0.0577,  0.0577,  0.0165,
-0.1814, -0.1649, -0.2144, -0.0660,  0.0165,  0.1402,  0.0577,  0.0495,
-0.2061, -0.3216, -0.3298, -0.0907, -0.1402, -0.1319, -0.2721, -0.2968,
-0.4370, -0.6102, -0.7338, -0.0412,  0.0082, -0.0825, -0.3463,  0.0907,
0.0742,  0.0000,  0.0247,  0.0742, -0.1402, -0.0577, -0.1402, -0.2226,
-0.0330,  0.0660,  0.1319,  0.0660, -0.2391, -0.0907, -0.0825, -0.0082,
-0.0660,  0.1154, -0.1649, -0.0165, -0.4947, -0.8658, -0.1896, -0.0082,
-0.0082, -0.0330, -0.0989, -0.5442, -0.3463,  0.0825,  0.2639,  0.0247,
0.1567, -0.0082, -0.1814, -0.1896, -0.0989, -0.2803, -0.2639, -0.4865,
-0.4123, -0.3133,  0.0577,  0.0165, -0.1402, -0.0330, -0.1237, -0.2309,
-0.3793, -1.0554, -0.6102, -0.1732, -0.0247, -0.0495, -0.2803,  0.1154,
0.1237,  0.1237,  0.2391, -0.0907, -0.0907, -0.1402, -0.0742, -0.3546,
-0.2968, -0.6514, -0.6596, -0.7421, -0.3546, -0.2144, -0.0742,  0.0907,
-0.1402,  0.1814,  0.0165,  0.2886,  0.2886, -0.2309, -0.4205,  0.0082,
-0.0247, -0.0412, -0.1484,  0.1649,  0.3628,  0.2803,  0.1814,  0.0660,
0.1979, -0.0165, -0.2309, -0.3546, -0.4453, -0.4782, -0.5442, -0.4370,
-0.6514, -0.1402,  0.0495,  0.2309,  0.3216,  0.3710,  0.1649,  0.2803,
0.3381,  0.4288, -0.3051, -0.0247,  0.0165, -0.1319, -0.2639,  0.3051,
0.2474,  0.1319,  0.2391,  0.2721,  0.0989,  0.0989,  0.0825,  0.0000,
-0.3710, -0.3793, -0.4370, -0.5277, -0.2886, -0.1896, -0.0330,  0.2391,
0.2968,  0.3628,  0.0412, -0.1072, -0.0247,  0.5772,  0.1649,  0.4370,
0.0330, -0.1814, -0.1732,  0.0412,  0.3710,  0.3546,  0.2474,  0.2226,
0.4123,  0.3546,  0.1237,  0.3710, -0.2639, -0.1237, -0.3710, -0.2309,
0.1567,  0.0907,  0.3051,  0.5112,  0.2226,  0.2639, -0.0247, -0.2061,
-0.2061,  0.4288,  0.5607,  0.0165, -0.0247, -0.1484, -0.2226,  0.2474,
-0.0412,  0.2391,  0.3628,  0.4123,  0.4535,  0.2968,  0.1484, -0.1072,
-0.1154, -0.0577,  0.0577,  0.1814,  0.3546,  0.4617,  0.3628,  0.5524,
0.0412, -0.0907, -0.0660, -0.3546, -0.2968,  0.2556,  0.5607,  0.1979,
0.0082,  0.0330, -0.1814,  0.0742,  0.1896,  0.3546,  0.5112,  0.4453,
0.4700,  0.3463,  0.4370,  0.0495,  0.1237,  0.2226,  0.3710,  0.2061,
0.4370,  0.3628,  0.4370,  0.2886,  0.2639,  0.0082,  0.1567, -0.1154,
0.0577,  0.5030,  0.5195,  0.2721, -0.0165,  0.0247,  0.1979, -0.4782,
0.1649,  0.2309,  0.4617,  0.3133,  0.2803,  0.1402,  0.1979,  0.0247,
0.2721,  0.5195,  0.4947,  0.2968,  0.4123,  0.2391,  0.5937,  0.2226,
0.3298, -0.0825,  0.1484,  0.0165,  0.1979,  0.5442,  0.5442,  0.0330,
0.0330,  0.0165, -0.0989, -0.4205,  0.1319,  0.3216,  0.1814,  0.2391,
0.1896,  0.0330, -0.0907,  0.0165,  0.4040,  0.4947,  0.3051,  0.2061,
0.2639,  0.1732,  0.2968,  0.3051,  0.1896,  0.0495,  0.0412,  0.0989,
0.0247,  0.3793,  0.0660,  0.2639, -0.0330, -0.0165,  0.2144, -0.3381,
-0.0165,  0.0660,  0.2886,  0.0165, -0.2556, -0.3381, -0.1567,  0.0495,
0.1072,  0.4700,  0.2226,  0.3793,  0.0742,  0.2061,  0.0989,  0.0082,
-0.0247,  0.1154,  0.0082,  0.0165, -0.0247,  0.3051,  0.3381,  0.0660,
0.0082, -0.2226,  0.1814, -0.2309,  0.2556,  0.1896,  0.0742,  0.1814,
-0.0660, -0.1979, -0.2144,  0.1484,  0.1319,  0.1649,  0.0989,  0.1814,
0.2144, -0.0330,  0.1979, -0.0742, -0.0577,  0.2803,  0.0330,  0.2144,
0.2886,  0.6267,  0.1402, -0.0165, -0.0082,  0.0082, -0.0247, -0.0247,
0.2474,  0.1402, -0.0660,  0.0989,  0.0082,  0.0082, -0.0825, -0.0907,
-0.1649, -0.0412,  0.0825,  0.2309,  0.0989,  0.1154,  0.1484,  0.0495,
0.1979,  0.1072,  0.2639,  0.6679,  0.2391,  0.2639,  0.0412,  0.0247,
-0.0082, -0.0165,  0.1567, -0.0825,  0.3628, -0.2061,  0.0330,  0.2309,
0.0412,  0.0577, -0.0082, -0.0989, -0.1732, -0.2144, -0.1484,  0.0330,
-0.3298, -0.1319,  0.1896,  0.1072,  0.2061,  0.1649,  0.3710,  0.5195,
0.2226,  0.0907,  0.0330,  0.0000,  0.0165,  0.0165, -0.0495,  0.0247,
-0.0577,  0.3133,  0.1072, -0.0247,  0.3298, -0.1154, -0.0412, -0.1979,
-0.2391, -0.1237, -0.3216, -0.2226, -0.4040, -0.2061, -0.0577,  0.1402,
0.4535,  0.4370,  0.5854,  0.2391,  0.0000,  0.3628, -0.0742,  0.0000,
-0.0330,  0.0247, -0.0495, -0.5524, -0.1649, -0.0660, -0.4617, -0.5360,
-0.2391, -0.4040, -0.1979, -0.2391, -0.2639, -0.3216, -0.2886, -0.2968,
-0.0825, -0.2391, -0.2803, -0.0082, -0.1319, -0.0989,  0.2886, -0.0330,
0.0907,  0.4453,  0.0247, -0.0165, -0.0082,  0.0247, -0.0247, -0.0495,
0.1319, -0.1567,  0.1732, -0.1402, -0.2144, -0.6267, -0.5195, -0.3710,
-0.0082,  0.0082, -0.2309, -0.3051, -0.0412,  0.0742, -0.3463, -0.1649,
0.0412, -0.0247, -0.0412, -0.1567, -0.0907,  0.0165,  0.0165,  0.0082,
0.0165, -0.0330, -0.0082,  0.0082,  0.0495,  0.0989,  0.2886,  0.4700,
0.0577, -0.1237,  0.2061,  0.2968,  0.4865,  0.4370,  0.3463,  0.1154,
0.0989,  0.0000,  0.0000,  0.0330,  0.1814,  0.0495, -0.4700, -0.1072,
-0.0165,  0.0082, -0.0247,  0.0165,  0.0082, -0.0330,  0.0165,  0.0082,
0.0247, -0.0330, -0.0330, -0.2474, -0.3463, -0.3793, -0.1896,  0.0907,
0.0660, -0.3875,  0.1814, -0.1319,  0.1319, -0.4617, -0.5112,  0.1567,
-0.0412,  0.3628, -0.1814,  0.0082, -0.0247,  0.0330,  0.0247,  0.0165],
[ 0.0081, -0.0244, -0.0081, -0.0081,  0.0000,  0.0244,  0.0081,  0.0244,
0.0000, -0.0244,  0.0326, -0.0326,  0.0081,  0.0407,  0.0326,  0.0244,
0.0326,  0.0163,  0.0244,  0.0081,  0.0326,  0.0081,  0.0163, -0.0326,
0.0081, -0.0326, -0.0081,  0.0000, -0.0244, -0.0163, -0.0081, -0.0244,
0.0163, -0.0163, -0.0244, -0.0244, -0.0570,  0.0244,  0.0000, -0.1221,
-0.1628, -0.0081,  0.1384,  0.0407, -0.4476,  0.0081,  0.0326,  0.0244,
0.0326, -0.0244,  0.0326, -0.0163,  0.0244, -0.0244,  0.0000, -0.0081,
0.0000,  0.0081,  0.0163,  0.0081, -0.0326,  0.0163,  0.0244, -0.0651,
-0.0651, -0.0407, -0.2686,  0.4232, -0.1465,  0.2848,  0.5046,  0.2848,
-0.0081,  0.4232,  0.4151,  0.2197,  0.1790,  0.1953,  0.0326, -0.3337,
-0.1465, -0.2035, -0.0244,  0.0244,  0.0000, -0.0163, -0.0244, -0.0244,
-0.0326, -0.3337, -0.2197, -0.4720, -0.4151,  0.1465, -0.3255, -0.5290,
-0.3011, -0.0895,  0.0326, -0.0326, -0.2767,  0.1058,  0.0651,  0.0651,
-0.4476,  0.0081,  0.5534,  0.3581,  0.2035, -0.2360,  0.0244,  0.0081,
-0.0163, -0.0163, -0.1953, -0.0163, -0.3988, -0.4232,  0.1709, -0.2197,
-0.2930, -0.0488,  0.0000, -0.1546,  0.0570, -0.0407,  0.1058,  0.0977,
0.2116,  0.2604,  0.2523,  0.1221, -0.0570,  0.1709, -0.0977,  0.3093,
0.2360,  0.2035,  0.3337,  0.0163, -0.0081,  0.0081,  0.0000, -0.3581,
-0.5127, -0.4883, -0.4720, -0.2197,  0.0326, -0.3174,  0.1139, -0.0163,
0.0732,  0.1058,  0.1709,  0.0000,  0.0081, -0.1465, -0.1221,  0.1139,
0.2279,  0.1546,  0.1872,  0.0326,  0.1872,  0.5453,  0.5453,  0.0000,
0.0000, -0.0244, -0.1709, -0.6022, -1.0417, -0.6511, -0.6104, -0.0814,
-0.1546, -0.1953, -0.3988, -0.1139, -0.0081,  0.0244,  0.0326,  0.1465,
0.0651, -0.1465, -0.0163,  0.0895,  0.1139,  0.0895,  0.1546,  0.2686,
0.5209,  0.6348,  0.5290,  0.1709, -0.0326, -0.1384, -0.3581, -0.7650,
-0.8871, -0.6592, -0.6185, -0.3662, -0.1221, -0.2523, -0.1465, -0.2035,
-0.0732,  0.0488,  0.1302,  0.1465, -0.0895, -0.1709, -0.1058, -0.0407,
0.0814,  0.1628, -0.0651,  0.4151,  0.5453,  0.5046,  0.7080,  0.0081,
-0.0407, -0.2197, -0.4639, -0.3825, -0.8545, -0.2848, -0.2279, -0.2686,
-0.1709, -0.1384, -0.1872, -0.0977,  0.0651,  0.2523,  0.0651, -0.0732,
-0.0814, -0.1628, -0.1302, -0.1384, -0.2116,  0.1872,  0.0000,  0.3581,
0.7487,  0.6266,  0.8627,  0.4639, -0.0407, -0.2360, -0.4069, -0.6592,
-0.5941, -0.3662, -0.0977, -0.1384, -0.0244,  0.0651,  0.1384,  0.3581,
0.2116,  0.2360, -0.0732, -0.2197, -0.2197, -0.3174, -0.3337, -0.2360,
-0.0895, -0.0081,  0.1221,  0.5453,  0.4069,  0.8545,  0.3418, -0.0163,
-0.0570, -0.2035, -0.5534, -0.8545, -0.4557, -0.3825, -0.0244, -0.0326,
0.2930,  0.3499,  0.4395,  0.5534,  0.4964,  0.4069,  0.2848, -0.3174,
-0.5697, -0.5127, -0.2360, -0.4232, -0.1953, -0.2035, -0.0814,  0.1302,
0.2279,  0.7731,  0.6266,  0.2116, -0.0163, -0.4069, -0.6918, -0.8789,
-0.1139,  0.0488,  0.3581,  0.4639,  0.5860,  0.5371,  0.5453,  0.4639,
0.2523,  0.4151,  0.3744, -0.0326, -0.1139, -0.1302, -0.1302, -0.2604,
-0.3418, -0.2197, -0.1302,  0.0244,  0.3662,  0.4639,  0.6999,  0.0163,
-0.0488, -0.3337, -0.5941, -0.5127, -0.1221,  0.2523,  0.6022,  0.5697,
0.2848,  0.2279,  0.2604,  0.2197,  0.3093,  0.5697,  0.5615,  0.2360,
0.0570,  0.0977,  0.0326,  0.0570,  0.2686,  0.0081,  0.2116,  0.1221,
-0.1790,  0.1302,  0.4883, -0.0326, -0.0081, -0.2441, -0.5290, -0.0895,
-0.4639,  0.2035,  0.0407,  0.1058,  0.1465,  0.0651, -0.0326,  0.2197,
0.4557,  0.4883,  0.5046,  0.5697,  0.2523,  0.1628,  0.3906,  0.0814,
0.2604,  0.4557, -0.0081, -0.4476, -0.5860, -0.0488,  0.4802,  0.4232,
-0.0163, -0.2767, -0.2686, -0.0977, -0.1221, -0.0244,  0.0488, -0.1465,
-0.0244,  0.0244,  0.0326,  0.2360,  0.2686,  0.5860,  0.4964,  0.2767,
0.2848,  0.0570, -0.0570, -0.1221, -0.3255, -0.2686, -0.3174, -0.6918,
-0.3744, -0.4557,  0.1872, -0.0244, -0.0244, -0.0732, -0.2848, -0.3174,
-0.5209, -0.3174, -0.4639, -0.2116, -0.1709,  0.0081, -0.0326,  0.0895,
0.3174,  0.4069,  0.4883,  0.2035,  0.0895, -0.1139, -0.2523, -0.2604,
-0.5371, -0.4964, -0.3988, -0.5534, -0.6104,  0.2116,  0.1221, -0.0732,
0.0326, -0.0244, -0.3093, -0.3988, -0.0163, -0.3255, -0.2279, -0.1221,
0.1139,  0.0244,  0.1139,  0.2767,  0.2279,  0.1709,  0.4069,  0.0163,
-0.0163, -0.1872, -0.5290, -0.5778, -0.4964, -0.6185, -0.4395,  0.0977,
0.0732, -0.3174, -0.4232, -0.3093,  0.0244, -0.0163, -0.2604, -0.3093,
0.0570, -0.3906, -0.2035,  0.1465,  0.1058,  0.2279,  0.2197,  0.3744,
0.4557,  0.2360,  0.2604, -0.0488, -0.0814, -0.1465, -0.3906, -0.4232,
-0.3744, -0.2604, -0.2523, -0.0163,  0.2523, -1.0336, -0.2441,  0.0000,
0.0163, -0.0326, -0.2767, -0.2197, -0.2604, -0.1953,  0.1384,  0.0407,
0.1384,  0.1872,  0.2197,  0.3906,  0.3011,  0.2848,  0.0081, -0.0163,
-0.1628, -0.2279, -0.3499, -0.2523, -0.0732, -0.0488,  0.3337,  0.0488,
0.1628, -0.5778,  0.0895,  0.1465, -0.0326, -0.0163,  0.1465, -0.2441,
-0.6592, -0.0407, -0.0570,  0.0326, -0.0651,  0.0570, -0.0407,  0.0244,
-0.0163,  0.0732, -0.0651, -0.0163,  0.0488, -0.0895, -0.0895, -0.0407,
0.0814,  0.0570,  0.3581,  0.1139, -0.4639, -0.4557,  0.0732,  0.0732,
0.0081, -0.2279, -0.1302, -0.5127, -0.5209,  0.0814, -0.1139,  0.1302,
0.0244, -0.0814, -0.1628, -0.1628, -0.0732,  0.0895, -0.0326, -0.0407,
0.1302,  0.0570,  0.1302,  0.1302,  0.1302,  0.3011,  0.4557,  0.0163,
-0.1953, -0.0977, -0.2197, -0.0081,  0.0081, -0.0326, -0.4069, -0.0814,
-0.3418,  0.0895, -0.0081, -0.0081, -0.0163,  0.0488, -0.0244, -0.1465,
-0.0326,  0.0895,  0.2035,  0.1628,  0.0895,  0.0895,  0.1465,  0.1139,
0.3499,  0.5534,  0.3906, -0.1139, -0.2360, -0.2686, -0.0732,  0.0081,
-0.0081,  0.0163, -0.4151, -0.6673, -0.3174, -0.1139, -0.1302, -0.1628,
-0.0407, -0.2604, -0.0163, -0.0488,  0.0488,  0.2197,  0.2848,  0.0977,
0.0570,  0.1872,  0.3418,  0.0570,  0.0326,  0.0163, -0.2035, -0.3337,
0.2686,  0.2441, -0.0244,  0.0326,  0.0163, -0.0081, -0.0163, -0.5778,
-0.2930, -0.3662, -0.0326, -0.3988, -0.0895, -0.0244, -0.1953, -0.0081,
0.2035,  0.1384,  0.0000, -0.0163,  0.3011,  0.2116,  0.0732,  0.3418,
0.2930, -0.0651, -0.2035,  0.1872, -0.2848, -0.2441,  0.0244,  0.0000,
-0.0326,  0.0244, -0.0244, -0.5778, -0.4639, -0.6104, -0.3988, -0.3581,
-0.2035,  0.1953, -0.1790, -0.0570,  0.1221, -0.0895,  0.2035,  0.1709,
0.1139,  0.0244,  0.3906,  0.4069, -0.1546,  0.0488,  0.3174,  0.3662,
-0.2930, -0.3744,  0.0000, -0.0163, -0.0326,  0.0163,  0.0244,  0.1302,
-0.3011, -0.6918, -0.3255, -0.2279, -0.2360, -0.2116, -0.0326, -0.1384,
-0.1872, -0.1221,  0.0326, -0.0977,  0.0977,  0.3988,  0.0326,  0.0977,
0.4964,  0.2116,  0.3337,  0.3662,  0.4313,  0.0163,  0.0081, -0.0081,
-0.0081,  0.0081,  0.0244,  0.0244,  0.3174, -0.1302,  0.0081,  0.1953,
-0.0651,  0.3418,  0.2930,  0.0814,  0.2279,  0.1139,  0.0488, -0.0651,
0.0977,  0.4802,  0.3581, -0.1384,  0.0488,  0.1302, -0.1384,  0.1139,
0.0000,  0.0081,  0.0000,  0.0244,  0.0163,  0.0326,  0.0000, -0.0081,
-0.0081, -0.1628, -0.1546, -0.0244, -0.1790, -0.2441, -0.3825, -0.0732,
-0.0570, -0.7894,  0.1058,  0.0570, -0.4395, -0.6266,  0.0407,  0.1302,
-0.1953,  0.2035,  0.0407,  0.0244,  0.0000,  0.0244, -0.0163,  0.0244],
[-0.0101, -0.0101, -0.0101,  0.0304, -0.0304,  0.0304,  0.0000,  0.0101,
-0.0101,  0.0101, -0.0304,  0.0101,  0.0101,  0.0304,  0.0000, -0.0304,
-0.0202,  0.0101,  0.0101, -0.0202, -0.0202, -0.0304, -0.0304,  0.0304,
0.0101,  0.0202, -0.0101,  0.0101,  0.0304, -0.0101,  0.0101, -0.0304,
-0.0101, -0.0202, -0.0101, -0.0101,  0.0405,  0.0405, -0.0405,  0.3744,
0.3542,  0.0101, -0.1316,  0.0506,  0.3441,  0.0607, -0.0101, -0.0202,
0.0202,  0.0000, -0.0101, -0.0304,  0.0202, -0.0202, -0.0304, -0.0101,
-0.0304,  0.0000, -0.0101,  0.0304,  0.0101,  0.0202,  0.0202,  0.0405,
0.0405,  0.4048,  0.4048, -0.0506,  0.0810, -0.1214, -0.1417, -0.0202,
0.5869,  0.3542,  0.2834, -0.2024, -0.1518, -0.2732, -0.3238,  0.2935,
0.1417,  0.1923,  0.0101,  0.0202,  0.0304,  0.0202,  0.0000, -0.0405,
0.0000,  0.2935,  0.1316, -0.0607,  0.2732, -0.2024,  0.1720,  0.5060,
0.1417,  0.4250,  0.3339,  0.3238,  0.4554,  0.0405, -0.1113, -0.0607,
-0.1822, -0.5363, -0.1518, -0.4048, -0.2328, -0.1822, -0.0101,  0.0000,
-0.0101,  0.0000,  0.2024, -0.0304, -0.3744, -0.2935, -0.0506,  0.0405,
0.1720,  0.0810,  0.3036,  0.0202,  0.2226,  0.2631,  0.4048,  0.2328,
0.2631,  0.1012,  0.2125, -0.0304, -0.0607, -0.4554, -0.6578, -1.2346,
-0.7489,  0.1316,  0.3845,  0.0000,  0.0304,  0.0304, -0.0202,  0.1214,
0.4554,  0.2631,  0.3137,  0.1113,  0.1822,  0.0708,  0.0101,  0.1417,
0.2024,  0.3238,  0.4655,  0.3238,  0.2125,  0.3036,  0.0810,  0.1012,
-0.2530, -0.0506, -0.2125, -0.7590, -0.4250, -0.1720,  0.2429, -0.0202,
-0.0101,  0.0304, -0.1012,  0.0708,  0.1417,  0.0911,  0.0304,  0.0101,
-0.0101,  0.0304,  0.0810,  0.0506,  0.2125,  0.3238,  0.4250,  0.3643,
0.4655,  0.3238,  0.3744, -0.0506,  0.1012, -0.0506,  0.0101, -0.3947,
-0.7995, -0.4048, -0.4149, -0.0506,  0.0304, -0.0405,  0.2530, -0.2530,
0.2732, -0.1417,  0.0708, -0.0810, -0.0911, -0.1214, -0.0911, -0.0202,
0.0607,  0.1518,  0.5869,  0.4250,  0.5262,  0.2834,  0.2024,  0.2328,
0.1518,  0.2125, -0.0911, -0.3238, -0.4250, -0.7084, -0.2328,  0.0810,
0.0101, -0.2328,  0.0202,  0.1214,  0.1113, -0.1417, -0.0708,  0.0506,
-0.0607, -0.0304,  0.1417, -0.1113,  0.2530,  0.4250,  0.5869,  0.4250,
0.3441,  0.0810,  0.1923,  0.3542,  0.2024,  0.1518,  0.0911,  0.0810,
-0.6780, -0.9007, -0.5667, -0.1417,  0.0101,  0.0202, -0.2530,  0.3744,
0.2530,  0.1012, -0.0304,  0.0506, -0.1012, -0.0607, -0.0911, -0.1214,
0.0506,  0.3339,  0.6173,  0.4250,  0.1012,  0.3542,  0.2125,  0.4250,
0.4149,  0.1518,  0.1822,  0.2631, -0.4655, -0.9816, -0.2732, -0.0202,
0.0000, -0.1316,  0.1417,  0.0101, -0.2530,  0.0405, -0.0405, -0.1012,
-0.0405, -0.1316, -0.2631, -0.1417,  0.1316,  0.1417,  0.2328,  0.0810,
0.1113,  0.2024,  0.3744,  0.4250,  0.3947,  0.4149,  0.0911,  0.2429,
-0.2024, -1.2953, -0.7489, -0.0304,  0.0101, -0.0304,  0.1822,  0.3947,
-0.1822, -0.1316, -0.1720, -0.2226, -0.3036, -0.4149, -0.4453, -0.2429,
-0.2328, -0.0708,  0.2125, -0.1316, -0.2429,  0.0202,  0.2226,  0.3137,
0.4756,  0.4048,  0.4250,  0.6072,  0.1214, -0.6274, -0.7286,  0.0000,
0.0405, -0.1619,  0.1720, -0.1923, -0.3542, -0.1113, -0.3137, -0.4453,
-0.3036, -0.2935, -0.4857, -0.3542, -0.1113,  0.0304,  0.1417,  0.0202,
-0.1214,  0.0708,  0.1113,  0.2530,  0.2429,  0.2834,  0.5060,  0.9209,
1.0929,  0.4959, -0.1316, -0.0202,  0.0000, -0.1923,  0.0506, -0.2935,
-0.3137, -0.6072, -0.5161, -0.3845, -0.5768, -0.2530, -0.2226, -0.2732,
-0.2530,  0.3643,  0.3238, -0.0101,  0.0000, -0.1518, -0.1923, -0.1113,
-0.1518,  0.0708,  0.1214,  0.6881,  0.6072,  0.5667,  0.1923,  0.3845,
0.0304,  0.0202, -0.1822, -0.4554, -0.3845, -0.4655, -0.2125, -0.2024,
-0.3339, -0.3744, -0.2834, -0.2125, -0.0506,  0.3542,  0.0708,  0.0202,
-0.1720, -0.2834, -0.0405, -0.0202, -0.1012, -0.1113, -0.1214,  0.1012,
0.1214,  0.5971,  0.6173, -0.0202, -0.0202, -0.1417, -0.3542, -0.0405,
-0.1518,  0.2429,  0.3238,  0.2530, -0.0607, -0.2530, -0.1012, -0.2328,
-0.2125,  0.3441,  0.0607,  0.0000, -0.1619, -0.1214, -0.2834, -0.1214,
-0.2328, -0.0607, -0.0708, -0.0607,  0.3744,  0.3542,  0.6881,  0.2226,
-0.0101,  0.0202,  0.1518,  0.2429,  0.2429,  0.1417,  0.3744,  0.4351,
0.2125,  0.3339,  0.2935, -0.0607,  0.0506,  0.1417,  0.1518, -0.1720,
0.0506,  0.0101, -0.1012, -0.2125,  0.0708,  0.1316,  0.1720,  0.1417,
0.2226,  1.1334,  0.6780,  0.4149, -0.0304,  0.0202,  0.1417,  0.1923,
0.2429,  0.1619,  0.2125,  0.2429,  0.3542,  0.1822,  0.1822,  0.2328,
0.1113,  0.1923, -0.1214, -0.0101,  0.3441, -0.0101, -0.0911,  0.0810,
-0.0304, -0.0506,  0.4554,  0.3137,  0.4149,  1.1132,  0.5869,  0.0202,
0.0304, -0.0101, -0.0810, -0.2125,  0.1214,  0.3137,  0.2024,  0.2732,
0.2429,  0.2429,  0.4048,  0.2732,  0.2530,  0.2226,  0.0202,  0.0607,
0.0911,  0.1417,  0.2226,  0.1822,  0.0810, -0.0101,  0.2530,  0.5262,
0.3947,  0.9715,  0.0202,  0.2530,  0.0304, -0.0202, -0.1923, -0.2024,
0.0708, -0.0810,  0.4250,  0.2935,  0.2834,  0.2631,  0.4655,  0.1214,
0.1720,  0.0607,  0.0810,  0.1113,  0.0810,  0.1316,  0.1214,  0.0708,
0.1923,  0.3542,  0.3947,  0.2226,  0.3339,  0.7489,  0.4149,  0.0506,
-0.0101, -0.1822,  0.0911, -0.0810,  0.2429,  0.2024,  0.3947,  0.4959,
0.4149,  0.4149,  0.3339,  0.2024,  0.1012,  0.2024,  0.2429,  0.1822,
0.1316, -0.1316,  0.0506,  0.1417,  0.3137,  0.2732,  0.0405,  0.1720,
0.3238,  1.0322,  0.1417, -0.0304,  0.0304, -0.0101,  0.0000, -0.0810,
-0.0708,  0.0304,  0.1214,  0.3542,  0.3036,  0.4756,  0.3542,  0.3643,
0.1316,  0.2226,  0.0506,  0.0911,  0.0810, -0.0101,  0.2125,  0.2429,
0.1113, -0.0607,  0.1417,  0.6780,  0.2935,  0.7893,  0.0000,  0.0000,
-0.0202,  0.0304,  0.2935,  0.1316,  0.0708, -0.2530,  0.1113,  0.3137,
0.2024,  0.4149,  0.2328,  0.4149,  0.2834,  0.2226,  0.0506,  0.1619,
-0.0405, -0.1012,  0.0810,  0.1012,  0.3238,  0.2024,  0.3441,  0.3845,
0.2429,  0.0405,  0.0304,  0.0202, -0.0202,  0.0202,  0.1822,  0.5060,
0.0405, -0.0101,  0.0810,  0.2226,  0.3643,  0.1619,  0.2024,  0.1822,
0.2429,  0.2732,  0.1214,  0.0304,  0.0708, -0.1417,  0.0304,  0.2530,
0.2834,  0.2935,  0.5262,  0.0708,  0.4250,  0.3137, -0.3441, -0.0101,
0.0202,  0.0000,  0.0607, -0.0304, -0.0506, -0.2834, -0.1822,  0.1518,
-0.0101,  0.0911,  0.1316,  0.2429,  0.0911,  0.0202,  0.2226, -0.0911,
0.3238,  0.0101, -0.1822, -0.1012, -0.1417, -0.1214,  0.0911, -0.0101,
0.2631,  0.4857,  0.0000,  0.0101,  0.0101, -0.0304,  0.0000, -0.3137,
-0.2226, -0.0304,  0.2732, -0.0607,  0.1316, -0.0911,  0.0101,  0.0101,
-0.2226, -0.0304, -0.1619, -0.1316, -0.0304, -0.0708,  0.4351,  0.3339,
0.3947,  0.3542,  0.0708, -0.0506,  0.2935,  0.0101, -0.0101, -0.0304,
-0.0304,  0.0000,  0.0000, -0.0304,  0.4554,  0.2125,  0.1316,  0.2935,
0.5262,  0.2328,  0.5667,  0.4453,  0.3542,  0.6679,  0.9917,  0.6679,
0.7995,  0.7185,  1.1941,  0.4756,  0.5566,  0.2834, -0.1316,  0.1316,
0.0304,  0.0000,  0.0101,  0.0000,  0.0000, -0.0101,  0.0405, -0.0304,
0.0304,  0.0405,  0.0506,  0.4655,  0.4857,  0.5566,  0.4048,  0.3542,
0.5566,  0.0607,  0.3339, -0.3036,  0.2328, -0.2834,  0.3339,  0.4048,
0.1720,  0.3441, -0.3339,  0.0101,  0.0101, -0.0202, -0.0304, -0.0101],
[-0.0134,  0.0067,  0.0269,  0.0202, -0.0336,  0.0134, -0.0336, -0.0336,
0.0067, -0.0134,  0.0067, -0.0202,  0.0067,  0.0202,  0.0000,  0.0134,
0.0336, -0.0134,  0.0134, -0.0067, -0.0202,  0.0067,  0.0202,  0.0269,
0.0067,  0.0067,  0.0269, -0.0067,  0.0000,  0.0336, -0.0269,  0.0202,
0.0067, -0.0336,  0.0067, -0.0067, -0.0403, -0.0134,  0.0134,  0.0605,
0.0202,  0.0269,  0.1412,  0.2084,  0.0134,  0.0269,  0.0202,  0.0000,
-0.0202,  0.0202,  0.0269,  0.0202,  0.0000,  0.0269,  0.0067,  0.0336,
-0.0202,  0.0269, -0.0269, -0.0067, -0.0336,  0.0336, -0.0202, -0.0134,
0.0067, -0.0403, -0.1748,  0.2219, -0.0538,  0.0134,  0.3429,  0.2958,
-0.1546, -0.2286, -0.3496, -0.0471, -0.0941, -0.3227, -0.2891, -0.0067,
0.0067,  0.0000, -0.0269, -0.0269, -0.0134,  0.0000,  0.0269,  0.0000,
0.0067,  0.3496,  0.0941,  0.3967, -0.2555,  0.2622,  0.2017, -0.1076,
0.0000,  0.0067, -0.0403, -0.0471,  0.4034,  0.1479,  0.2555,  0.1143,
0.3429, -0.0672, -0.2824, -0.1681, -0.2420,  0.0336, -0.0067, -0.0067,
0.0067,  0.0336,  0.1748,  0.0269,  0.3967,  0.4975,  0.0941,  0.0941,
0.1950,  0.0000,  0.0807,  0.3227,  0.0269,  0.0807,  0.0807,  0.1748,
0.1815, -0.0941,  0.0336,  0.0202,  0.0672, -0.0134,  0.2891,  0.1008,
-0.1681,  0.2757, -0.1479, -0.0336, -0.0336, -0.0067, -0.0134,  0.1076,
0.3496,  0.4168, -0.0538, -0.0202, -0.1546,  0.0000, -0.0269, -0.0269,
0.1210,  0.0336, -0.2420,  0.1076,  0.0403, -0.1143, -0.0740, -0.0269,
-0.1345,  0.0538,  0.1614,  0.0538,  0.0941, -0.0202, -0.1076, -0.0202,
0.0336,  0.0134,  0.2420,  0.2219,  0.2824,  0.3496,  0.2286, -0.2958,
0.0740, -0.0672,  0.0941,  0.1815,  0.0336,  0.1681,  0.2017,  0.2219,
0.1681,  0.0134,  0.0874, -0.0807, -0.0134, -0.2219, -0.3227,  0.0269,
-0.1748, -0.7597, -0.1479,  0.0000,  0.0202,  0.1479, -0.0807,  0.1210,
0.3496,  0.4975,  0.1008,  0.1076, -0.0134,  0.1143,  0.1479,  0.1950,
