11 0 5 58 3 0 79 4 -9 72 0 -33 -9 3 5 1 5 0 3 -5 0 0 0 0 127 2 14 42 2 28
44 0 5 -31 30 0 -36 4 52 37 0 51 9 -5 6 -3 33 0 2 -48 0 3 0 0 -93 -45 127 -18 -6 12
-82 0 -4 10 21 0 25 8 9 54 0 -18 5 0 2 -8 81 0 -1 19 0 4 0 0 -52 -12 -21 26 -1 -128
-28 0 -4 -13 73 0 -27 -9 60 -128 0 69 -2 6 -6 -1 70 0 -4 54 0 -4 0 0 -6 79 -74 -27 -2 44
61 0 6 -128 -4 0 -60 8 22 -26 0 49 1 1 6 1 1 0 -4 -5 0 -5 0 0 -31 44 74 70 0 4
0 0 0 0 0 0 -2 0 -127 -2 0 0 0 0 0 0 -15 0 0 0 0 0 0 0 0 0 0 0 0 0
115 0 8 72 3 0 4 0 17 30 0 74 5 -7 4 3 2 0 5 -113 0 -1 0 0 18 -5 108 -120 -4 127
63 0 1 117 -107 0 -16 -1 25 14 0 -33 9 -7 7 5 88 0 4 27 0 4 0 0 -98 27 -127 59 -2 7
-45 0 -1 -48 -128 0 39 -7 83 19 0 75 12 6 -1 -1 39 0 -5 13 0 -4 0 0 98 -82 -32 -38 -7 -45
23 0 2 17 71 0 6 9 45 65 0 10 6 -5 3 0 -14 0 1 -81 0 1 0 0 -36 -34 127 -45 0 -63
-41 0 -11 4 127 0 69 -1 80 84 0 -18 -5 -3 0 -4 -12 0 0 -6 0 11 0 0 -72 67 43 -18 0 -82
-15 0 3 -16 59 0 127 2 -11 -29 0 -24 -12 4 -5 5 -2 0 -3 57 0 8 0 0 65 75 103 -43 7 19
58 0 1 -19 -51 0 23 5 42 36 0 -128 6 -8 12 3 27 0 3 -46 0 -2 0 0 -87 114 -107 61 -2 0
-14 0 -16 43 127 0 -26 -2 35 47 0 60 -8 1 -4 -12 6 0 1 9 0 -7 0 0 58 -8 -23 79 6 -58
68 0 -3 -9 -90 0 -58 3 26 24 0 59 -6 4 2 -6 -89 0 -3 46 0 -7 0 0 13 -27 -49 127 7 -7
-28 0 -1 5 110 0 -18 -8 25 -64 0 -86 6 -2 0 3 80 0 -1 -34 0 3 0 0 -128 48 -26 -18 -1 108
