-2 3 -9 -9 -13 7 -3 -11 -8 0 -15 -15 -7 -5 -7 -11 -4 -6 -8 2 4 -8 0 -4 -9 -9 4 -2 -2 -3 3 0 -10 -15 -15 -14 3 -8 -8 7 -3 -12 -14 -10 0 -15 5 -11 -7 -12 -3 5 1 4 -4 1 -5 0 0 -11 1 20 17 24 11 13 10 7 -15 -15 -5 -10 5 -1 3 -4 -5 -3 -26 -23 -27 2 5 16 46 45 64 44 51 29 22 15 -7 -2 2 -11 0 -3 -9 -18 -10 -21 -23 -24 -6 -6 9 10 27 45 27 51 35 40 16 15 18 18 13 -12 3 -5 -3 -26 -28 -21 -2 7 -14 -30 -18 -9 0 46 59 41 15 27 14 37 47 43 2 9 -6 4 -20 -16 -12 -15 -13 -12 -30 -47 -25 -11 13 22 15 -9 -16 18 31 47 68 51 13 2 -7 -5 -11 -19 -5 9 -2 -16 -13 -30 4 77 79 15 -44 -59 -31 -17 11 13 28 21 14 -2 -12 -2 -6 -23 -1 12 -4 2 5 -15 34 99 59 -44 -78 -61 -42 -40 -35 -12 -3 -4 8 -12 -6 2 3 -15 -3 10 7 -3 12 19 71 83 18 -71 -98 -77 -59 -50 -37 -32 -6 -17 -14 -9 -5 2 -4 -3 6 -19 -32 -3 30 48 81 40 -59 -112 -127 -74 -54 -47 -40 -21 -7 -10 -10 -14 6 -9 -3 -1 9 -5 -6 12 54 45 24 -39 -104 -85 -66 -34 -10 -6 -12 -13 -16 -26 -2 3 5 -7 -1 13 15 40 48 72 82 44 9 -31 -70 -57 -12 17 18 20 26 17 1 -2 -15 -7 -14 -6 3 13 19 57 51 58 55 41 23 0 -28 2 16 43 51 39 28 16 8 -18 -4 -3 -11 -9 4 16 18 22 7 16 14 23 32 41 48 38 60 49 48 22 24 22 -2 -10 -7 6 -1 -6 -11 -4 11 -3 -15 1 17 19 25 38 46 40 47 23 24 24 0 6 -7 -5 -14 -4 6 5 6 -10 -17 -22 -11 -13 -12 -5 -16 3 -11 3 3 15 9 3 7 12 -7 -14 -2 -14 -11 -16 -12 2 -16 3 -15 -9 -18 -6 -14 -19 -8 -14 -16 1 1 -9 -3 -13 1 -5 -6 7
0 0 0 0 0 0 0 0 0 0 0 0 0 0 0 0 0 0 0 0 0 0 0 0 0 0 0 0 0 0 0 0 0 0 0 0 0 0 0 0 0 0 0 0 0 0 0 0 0 0 0 0 0 0 0 0 0 0 0 0 0 0 0 0 0 0 0 0 0 0 0 0 0 0 0 0 0 0 0 0 0 0 0 0 0 0 0 0 0 0 0 0 0 0 0 0 0 0 0 0 0 0 0 0 0 0 0 0 0 0 0 0 0 0 0 0 0 0 0 0 0 0 0 0 0 0 0 0 0 0 0 0 0 0 0 0 0 0 0 0 0 0 0 0 0 0 0 0 0 0 0 0 0 0 0 0 0 0 0 0 0 0 0 0 0 0 0 0 0 0 0 0 0 0 0 0 0 0 0 0 0 0 0 0 0 0 0 0 0 0 0 0 0 0 0 0 0 0 0 0 0 0 0 0 0 0 0 0 0 0 0 0 0 0 0 0 0 0 0 0 0 0 0 0 0 0 0 -1 -1 0 0 0 0 0 0 0 0 0 0 0 0 0 0 0 0 0 0 0 0 0 0 -1 0 0 0 0 0 0 0 0 0 0 0 0 0 0 0 0 0 0 0 0 0 0 0 0 0 0 0 0 0 0 0 0 0 0 0 0 0 0 0 0 0 0 0 0 0 0 0 0 0 0 0 0 0 0 0 0 0 0 0 0 0 0 0 0 0 0 0 0 0 0 0 0 0 0 0 0 0 0 0 0 0 0 0 0 0 0 0 0 0 0 0 0 0 0 0 0 0 0 0 0 0 0 0 0 0 0 0 0 0 0 0 0 0 0 0 0 0 0 0 0 0 0 0 0 0 0 0 0 0 0 0 0 0 0 0 0 0 0 0 0 0 0 0 0 0 0 0 0 0 0 0 0 0 0 0 0 0 0 0 0 0 0 0 0 0 0 0 0 0 0 0 0 0 0 0 0 0 0 0 0
-77 -77 -77 -77 -77 -77 -77 -77 -77 -77 -77 -77 -77 -77 -77 -77 -77 -77 -77 -77 -77 -77 -77 -77 -77 -77 -77 -77 -77 -77 -77 -76 -76 -75 -75 -77 -78 -76 -74 -74 -76 -75 -76 -77 -77 -77 -77 -77 -77 -77 -77 -77 -77 -76 -75 -69 -60 -57 -63 -68 -68 -66 -57 -56 -67 -69 -74 -78 -77 -77 -77 -77 -77 -77 -77 -76 -76 -77 -78 -72 -62 -49 -44 -59 -65 -67 -67 -56 -47 -46 -57 -71 -81 -80 -76 -76 -77 -77 -77 -76 -77 -82 -81 -64 -52 -49 -47 -66 -68 -32 -13 -14 -17 -29 -45 -72 -82 -77 -75 -76 -77 -77 -78 -79 -82 -83 -74 -53 -41 -39 -27 -29 -21 -15 1 -7 -17 -24 -34 -61 -67 -69 -75 -76 -77 -77 -78 -79 -79 -67 -62 -48 -30 13 28 17 -16 -70 -74 -45 -40 -45 -48 -44 -53 -68 -76 -77 -77 -77 -77 -75 -66 -60 -78 -93 -43 25 29 -8 -53 -94 -62 -34 -49 -72 -70 -51 -57 -70 -77 -77 -77 -77 -77 -71 -71 -85 -128 -126 -57 -22 -30 -51 -58 -61 -39 -42 -63 -69 -65 -55 -64 -69 -71 -76 -77 -77 -77 -76 -77 -85 -98 -58 -7 -6 -24 -40 -44 -41 -11 -26 -58 -57 -51 -47 -61 -71 -70 -75 -77 -77 -76 -76 -73 -70 -29 22 35 21 -6 -36 -35 -29 -18 -27 -38 -43 -55 -59 -73 -81 -76 -75 -77 -77 -70 -62 -57 -53 -36 -14 -6 -3 -3 -19 -39 -45 -40 -45 -38 -50 -64 -71 -75 -75 -73 -75 -77 -77 -74 -69 -62 -51 -39 -22 -6 -1 -7 -29 -64 -73 -62 -47 -22 -45 -77 -80 -81 -78 -77 -77 -77 -77 -76 -78 -92 -86 -50 -20 0 5 1 -21 -56 -40 -36 -43 -33 -65 -85 -81 -78 -76 -76 -77 -77 -77 -76 -76 -88 -88 -59 -33 -32 -27 -28 -30 -22 -23 -55 -76 -73 -79 -79 -77 -77 -78 -77 -77 -77 -77 -76 -73 -74 -72 -62 -56 -58 -60 -61 -63 -54 -61 -70 -82 -82 -75 -71 -72 -75 -77 -77 -77 -77 -77 -76 -76 -76 -75 -72 -70 -69 -61 -57 -70 -73 -65 -65 -71 -73 -73 -74 -74 -75 -77 -77 -77 -77 -77 -77 -77 -77 -76 -76 -75 -76 -76 -75 -78 -78 -77 -76 -77 -76 -76 -76 -77 -77 -77 -77 -77
-4 2 9 2 -6 8 10 10 -4 6 -8 -5 11 -1 -7 -5 -12 3 -10 3 -1 -10 -2 5 -6 -11 1 3 6 12 -9 -2 12 3 13 -2 9 17 5 3 5 13 9 4 11 -7 -8 -4 -10 6 2 0 -3 6 12 10 13 -5 11 19 8 19 22 11 23 11 9 -4 -3 8 -11 12 -3 -10 3 7 2 18 7 12 10 5 -1 -4 23 33 42 40 30 34 33 28 22 6 -4 3 -11 8 -2 -10 14 19 22 6 -4 -35 -54 -97 -123 -126 -101 -72 -34 -7 31 42 31 32 16 -2 2 2 4 1 -2 6 10 -14 -40 -54 -71 -84 -128 -119 -84 -46 -19 10 4 40 28 37 3 -2 4 6 -7 -5 3 -8 -4 -20 -39 -32 -22 -21 -28 -11 -15 -22 -15 -30 -25 -18 17 18 19 5 9 7 -2 -9 -19 -31 -36 -18 -12 -13 28 43 56 43 -5 -63 -64 -60 -54 -45 -3 2 -2 12 -2 11 5 -5 -20 -35 -40 0 8 45 93 84 38 12 -38 -51 -41 -34 -40 -43 -10 10 3 6 1 -12 -7 -13 -11 -29 -11 9 6 17 40 41 47 13 -31 -11 -7 -18 -12 3 5 12 -8 -1 0 -3 0 6 4 12 -6 -10 -30 -45 -6 74 115 57 4 -7 11 4 12 11 22 1 -2 4 -8 5 -7 3 17 20 17 -15 -35 -41 -14 58 72 35 13 -9 5 8 19 32 31 18 -7 -6 3 -6 -2 11 24 39 38 15 21 -2 34 30 39 37 19 11 -6 -1 30 32 11 12 8 -7 -11 10 -8 14 11 21 54 39 43 29 38 29 32 20 25 33 28 33 31 24 19 5 -2 -4 -1 -2 -3 13 1 7 7 16 4 18 1 17 6 31 37 41 57 27 20 0 4 -8 9 7 -2 -4 -3 8 -12 -10 -13 -17 -21 2 7 10 43 31 14 0 -1 -11 0 -2 -1 5 -2 7 3 12 8 1 1 -11 -25 -38 -31 -43 -34 -27 -37 -20 -36 -41 -20 -17 -9 -5 -3 -4 -7 2 -4 1 3 5 -8 -1 -16 -9 -4 -6 -12 -23 -28 -15 -8 -13 -10 -14 -8 1 -3 5 8 11
-3 -8 7 0 6 -2 -5 8 -1 8 3 8 8 3 7 -6 0 10 3 1 -1 -7 -2 1 6 3 4 -4 -1 -4 9 1 -8 3 0 5 -5 11 9 5 1 9 -5 7 3 10 -3 -2 1 8 5 -6 -8 -1 -4 -18 -17 -37 -39 -34 -32 -21 -14 0 7 18 12 1 -1 10 3 -2 -3 -2 -4 -12 -6 -24 -12 -28 -24 -36 -37 -11 -10 2 -12 -5 6 7 5 13 -4 -3 -3 7 -7 -5 -6 -13 -17 -17 -10 0 -8 -6 -6 -25 -26 -9 -18 -20 -8 -12 -5 -2 5 1 -8 -3 5 -6 -4 -12 -14 -12 13 8 17 1 -10 -33 -40 -38 -10 8 8 -3 -3 8 9 -5 2 -8 1 -3 -4 -4 4 4 19 29 30 27 36 19 -5 -1 18 15 20 10 18 16 14 -1 9 8 0 0 0 9 14 35 46 35 23 13 -7 -31 -25 0 12 -13 1 15 43 20 8 -3 10 -5 1 -6 -2 1 14 27 23 12 -15 -15 -24 -35 -29 13 -2 -14 7 26 44 27 24 7 9 -6 0 0 -5 3 11 23 28 18 -12 -12 -9 -31 -17 4 -6 -4 -1 -2 1 7 14 3 8 -3 2 7 2 -4 9 38 56 81 69 45 16 6 33 15 5 4 -16 -34 -25 -24 -1 9 2 -8 8 8 -7 -12 -22 19 56 100 127 124 124 86 43 -3 -13 -9 -31 -26 -50 -32 -6 3 0 -5 -3 -1 -3 -29 -35 -20 5 17 37 47 66 39 -6 -23 -27 -22 -28 -40 -34 -24 5 7 6 -2 9 -1 -12 -18 -23 -32 -24 -28 -21 -14 -21 -23 -24 -18 -7 -13 -20 -15 -2 -3 15 5 -7 -2 4 4 2 -13 -12 -17 -11 -12 -12 -25 -8 -6 13 14 6 0 8 -2 15 6 -5 9 1 2 2 -6 -4 -15 -23 -23 -38 -23 -21 -25 -11 -11 0 16 5 19 16 14 4 8 5 6 7 5 6 5 -6 -6 -12 -1 -7 -27 -28 -31 -22 -33 -13 -5 -10 -6 -8 -3 -2 9 0 -7 1 9 6 1 -5 7 9 -2 -3 5 3 1 4 3 4 5 -9 7 -6 6 -8 9 -4 7 6 9
0 0 0 0 0 0 0 0 0 0 0 0 0 0 0 0 0 0 0 0 0 0 0 0 0 0 0 0 0 0 0 0 0 0 0 0 0 0 0 0 0 0 0 0 0 0 0 0 0 0 0 0 0 0 0 0 0 0 0 0 0 0 0 0 0 0 0 0 0 0 0 0 0 0 0 0 0 0 0 0 0 0 1 0 0 0 0 0 0 0 0 0 0 0 0 0 0 0 0 0 0 0 0 0 0 0 0 0 0 0 0 0 0 0 0 0 0 0 0 0 0 0 0 0 0 0 0 0 0 0 0 0 0 0 0 0 0 0 0 0 0 0 0 0 0 0 0 0 0 0 0 0 0 0 0 0 0 0 0 0 0 0 0 0 0 0 0 0 0 0 0 0 0 0 0 0 0 0 0 0 0 0 0 0 0 0 0 0 0 0 0 0 0 0 0 0 0 0 0 0 0 0 0 0 0 0 0 0 0 0 0 0 0 0 0 0 0 0 0 0 0 0 0 0 0 0 0 0 0 0 0 0 0 0 0 0 0 0 0 0 0 0 0 0 0 0 0 0 0 0 0 0 0 0 0 0 0 0 0 0 0 0 0 0 0 0 0 0 0 0 0 0 0 0 0 0 0 0 0 0 0 0 0 0 0 0 0 0 0 0 0 0 0 0 0 0 0 0 0 0 0 0 0 0 0 0 0 0 0 0 0 0 0 0 0 0 0 0 0 0 0 0 0 0 0 0 0 0 0 0 0 0 0 0 0 0 0 0 0 0 0 0 0 0 0 0 0 0 0 0 -1 0 0 0 0 0 0 0 0 0 0 0 0 0 0 0 0 0 0 0 0 -3 0 1 0 0 0 0 0 0 0 0 0 0 0 0 0 0 0 0 0 0 0 0 0 0 0 0 0 0 0 0 0 0 0 0 0 0 0 0 0 0 0 0 0 0 0 0 0 0 0 0 0 0 0 0 0 0 0 0 0 0
-13 14 1 7 5 -14 -12 -7 10 -13 -1 -3 0 10 -1 13 15 -3 -15 2 -12 -3 -2 -15 9 5 8 15 -10 4 -11 10 14 19 5 21 26 11 2 0 4 20 9 15 -11 8 -12 8 -10 -6 -6 2 3 12 -4 18 26 37 31 23 34 24 10 21 23 15 13 22 18 14 -9 -5 10 10 -4 13 16 10 19 54 39 57 86 73 72 78 98 75 79 52 23 -1 -1 -2 -4 1 -15 15 0 4 4 -1 -1 3 -8 5 -4 18 26 39 22 -5 -4 -21 -20 -58 -51 -15 -25 0 -4 -18 4 -1 -7 -18 -28 -43 -42 -32 -69 -77 -54 -60 -62 -49 -42 -72 -81 -94 -108 -65 -31 -7 -8 -13 -30 -31 -27 -29 -11 -14 -24 -51 -85 -128 -117 -88 -50 -44 -28 -79 -76 -84 -81 -74 -35 5 -6 -18 1 -30 -26 -13 -14 -19 -17 -53 -89 -124 -77 -50 -20 -13 13 -3 -19 3 -23 -27 -11 -6 -14 3 -24 0 -24 -9 -24 -22 0 10 18 40 15 49 44 48 47 16 24 22 20 -7 -16 -12 13 -14 -1 11 8 4 0 8 -8 18 40 71 54 29 31 17 5 -15 0 4 13 -9 -14 9 4 -3 -5 12 3 22 21 17 10 46 26 50 50 -3 -12 -38 -20 -5 0 1 17 14 16 -8 11 15 13 14 1 -13 10 36 42 62 58 23 -19 -37 -16 15 41 24 27 41 39 27 12 -12 5 -10 15 3 5 -21 -7 22 41 67 45 -20 -25 29 52 66 42 52 74 62 43 6 -12 -11 0 8 -13 12 8 13 18 24 55 62 23 1 31 42 63 66 68 81 50 35 25 -10 -13 -4 2 4 -1 -7 11 2 14 22 25 44 39 57 35 44 58 61 74 78 39 26 -6 14 -5 0 -6 -2 1 12 -6 -18 -17 -11 -22 -34 -34 -4 -22 -1 12 8 17 22 28 13 10 6 -14 -7 -4 9 -9 -19 -12 -18 -29 -52 -35 -42 -57 -70 -61 -67 -50 -24 -8 14 -1 11 -1 3 -15 13 6 15 -16 -10 9 10 -10 1 -24 -25 -23 -15 -7 -7 0 -4 -12 -10 -4 1 -15 12 -7 2
-76 -76 -76 -76 -76 -76 -76 -76 -76 -76 -76 -76 -78 -79 -77 -76 -76 -76 -76 -76 -76 -76 -76 -76 -76 -76 -76 -76 -76 -76 -76 -76 -77 -77 -77 -78 -82 -84 -82 -79 -78 -77 -76 -76 -75 -76 -76 -76 -76 -76 -76 -76 -76 -76 -76 -77 -80 -84 -88 -91 -91 -94 -99 -91 -84 -78 -74 -72 -66 -71 -76 -76 -76 -76 -76 -76 -77 -77 -76 -84 -96 -105 -104 -105 -116 -127 -124 -99 -76 -71 -67 -70 -71 -74 -76 -76 -76 -76 -76 -76 -74 -66 -68 -81 -92 -92 -75 -69 -73 -85 -91 -86 -82 -85 -74 -75 -81 -81 -77 -76 -76 -76 -75 -73 -68 -62 -73 -73 -68 -80 -68 -48 -33 -42 -62 -72 -108 -118 -88 -80 -80 -80 -77 -76 -76 -76 -76 -75 -74 -78 -81 -70 -72 -82 -79 -53 -36 -42 -63 -85 -106 -105 -82 -81 -80 -80 -78 -76 -76 -76 -77 -78 -80 -81 -77 -75 -68 -64 -65 -56 -61 -72 -82 -99 -100 -86 -82 -82 -78 -77 -77 -77 -76 -76 -77 -78 -79 -84 -81 -73 -66 -59 -58 -58 -63 -70 -82 -105 -120 -95 -92 -91 -81 -77 -76 -76 -76 -76 -76 -77 -81 -94 -87 -75 -74 -75 -71 -58 -55 -70 -80 -104 -127 -106 -90 -86 -78 -76 -76 -76 -76 -76 -76 -80 -91 -103 -100 -99 -101 -98 -83 -74 -56 -47 -65 -98 -123 -111 -87 -69 -70 -75 -76 -76 -76 -76 -76 -80 -88 -94 -101 -110 -110 -106 -100 -88 -64 -41 -65 -92 -105 -107 -84 -68 -68 -72 -76 -76 -76 -76 -76 -77 -81 -89 -93 -102 -102 -97 -83 -81 -68 -58 -86 -98 -104 -100 -86 -73 -68 -70 -75 -76 -76 -76 -76 -78 -82 -87 -89 -88 -86 -81 -73 -84 -102 -102 -109 -102 -86 -87 -82 -77 -74 -73 -75 -76 -76 -76 -77 -82 -89 -94 -91 -85 -99 -93 -89 -100 -102 -98 -90 -84 -81 -80 -80 -79 -77 -76 -76 -76 -76 -76 -78 -82 -85 -87 -84 -72 -71 -75 -66 -66 -67 -69 -66 -70 -77 -78 -76 -78 -77 -76 -76 -76 -76 -76 -77 -77 -77 -78 -76 -70 -63 -61 -61 -68 -69 -68 -71 -75 -77 -78 -77 -77 -77 -76 -76 -76 -76 -76 -76 -76 -76 -76 -76 -76 -74 -73 -74 -75 -74 -74 -76 -76 -76 -77 -77 -76 -76 -76 -76 -76
11 4 12 6 11 6 11 11 7 0 5 12 11 4 7 0 10 8 5 13 13 10 1 -1 -2 -3 10 11 5 12 12 3 -4 2 10 8 9 -2 6 0 4 0 12 6 6 -1 7 11 9 -2 7 5 12 11 0 3 0 -4 4 4 -4 12 1 0 10 -2 0 -1 7 4 9 3 -2 4 0 2 4 3 6 -3 -2 -8 -8 -12 -1 -3 -10 4 -8 -13 -1 2 -5 -6 -4 2 6 9 9 13 13 13 5 6 4 0 -20 -25 -25 -34 -7 5 2 0 -6 -12 -25 -10 -8 -1 10 1 7 15 14 4 2 -14 -26 -37 -61 -64 -31 1 7 0 0 -5 -5 -4 -23 -26 -9 6 -2 3 7 11 4 -10 -12 -26 -43 -43 -29 9 35 49 44 25 24 32 27 13 0 -15 -3 -2 -1 8 9 9 7 -9 -5 -10 -23 1 28 23 12 31 47 39 31 24 45 39 20 1 -9 7 1 5 10 10 20 23 6 4 19 33 23 -22 -38 -19 10 9 3 3 41 54 41 5 -4 11 0 1 10 2 29 32 25 14 24 29 -19 -71 -79 -34 3 8 14 35 43 53 38 4 -1 7 13 4 6 8 26 19 25 12 9 -6 -81 -128 -111 -38 0 24 35 42 33 29 20 1 -5 1 9 12 -6 7 12 -1 10 0 0 -29 -71 -88 -55 -8 22 31 10 8 12 5 -13 -15 0 5 13 10 -5 3 3 -10 -27 -12 -5 5 -11 -24 -14 7 19 3 5 -15 -22 -29 -20 -2 10 0 9 3 -1 -6 3 -10 -25 -24 -19 7 11 8 21 26 24 8 -12 -25 -27 -34 -13 4 7 0 -2 0 12 2 4 -3 8 -3 -9 -3 15 15 26 20 1 -22 -40 -41 -31 -9 1 -3 0 0 0 -2 2 7 16 19 23 13 1 14 -8 -4 0 -7 -18 -16 -19 -12 -14 -4 -4 2 9 0 11 5 10 3 7 17 14 16 8 11 5 1 -4 -3 2 -6 -8 -10 -7 9 7 7 13 11 10 -2 -1 5 4 0 5 13 2 0 2 12 11 10 8 15 5 0 -3 6 7 11 13 10
-5 13 6 -6 15 8 16 -6 13 5 0 13 15 -6 -2 15 13 7 -2 15 4 -4 16 17 8 19 7 12 10 5 2 11 -7 10 -10 6 -10 5 -2 15 17 13 9 11 10 -2 4 0 -3 14 4 16 2 12 -12 -18 -33 -49 -53 -44 -29 -29 1 -9 12 20 27 21 22 15 8 -4 1 3 10 -8 -9 -11 -32 -50 -63 -59 -53 -55 -47 -49 -57 -28 5 5 34 42 39 13 14 10 7 17 8 -12 -4 -29 -29 -43 -40 -41 -50 -82 -81 -70 -54 -45 -27 -8 2 14 48 31 0 11 -6 16 7 -4 -5 -7 -4 -3 -8 -37 -32 -35 -72 -77 -64 -51 -43 -33 -22 1 43 21 13 5 8 4 9 0 -1 18 44 33 51 66 90 85 28 -8 -53 -40 -38 -48 -44 -31 20 17 15 4 17 -6 13 2 28 73 65 74 81 79 102 127 93 57 35 -11 -29 -46 -23 -4 -8 -1 9 18 5 8 12 19 55 78 63 36 -5 -13 27 28 55 75 42 11 8 -3 21 27 16 14 -3 6 11 5 13 18 32 44 -5 -22 -22 -12 -20 -15 1 7 12 -6 19 30 34 37 17 -1 -13 16 6 -6 8 -15 -19 -19 3 14 -3 7 6 14 18 2 2 5 21 44 23 25 6 -11 -4 -6 18 13 1 -25 -40 -13 0 22 28 24 18 3 28 -12 -27 4 21 22 5 -10 -24 -33 -8 6 16 8 -12 -25 -51 -27 -17 -7 -21 -24 -39 -28 -11 -21 -22 0 0 -2 -8 -37 -24 -12 -6 12 -4 -2 -6 -38 -48 -25 -26 -2 -18 -14 -19 -29 -3 1 13 -1 -16 -16 -36 -23 -25 -14 15 3 12 -4 11 -8 -14 -30 -16 -18 -15 -21 -17 -21 -17 -10 -8 -1 -12 -8 -4 -20 -8 -6 -2 8 16 8 11 14 1 -9 -6 -12 -7 -6 -34 -24 -29 -15 -3 0 1 7 3 -8 7 6 15 18 14 0 -4 6 11 12 3 1 5 -25 -15 -15 -27 -20 -6 -5 9 4 4 3 5 14 -1 -1 4 3 -4 15 -3 -2 1 1 -6 2 3 -3 -5 -7 15 12 14 14 7 9 6 16 -4 -5
0 0 0 0 0 0 0 0 0 0 0 0 0 0 0 0 0 0 0 0 0 0 0 0 0 0 0 0 0 0 0 0 0 0 0 0 0 0 0 0 0 0 0 0 0 0 0 0 0 0 0 0 0 0 0 0 0 0 0 0 0 0 0 0 0 0 0 0 0 0 0 0 0 0 0 0 0 0 0 0 0 0 0 0 0 0 0 0 0 0 0 0 0 0 0 0 0 0 0 0 0 0 0 0 0 0 0 0 -1 0 0 0 0 0 0 0 0 0 0 0 0 0 0 0 0 0 0 0 0 0 0 0 0 0 0 0 0 0 0 0 0 0 0 0 0 0 0 0 0 0 0 0 0 0 0 0 0 0 0 0 0 0 0 0 0 0 0 0 0 0 0 0 0 0 0 0 0 0 0 0 0 0 0 0 0 0 0 0 0 0 0 0 0 0 0 0 0 0 0 0 0 0 0 0 0 0 0 0 0 0 -3 0 0 0 0 0 0 0 0 0 0 0 0 0 0 0 0 0 0 0 0 0 0 -5 -5 0 0 0 0 0 0 0 0 0 0 0 0 0 0 0 0 0 0 0 0 0 0 -7 -3 0 0 0 0 0 0 0 0 0 0 0 -2 -3 0 0 0 0 0 0 0 0 0 -1 -1 0 0 0 0 0 0 0 0 0 0 0 0 -1 0 0 0 0 0 0 0 -2 -1 0 0 0 0 0 0 0 0 0 0 0 0 0 0 0 -1 -1 -1 -1 0 0 -1 0 0 0 0 0 0 0 0 0 0 0 0 0 0 0 0 0 0 0 0 0 0 0 0 0 0 0 0 0 0 0 0 0 0 0 0 0 0 0 0 0 0 0 0 0 0 0 0 0 0 0 0 0 0 0 0 0 0 0 0 0 0 0 0 0 0 0 0 0 0 0 0 0 0 0 0 0 0 0 0 0 0 0 0 0 0 0 0 0 0 0 0 0 0 0 0 0 0 0 0 0 0 0 0 0
-15 -15 4 -10 5 -15 3 -19 -9 -15 -2 6 -19 8 1 -7 3 0 -19 2 -14 3 -18 -8 5 -9 -11 -7 -12 -22 -13 -2 -18 -17 -26 -34 -21 -20 -19 -33 -22 -3 -27 -10 1 -17 -1 7 8 -2 -6 -13 -3 1 -15 -26 -45 -51 -23 -40 -13 -3 -22 -8 -27 -16 -24 -21 -15 -14 -14 -5 -11 -9 2 8 2 -1 -7 -14 -15 5 3 -2 -12 -15 2 -3 11 27 17 10 4 -13 8 6 8 3 10 4 6 15 34 39 49 43 42 20 -2 13 25 55 83 73 71 51 12 13 1 -3 2 -7 -5 2 25 41 38 49 44 25 29 29 -17 9 49 88 109 98 75 70 37 10 -12 -3 -20 3 8 19 19 20 20 2 2 2 11 11 -28 27 88 88 107 84 53 32 20 3 -2 -15 -3 -20 -1 4 5 4 16 22 16 64 71 39 25 79 77 69 50 34 19 7 0 -1 11 -12 -20 -3 -9 7 29 17 12 9 6 47 46 -1 -31 34 55 23 7 -1 6 -16 -17 -15 -16 -18 -10 -10 3 3 36 17 15 -15 -40 -17 -15 -51 -99 3 59 56 39 11 0 -20 -28 -30 -5 -3 -17 -20 8 2 27 11 32 10 -40 -71 -17 -53 -61 59 90 76 1 8 2 -20 -18 -31 -6 -16 5 -10 13 7 13 18 32 -11 -18 -53 -16 7 2 35 27 1 -25 -12 15 -2 -41 -18 -21 4 -17 -6 -8 21 22 46 14 2 -26 -72 -90 -71 -75 -71 -74 -71 -31 -37 -17 -14 -27 -14 -19 -4 -8 -4 -13 11 7 16 -7 -2 -26 -65 -85 -113 -128 -106 -72 -75 -66 -25 -20 -28 -19 -23 0 -6 -19 -20 -13 6 -10 -8 10 -10 -20 4 10 20 10 17 13 -14 -22 -11 -10 -16 -14 -21 5 0 3 -7 6 -11 -13 15 15 40 37 40 57 78 75 50 53 47 25 6 7 8 -10 -17 -4 -13 -8 -21 7 10 -6 5 10 7 13 30 35 45 34 45 33 32 22 9 -9 3 -10 -20 -12 1 -7 0 -19 -6 -6 -5 -9 0 11 -14 -8 0 12 2 -14 -1 -2 -11 9 -20 -9 4 -6 1
-80 -80 -80 -80 -80 -80 -80 -80 -80 -80 -80 -80 -80 -80 -80 -80 -80 -80 -80 -80 -80 -80 -80 -80 -80 -80 -80 -80 -80 -80 -80 -80 -80 -80 -78 -77 -78 -78 -78 -77 -78 -78 -77 -78 -80 -80 -80 -80 -80 -80 -80 -80 -79 -79 -79 -78 -80 -79 -74 -67 -63 -70 -70 -67 -71 -73 -75 -78 -80 -80 -80 -80 -80 -80 -80 -79 -78 -79 -76 -72 -70 -68 -57 -41 -36 -44 -53 -51 -43 -36 -49 -70 -84 -89 -88 -83 -80 -80 -78 -77 -77 -79 -61 -51 -42 -31 -16 -15 -15 -31 -39 -50 -38 -13 -30 -63 -72 -85 -98 -93 -80 -80 -77 -73 -69 -69 -54 -58 -43 -20 -18 -30 -50 -59 -42 -25 -35 -43 -72 -77 -72 -70 -79 -81 -80 -79 -76 -71 -64 -69 -73 -76 -42 -14 -16 -18 -26 -35 -24 -6 -16 -48 -80 -73 -75 -73 -75 -78 -80 -79 -78 -69 -70 -69 -50 -42 -19 -6 -6 -13 -18 -15 -10 -9 -22 -62 -78 -71 -72 -72 -76 -79 -80 -80 -79 -71 -70 -68 -36 -34 -43 -45 -34 -34 -12 -7 -11 -19 -37 -75 -92 -87 -81 -80 -79 -80 -80 -80 -80 -72 -69 -64 -46 -44 -83 -128 -95 -63 -37 -21 -19 -18 -41 -66 -85 -88 -84 -82 -80 -80 -80 -80 -80 -73 -66 -55 -56 -63 -98 -104 -77 -55 -48 -44 -35 -22 -34 -43 -59 -68 -77 -83 -80 -80 -80 -80 -81 -70 -62 -62 -58 -56 -68 -54 -44 -55 -54 -29 -33 -31 -35 -37 -45 -63 -77 -82 -80 -80 -80 -80 -81 -67 -53 -55 -50 -54 -54 -37 -37 -45 -17 -7 -21 -40 -56 -45 -48 -65 -79 -81 -80 -80 -80 -80 -81 -75 -62 -53 -40 -34 -28 -45 -60 -34 -12 -12 -20 -33 -59 -73 -61 -68 -78 -81 -81 -80 -80 -80 -80 -80 -77 -64 -46 -39 -39 -60 -63 -59 -46 -53 -39 -38 -69 -89 -73 -76 -80 -80 -80 -80 -80 -80 -80 -80 -75 -61 -55 -56 -68 -63 -55 -83 -114 -118 -87 -64 -72 -75 -74 -80 -80 -80 -80 -80 -80 -80 -80 -80 -75 -62 -63 -72 -72 -62 -48 -55 -88 -105 -93 -71 -67 -71 -76 -80 -80 -80 -80 -80 -80 -80 -80 -80 -80 -79 -79 -80 -78 -75 -75 -77 -78 -76 -74 -74 -77 -80 -80 -80 -80 -80 -80 -80
-89 -89 -89 -89 -89 -89 -89 -89 -89 -89 -89 -89 -89 -89 -89 -89 -89 -89 -89 -89 -89 -89 -89 -89 -89 -89 -89 -89 -89 -89 -90 -91 -90 -89 -89 -91 -91 -91 -93 -95 -94 -90 -89 -89 -89 -89 -89 -89 -89 -89 -89 -89 -89 -89 -95 -101 -95 -94 -93 -95 -88 -85 -114 -128 -114 -92 -87 -88 -88 -89 -89 -89 -89 -89 -89 -89 -89 -86 -89 -74 -45 -34 -35 -26 -20 -44 -52 -56 -51 -46 -54 -64 -78 -87 -89 -89 -89 -89 -89 -87 -78 -66 -60 -30 -14 -7 -4 -2 -3 -15 -14 -8 -10 -22 -36 -47 -66 -84 -88 -89 -89 -89 -89 -82 -69 -53 -39 -21 -17 -11 -6 -8 -9 -14 -21 -19 -22 -44 -47 -45 -62 -86 -88 -89 -89 -89 -87 -85 -79 -61 -43 -32 -30 -13 -6 -5 -5 -6 -12 -25 -42 -55 -53 -47 -63 -85 -88 -89 -89 -89 -88 -87 -79 -62 -53 -47 -32 -14 -11 -8 -6 -6 -6 -7 -24 -43 -52 -54 -73 -87 -88 -89 -89 -89 -94 -93 -74 -57 -58 -57 -23 -10 -12 -8 -7 -9 -7 -8 -18 -43 -57 -63 -80 -90 -89 -89 -89 -89 -98 -95 -67 -66 -92 -68 -23 -4 -4 -7 -12 -8 -7 -13 -33 -63 -76 -71 -79 -89 -89 -89 -89 -89 -98 -98 -73 -108 -98 -58 -31 -13 -4 -4 -5 -4 -3 -11 -28 -43 -57 -54 -77 -89 -89 -89 -89 -89 -93 -89 -71 -86 -82 -71 -57 -39 -17 -5 -3 -4 -4 -13 -21 -39 -54 -56 -78 -96 -91 -89 -89 -89 -89 -76 -52 -47 -66 -65 -48 -27 -21 -11 -7 -11 -14 -12 -9 -42 -59 -68 -93 -111 -94 -89 -89 -89 -89 -72 -53 -38 -35 -39 -31 -20 -19 -15 -14 -11 -15 -15 -24 -66 -71 -66 -85 -94 -90 -89 -89 -89 -89 -83 -71 -36 -18 -18 -20 -18 -15 -11 -8 -11 -19 -26 -48 -71 -64 -69 -85 -89 -89 -89 -89 -89 -89 -85 -73 -56 -39 -35 -28 -28 -42 -46 -29 -24 -30 -39 -62 -81 -80 -85 -89 -89 -89 -89 -89 -89 -89 -83 -82 -83 -80 -76 -75 -77 -90 -94 -95 -62 -64 -74 -87 -109 -95 -89 -89 -89 -89 -89 -89 -89 -89 -89 -89 -89 -89 -90 -90 -89 -93 -97 -97 -88 -89 -89 -88 -105 -99 -89 -89 -89 -89 -89
-111 -112 -111 -111 -113 -112 -113 -113 -113 -112 -112 -112 -111 -112 -112 -112 -113 -112 -111 -112 -113 -112 -112 -113 -111 -113 -112 -111 -112 -112 -113 -111 -111 -111 -111 -109 -107 -107 -111 -108 -109 -107 -108 -112 -113 -114 -111 -112 -111 -112 -111 -113 -111 -111 -108 -104 -103 -102 -98 -82 -82 -95 -105 -102 -98 -100 -113 -128 -122 -114 -113 -113 -113 -113 -113 -111 -108 -103 -96 -91 -90 -92 -83 -59 -60 -77 -80 -86 -82 -91 -108 -125 -117 -111 -110 -112 -112 -112 -113 -111 -112 -105 -97 -82 -65 -59 -45 -23 -17 -40 -55 -60 -47 -37 -50 -81 -100 -106 -106 -112 -112 -111 -112 -112 -113 -106 -80 -50 -25 -17 -5 -2 -4 -8 -10 -10 -10 -21 -49 -81 -114 -112 -111 -112 -112 -114 -114 -114 -119 -106 -82 -54 -22 -14 -12 -19 -23 -31 -15 -3 -2 -16 -62 -115 -115 -113 -112 -112 -113 -113 -114 -113 -119 -119 -105 -63 -42 -27 -46 -41 -32 -16 -6 -2 -6 -34 -77 -98 -112 -111 -112 -113 -112 -112 -112 -114 -113 -102 -88 -48 -25 -26 -40 -32 -28 -9 -6 -8 -15 -64 -66 -77 -98 -108 -112 -113 -111 -113 -112 -104 -76 -84 -84 -44 -15 -15 -16 -9 -2 0 -3 -19 -21 -27 -60 -82 -95 -109 -113 -112 -113 -111 -114 -90 -50 -73 -75 -46 -14 -10 -10 -6 -1 -1 -7 -21 -14 -15 -57 -88 -96 -104 -111 -112 -111 -113 -112 -92 -50 -32 -25 -21 -9 -11 -16 -14 -4 -7 -33 -50 -37 -40 -57 -63 -77 -102 -111 -113 -112 -113 -113 -94 -68 -56 -51 -45 -26 -29 -34 -17 -5 -12 -50 -85 -76 -90 -81 -63 -82 -111 -112 -111 -113 -112 -112 -106 -98 -99 -77 -53 -32 -21 -31 -38 -20 -20 -47 -80 -102 -100 -88 -89 -104 -112 -112 -113 -111 -112 -113 -111 -117 -121 -102 -72 -41 -26 -30 -28 -21 -27 -58 -99 -106 -93 -93 -94 -102 -111 -112 -112 -112 -112 -112 -111 -112 -111 -102 -71 -61 -75 -88 -57 -35 -55 -98 -113 -113 -105 -111 -109 -109 -112 -113 -112 -112 -111 -113 -112 -112 -113 -108 -94 -89 -111 -118 -104 -79 -88 -96 -100 -116 -114 -114 -113 -113 -113 -112 -111 -111 -113 -112 -113 -112 -112 -112 -112 -111 -112 -113 -111 -111 -105 -103 -105 -112 -110 -111 -113 -112 -112 -113 -111
-71 -71 -70 -70 -70 -71 -70 -71 -71 -71 -70 -72 -71 -70 -71 -70 -70 -70 -72 -70 -71 -71 -71 -70 -70 -71 -70 -70 -70 -70 -70 -70 -70 -70 -71 -70 -68 -64 -64 -62 -58 -62 -68 -70 -71 -70 -70 -70 -70 -70 -70 -70 -71 -60 -56 -61 -68 -64 -60 -45 -33 -33 -36 -41 -39 -43 -65 -68 -68 -70 -71 -70 -71 -70 -71 -72 -69 -48 -35 -22 -12 -7 -7 -2 -1 0 0 -3 -7 -23 -45 -62 -67 -71 -70 -71 -70 -70 -74 -77 -80 -68 -32 -2 0 -2 0 2 1 1 1 0 0 -8 -35 -50 -62 -70 -70 -71 -71 -72 -73 -80 -86 -49 -15 -6 -1 1 1 0 0 -1 0 0 0 -4 -17 -41 -58 -70 -69 -70 -71 -73 -74 -72 -47 -28 -30 -22 -18 -3 -1 -2 -4 -4 0 0 0 -5 -27 -48 -53 -66 -71 -71 -72 -74 -72 -71 -36 -26 -40 -28 -27 -7 -2 -6 -19 -5 0 0 3 -4 -26 -65 -63 -63 -71 -71 -71 -71 -68 -72 -48 -10 -15 -15 -2 0 0 -13 -2 0 0 0 0 -10 -40 -81 -73 -70 -71 -72 -71 -72 -64 -57 -69 -54 -33 -15 -6 0 0 -2 0 0 0 -2 -6 -8 -54 -82 -68 -68 -71 -71 -71 -71 -65 -48 -49 -63 -37 -10 -8 -2 -1 0 0 0 0 -3 -9 -12 -35 -45 -56 -71 -73 -72 -71 -71 -68 -56 -33 -22 -17 -3 -2 2 1 -1 -2 -1 -3 -5 -12 -11 -27 -34 -35 -61 -75 -72 -70 -68 -66 -63 -40 -17 -11 -4 -2 1 1 -4 0 -2 -7 -5 -3 -8 -24 -26 -30 -55 -69 -70 -71 -70 -66 -61 -40 -13 -6 -2 0 3 1 -1 0 -2 -2 -1 -3 -3 -11 -28 -54 -66 -70 -70 -71 -71 -70 -67 -41 -19 -7 -1 2 2 1 1 -3 -3 -2 -2 -3 -3 -22 -50 -71 -70 -70 -70 -70 -71 -70 -63 -45 -29 -15 -7 0 1 1 -6 -23 -45 -22 -15 -24 -39 -48 -53 -69 -71 -71 -71 -70 -71 -70 -69 -64 -52 -41 -35 -21 -10 -24 -55 -128 -121 -45 -39 -67 -74 -64 -66 -71 -71 -70 -70 -70 -71 -70 -71 -70 -70 -70 -71 -70 -64 -71 -73 -87 -86 -67 -62 -70 -68 -67 -71 -71 -70 -70 -70
1 9 5 2 -6 9 -2 17 6 7 2 5 -5 12 -6 5 -7 17 12 11 3 1 12 13 -1 3 -1 14 9 -5 13 -1 11 -2 18 15 11 12 14 14 14 -3 19 -2 -7 -4 6 12 9 9 16 6 3 3 -3 -1 1 11 -4 10 3 17 10 8 24 16 2 -1 11 2 9 17 -4 12 -1 -1 13 0 3 19 -2 -23 -48 -54 -36 -13 -7 -1 -10 -9 0 -10 -7 0 2 0 17 -2 8 10 2 18 2 1 -12 -27 -54 -77 -63 -85 -79 -59 -37 -26 -10 -20 -26 -13 5 -6 -7 11 9 10 12 12 10 -2 -14 -23 -21 -31 1 -5 -7 -23 -38 -22 -23 -29 -26 -31 2 1 16 13 14 25 15 -5 -14 -28 -33 -18 10 72 78 93 68 37 -3 -11 -11 -26 -41 -33 -3 1 -7 12 6 20 14 -16 -26 -44 -47 -29 -1 -19 -52 -10 1 2 -12 -30 -47 -9 -21 -3 2 16 17 -6 10 5 8 -20 -21 -42 -46 -25 -20 -105 -128 -103 -54 -26 -40 -27 -4 23 10 -6 -8 -6 13 -2 13 6 36 26 15 10 5 -19 -55 -110 -103 -61 -35 -22 25 54 52 47 42 17 10 17 8 1 -9 16 47 58 55 24 16 -1 -49 -77 -46 -29 5 58 95 79 48 37 12 22 14 3 6 5 4 24 36 53 48 40 47 51 36 30 27 14 42 65 67 42 41 23 15 19 23 8 16 3 -2 -2 20 -8 18 47 51 90 101 72 35 23 53 44 27 7 12 14 14 15 15 9 -2 11 -5 11 3 -26 -39 -17 11 41 32 27 15 16 14 19 4 12 8 12 21 19 8 15 -2 5 9 -3 0 -8 -29 -30 -38 -50 -74 -91 -79 -26 -17 -3 -4 20 23 19 16 16 -3 15 12 -8 -4 -6 13 -4 5 -29 -47 -70 -71 -77 -62 -36 -27 -24 -8 -14 4 17 14 18 16 16 -3 -7 8 10 -4 4 -10 -9 -14 -14 -32 -7 -20 -1 -15 -25 -20 4 -11 10 5 10 1 6 13 15 -7 -2 12 6 6 -7 4 13 8 -1 -1 10 -6 3 10 -1 15 -5 11 17 7 9
0 0 0 0 0 0 0 0 0 0 0 0 0 0 0 0 0 0 0 0 0 0 0 0 0 0 0 0 0 0 0 0 0 0 0 0 0 0 0 0 0 0 0 0 0 0 0 0 0 0 0 0 0 0 0 0 0 0 0 0 0 0 0 0 0 0 0 0 0 0 0 0 0 0 0 0 0 0 0 0 0 0 0 0 0 0 0 0 0 0 0 0 0 0 0 0 0 0 0 0 0 0 0 0 0 0 0 0 0 0 0 0 0 0 0 0 0 0 0 0 0 0 0 0 0 0 0 0 0 0 0 0 0 0 0 0 0 0 0 0 0 0 0 0 0 0 0 0 0 0 0 0 0 0 0 0 0 0 0 0 0 0 0 0 0 0 0 0 0 0 0 0 0 0 0 0 0 0 0 0 0 0 0 0 0 0 0 0 0 0 0 0 0 0 0 0 0 0 0 0 0 0 0 0 0 0 0 0 0 0 0 0 0 0 0 0 0 0 0 0 0 0 0 0 0 0 0 0 0 0 0 0 0 0 0 0 0 0 0 0 0 0 0 0 0 0 0 0 0 0 0 0 0 0 0 0 0 0 0 0 0 0 0 0 0 0 0 0 0 0 0 0 0 0 0 0 0 0 0 0 0 0 0 0 0 0 0 0 0 0 0 0 0 0 0 0 0 0 0 0 0 0 0 0 0 0 0 0 0 0 0 0 0 0 0 0 0 0 0 0 0 0 0 0 0 0 0 0 0 0 0 0 0 0 0 0 0 0 0 0 0 0 0 0 0 0 0 0 0 0 0 0 0 0 0 0 0 0 0 0 0 0 0 0 0 0 0 0 0 0 0 0 0 0 0 0 0 0 0 0 0 0 0 0 0 0 0 0 0 0 0 0 0 0 0 0 0 0 0 0 0 0 0 0 0 0 0 0 0 0 0 0 0 0 0 0 0 0 0 0 0 0 0 0 0 0 0 0 0 0 0 0
-95 -95 -95 -95 -95 -95 -95 -95 -95 -95 -95 -95 -95 -95 -95 -95 -95 -95 -95 -95 -95 -95 -95 -95 -95 -95 -95 -95 -95 -95 -95 -95 -95 -95 -95 -95 -96 -94 -94 -94 -94 -94 -94 -95 -95 -95 -95 -95 -95 -95 -95 -95 -95 -95 -95 -95 -95 -96 -97 -99 -99 -81 -83 -85 -86 -85 -90 -94 -95 -95 -95 -95 -95 -95 -95 -95 -96 -96 -96 -97 -102 -105 -109 -120 -98 -74 -76 -73 -80 -74 -82 -92 -94 -95 -95 -95 -95 -95 -95 -95 -95 -94 -88 -90 -103 -105 -113 -128 -83 -72 -85 -82 -96 -98 -91 -98 -93 -94 -94 -95 -95 -95 -95 -95 -95 -87 -75 -86 -93 -76 -60 -46 -31 -52 -63 -53 -74 -98 -98 -93 -90 -92 -93 -95 -95 -95 -94 -94 -91 -85 -85 -90 -98 -74 -53 -37 -33 -42 -33 -26 -56 -90 -99 -90 -90 -91 -93 -95 -95 -95 -95 -94 -89 -87 -87 -85 -107 -95 -90 -68 -47 -37 -42 -39 -57 -82 -98 -94 -90 -92 -94 -95 -95 -95 -95 -95 -93 -91 -86 -73 -84 -99 -100 -70 -51 -62 -87 -89 -73 -65 -83 -97 -93 -94 -95 -95 -95 -95 -95 -94 -95 -95 -87 -67 -76 -101 -92 -80 -70 -64 -86 -100 -95 -74 -81 -99 -96 -94 -95 -95 -95 -95 -94 -94 -92 -94 -92 -80 -88 -81 -81 -86 -70 -69 -99 -116 -110 -84 -76 -90 -95 -95 -94 -95 -95 -95 -94 -90 -82 -86 -95 -89 -79 -77 -74 -87 -65 -77 -114 -116 -106 -76 -74 -80 -91 -94 -94 -94 -95 -95 -94 -85 -77 -78 -89 -86 -81 -75 -90 -89 -51 -72 -111 -100 -82 -80 -85 -76 -87 -94 -94 -94 -95 -95 -95 -90 -79 -77 -82 -73 -84 -96 -85 -83 -58 -100 -113 -90 -88 -99 -95 -79 -89 -94 -94 -95 -95 -95 -95 -93 -87 -86 -89 -74 -80 -80 -76 -81 -92 -119 -105 -103 -111 -108 -97 -83 -88 -95 -95 -95 -95 -95 -95 -93 -90 -91 -93 -82 -80 -82 -83 -83 -94 -103 -97 -98 -98 -95 -92 -83 -88 -94 -95 -95 -95 -95 -95 -94 -93 -92 -86 -81 -87 -90 -86 -83 -85 -89 -85 -88 -91 -90 -88 -87 -92 -95 -95 -95 -95 -95 -95 -95 -95 -95 -94 -92 -93 -94 -94 -94 -94 -93 -91 -93 -94 -95 -95 -95 -95 -95 -95 -95
-15 2 10 -3 9 -13 1 -12 -10 -14 -8 -14 -11 -17 0 -4 2 3 -9 6 -5 -2 -8 -10 -2 -3 6 2 10 -1 -10 -2 8 3 4 -9 7 -9 -10 -14 -23 -5 -22 -3 2 7 -3 -9 -2 9 -14 -11 -1 0 12 18 12 24 36 43 35 18 -3 -11 -19 -30 -15 -13 -9 -3 -15 -17 -9 -16 -5 3 3 16 39 20 22 4 31 28 38 6 7 -18 -12 -27 -23 -48 -49 -12 0 -6 -16 -10 -4 17 18 35 28 7 -9 4 11 41 34 39 45 37 14 5 -22 -50 -74 -27 -13 0 3 8 5 31 45 38 31 5 -5 17 44 90 100 83 47 35 34 26 3 -28 -68 -58 -7 -14 -14 -15 -6 32 39 48 1 1 -11 14 9 30 109 88 21 17 9 38 19 -11 -43 -37 -20 10 2 -4 0 29 48 15 -3 -9 -9 -36 -67 -53 38 29 0 9 43 69 58 3 -1 4 -4 -8 2 7 1 5 21 -22 -35 -14 -14 -79 -128 -75 16 1 -14 -3 12 43 10 -13 -9 12 5 1 10 -8 7 -2 6 -6 -14 -18 -38 -89 -95 -12 8 -28 -14 -11 0 -10 10 -26 -23 -1 9 12 -2 11 9 12 22 -7 2 -16 -12 -34 2 38 -5 -1 7 4 -1 7 17 12 25 23 12 4 9 1 1 16 24 -22 -19 -15 1 -5 -3 14 -15 -7 -3 -10 6 16 33 33 35 42 13 -4 -18 0 1 32 6 -21 -21 -43 -37 -78 -77 -63 -58 -62 -7 -19 -2 20 17 12 24 14 -10 8 -8 8 -4 18 31 7 -2 -9 -46 -87 -126 -109 -87 -64 -3 4 18 38 15 14 17 -1 3 -12 -11 -11 -1 12 32 19 19 10 13 -23 -27 -47 -23 -10 8 9 14 24 5 3 -3 -5 9 -14 -15 8 6 -5 9 9 28 1 5 -6 -9 -15 -1 -6 4 11 0 -6 8 3 -5 10 -15 9 -2 -6 7 -6 -11 23 9 24 25 36 40 33 47 18 27 13 3 -6 13 5 9 -2 -10 10 8 -11 2 1 9 7 -7 11 -5 -4 -1 15 2 22 -1 4 -3 9 -4 -18 10 -12 -2 -6
0 0 0 0 0 0 0 0 0 0 0 0 0 0 0 0 0 0 0 0 0 0 0 0 0 0 0 0 0 0 0 0 0 0 0 0 0 0 0 0 0 0 0 0 0 0 0 0 0 0 0 0 0 0 0 0 0 0 0 0 0 0 0 0 0 0 0 0 0 0 0 0 0 0 0 0 0 0 0 0 0 0 0 0 0 0 0 0 0 0 0 0 0 0 0 0 0 0 0 0 0 0 0 0 0 0 0 0 0 0 0 0 0 0 0 0 0 0 0 0 0 0 0 0 0 0 0 0 0 0 0 0 0 0 0 0 0 0 0 0 0 0 0 0 0 0 0 0 0 0 0 0 0 0 0 0 0 0 0 0 0 0 0 0 0 0 0 0 0 0 0 0 0 0 0 0 0 0 0 0 0 0 0 0 0 0 0 0 0 0 0 0 0 0 0 0 0 0 0 0 0 0 0 0 0 0 0 0 0 0 0 0 0 0 0 0 0 0 0 0 0 0 0 0 0 0 0 0 0 0 0 0 0 0 0 0 0 0 0 0 0 0 0 0 0 0 0 0 0 0 0 0 0 0 0 0 0 0 0 0 0 0 0 0 0 0 0 0 0 0 0 0 0 0 0 0 0 0 0 0 0 0 0 0 0 0 0 0 0 0 0 0 0 0 0 0 0 0 0 0 0 0 0 0 0 0 0 0 0 0 0 0 0 0 0 0 0 0 0 0 0 0 0 0 0 0 0 0 0 0 0 0 0 0 0 0 0 0 0 0 0 0 0 0 0 0 0 0 0 0 0 0 0 0 0 0 0 0 0 0 0 0 0 0 0 0 0 0 0 0 0 0 0 0 0 0 0 0 0 0 0 0 0 0 0 0 0 0 0 0 0 0 0 0 0 0 0 0 0 0 0 0 0 0 0 0 0 0 0 0 0 0 0 0 0 0 0 0 0 0 0 0 0 0 0 0 0 0 0 0 0 0
-79 -79 -79 -79 -79 -79 -79 -79 -79 -79 -79 -79 -79 -79 -79 -79 -79 -78 -73 -77 -79 -79 -79 -79 -79 -79 -79 -79 -79 -79 -79 -79 -80 -79 -78 -79 -79 -77 -77 -78 -77 -69 -63 -70 -79 -79 -79 -79 -79 -79 -79 -79 -79 -79 -78 -79 -86 -91 -89 -86 -83 -75 -74 -69 -54 -48 -54 -66 -77 -79 -79 -79 -79 -79 -80 -81 -79 -73 -59 -36 -32 -41 -60 -75 -70 -61 -41 -24 -14 -17 -30 -54 -75 -79 -79 -79 -79 -80 -89 -97 -84 -77 -86 -45 -39 -37 -39 -34 -26 -17 -11 -10 -7 -6 -22 -57 -76 -74 -78 -79 -83 -101 -98 -94 -81 -83 -125 -80 -60 -34 -7 0 0 0 0 -4 -6 -8 -34 -60 -73 -75 -78 -78 -85 -117 -117 -110 -85 -69 -75 -3 0 0 -1 -6 -1 0 0 0 -21 -37 -51 -67 -83 -79 -79 -79 -82 -101 -115 -112 -106 -89 -31 -2 -6 -12 -2 -1 -1 -4 0 0 -22 -49 -44 -65 -81 -79 -79 -79 -79 -83 -87 -88 -96 -75 -14 -7 -7 -11 -7 -12 -29 -6 0 -1 -23 -36 -37 -69 -80 -78 -79 -79 -79 -79 -76 -70 -61 -57 -39 -35 -13 -5 -8 -17 -31 -7 0 -17 -49 -28 -32 -70 -74 -79 -81 -81 -79 -79 -77 -63 -43 -44 -54 -47 -7 -2 -5 -12 -12 -2 -1 -47 -72 -50 -53 -84 -87 -92 -94 -89 -79 -79 -73 -59 -47 -48 -43 -48 -22 -11 -15 -22 -8 -1 -2 -42 -51 -54 -75 -104 -87 -86 -82 -80 -79 -79 -72 -61 -53 -42 -27 -29 -31 -31 -35 -24 -6 0 -4 -54 -48 -39 -47 -78 -80 -80 -79 -79 -79 -79 -78 -72 -63 -38 -20 -13 -11 -12 -15 -15 -20 -9 -17 -81 -80 -60 -54 -60 -77 -81 -79 -79 -79 -79 -80 -80 -72 -49 -43 -35 -19 -14 -13 -9 -23 -5 -4 -36 -44 -51 -56 -71 -79 -79 -79 -79 -79 -79 -79 -79 -78 -70 -76 -70 -39 -32 -25 -16 -30 -5 -8 -93 -98 -71 -72 -81 -80 -79 -79 -79 -79 -79 -79 -79 -79 -80 -83 -81 -70 -68 -62 -53 -62 -17 -42 -128 -117 -78 -72 -78 -79 -79 -79 -79 -79 -79 -79 -79 -79 -79 -80 -78 -76 -78 -79 -72 -58 -17 -54 -85 -88 -80 -78 -79 -79 -79 -79 -79
0 0 0 0 0 0 0 0 0 0 0 0 0 0 0 0 0 0 0 0 0 0 0 0 0 0 0 0 0 0 0 0 0 0 0 0 0 0 0 0 0 0 0 0 0 0 0 0 0 0 0 0 0 0 0 0 0 0 0 0 0 0 0 0 0 0 0 0 0 0 0 0 0 0 0 0 0 0 0 0 0 0 0 0 0 0 0 0 0 0 0 0 0 0 0 0 0 0 0 0 0 0 0 0 0 0 0 0 0 0 0 0 0 0 0 0 0 0 0 0 0 0 0 0 0 0 0 0 0 0 0 0 0 0 0 0 0 0 0 0 0 0 0 0 0 0 0 0 0 0 0 0 0 0 0 0 0 0 0 0 0 0 0 0 0 0 0 0 0 0 0 0 0 0 0 0 0 0 0 0 0 0 0 0 0 0 0 0 0 0 0 0 0 0 0 0 0 0 0 0 0 0 0 0 0 0 0 0 0 0 0 0 0 0 0 0 0 0 0 0 0 0 0 0 0 0 0 0 0 0 0 0 0 0 0 0 0 0 0 0 0 0 0 0 0 0 0 0 0 0 0 0 0 0 0 0 0 0 0 0 0 0 0 0 0 0 0 0 0 0 0 0 0 0 0 0 0 0 0 0 0 0 0 0 0 0 0 0 0 0 0 0 0 0 0 0 0 0 0 0 0 0 0 0 0 0 0 0 0 0 0 0 0 0 0 0 0 0 0 0 0 0 0 0 0 0 0 0 0 0 0 0 0 0 0 0 0 0 0 0 0 0 0 0 0 0 0 0 0 0 0 0 0 0 0 0 0 0 0 0 0 0 0 0 0 0 0 0 0 0 0 0 0 0 0 0 0 0 0 0 0 0 0 0 0 0 0 0 0 0 0 0 0 0 0 0 0 0 0 0 0 0 0 0 0 0 0 0 0 0 0 0 0 0 0 0 0 0 0 0 0 0 0 0 0 0 0 0 0 0 0 0
0 0 0 0 0 0 0 0 0 0 0 0 0 0 0 0 0 0 0 0 0 0 0 0 0 0 0 0 0 0 0 0 0 0 0 0 0 0 0 0 0 0 0 0 0 0 0 0 0 0 0 0 0 0 0 0 0 0 0 0 0 0 0 0 0 0 0 0 0 0 0 0 0 0 0 0 0 0 0 0 0 0 0 0 0 0 0 0 0 0 0 0 0 0 0 0 0 0 0 0 0 0 0 0 0 0 0 0 0 0 0 0 0 0 0 0 0 0 0 0 0 0 0 0 0 0 0 0 0 0 0 0 0 0 0 0 0 0 0 0 0 0 0 0 0 0 0 0 0 0 0 0 0 0 0 0 0 0 0 0 0 0 0 0 0 0 0 0 0 0 0 0 0 0 0 0 0 0 0 0 0 0 0 0 0 0 0 0 0 0 0 0 0 0 0 0 0 0 0 0 0 0 0 0 0 0 0 0 0 0 0 0 0 0 0 0 0 0 0 0 0 0 0 0 0 0 0 0 0 0 0 0 0 0 0 0 0 0 0 0 0 0 0 0 0 0 0 0 0 0 0 0 0 0 0 0 0 0 0 0 0 0 0 0 0 0 0 0 0 0 0 0 0 0 0 0 0 0 0 0 0 0 0 0 0 0 0 0 0 0 0 0 0 0 0 0 0 0 0 0 0 0 0 0 0 0 0 0 0 0 0 0 0 0 0 0 0 0 0 0 0 0 0 0 0 0 0 0 0 0 0 0 0 0 0 0 0 0 0 0 0 0 0 0 0 0 0 0 0 0 0 0 0 0 0 0 0 0 0 0 0 0 0 0 0 0 0 0 0 0 0 0 0 0 0 0 0 0 0 0 0 0 0 0 0 0 0 0 0 0 0 0 0 0 0 0 0 0 0 0 0 0 0 0 0 0 0 0 0 0 0 0 0 0 0 0 0 0 0 0 0 0 0 0 0 0 0 0 0 0 0 0
-12 4 -2 -13 -1 -1 2 -10 -5 4 2 -5 9 -9 -14 4 6 3 -3 7 -5 -7 -14 3 5 2 7 -12 -6 10 4 -13 12 -4 12 9 4 14 -11 6 -5 -8 4 8 -14 10 1 -7 6 -3 -7 -5 -8 5 15 21 18 8 13 20 15 15 -11 -10 9 0 -18 -19 -1 8 8 -7 4 5 8 15 18 15 27 18 20 4 13 -10 -13 -11 -9 -36 -33 -33 -45 -42 -18 -19 4 -5 -8 -9 6 16 15 26 15 -15 -25 -49 -54 -69 -61 -37 -58 -66 -60 -44 -39 -49 -39 -12 1 -4 -12 9 -9 12 25 8 -6 -12 -43 -58 -74 -49 -28 -14 -20 -38 -12 -12 1 -15 -37 -17 -12 4 -6 6 3 14 19 3 1 -44 -45 -66 -81 -9 73 91 81 46 35 52 37 12 -10 -15 -1 5 6 4 4 -6 7 -15 -19 -23 -25 -25 -11 38 118 127 82 41 67 86 84 45 -8 -16 -3 -6 1 9 -13 3 -12 -8 -35 -5 -11 7 23 46 57 83 51 9 30 71 49 10 -24 4 4 2 -9 -2 3 -2 -1 -15 -18 -24 -21 -2 13 45 60 56 54 73 64 42 13 -11 -26 -12 -6 8 -10 8 6 -7 -14 0 5 26 9 17 50 70 63 53 52 31 25 -12 -7 -23 -2 -11 -10 -3 0 -11 -1 13 3 -3 29 52 45 71 92 104 66 40 23 5 -11 -9 -15 -17 7 -2 -11 6 4 2 3 11 -5 -7 -4 17 43 50 64 59 34 24 15 15 8 4 -6 -11 -6 6 -8 8 -9 -11 -6 7 2 -23 -25 -34 -15 -39 -51 -38 -9 -20 -6 16 4 -5 -17 -16 5 -11 -9 -15 0 -10 3 13 7 -6 -18 -33 -46 -63 -64 -70 -42 -45 -37 -24 -21 -17 -13 -20 4 9 -7 8 2 -9 10 -6 -3 9 5 0 -12 -36 -27 -33 -28 -11 -20 -10 -9 -14 1 -8 -6 9 6 0 4 -8 0 -8 -12 -3 10 -2 -3 -4 10 -13 -6 2 -18 -4 -12 -15 2 -14 -10 1 3 -14 7 2 -15 -14 -4 -1 -7 -1 5 6 -12 -5 1 -11 0 -14 5 4 -10 0 -8 -7 10 5
-3 5 -13 5 3 -6 -8 -4 -2 -13 0 -4 6 4 5 -9 6 6 -12 -2 4 0 4 -13 -4 -6 -3 -14 -1 7 4 -7 2 -2 16 12 15 10 -3 -1 1 -4 3 6 6 -10 -4 -13 4 -6 5 -13 4 -3 -2 -1 18 24 26 30 36 38 27 6 5 1 -5 -14 2 0 -9 -1 -11 2 -9 -12 5 11 -7 13 -1 1 9 29 25 29 23 23 4 -10 -6 -24 -18 -21 -6 5 4 2 -12 -4 1 -1 -5 0 -9 0 -7 -25 -37 -18 -10 -11 6 -4 -12 -21 -25 -20 -9 6 -10 3 6 1 19 10 4 0 15 19 25 44 46 21 -19 -6 -13 -16 -6 -5 -12 -20 -14 -5 1 9 10 11 6 7 29 1 4 2 28 93 127 41 16 -2 -4 -5 12 8 7 9 7 -6 4 3 -6 2 8 -17 -15 -44 -46 -46 3 104 91 7 -34 11 22 8 26 24 22 17 8 -11 -12 0 4 -1 -20 -32 -47 -55 -65 -76 -29 41 45 -26 -33 -8 -8 -11 2 24 32 3 -7 5 -10 -8 0 -7 -37 -55 -59 -73 -57 -79 -63 8 24 3 -35 -27 -8 -2 14 6 15 7 -7 -2 -11 2 2 -3 -8 -22 -48 -60 -51 -44 -49 -11 20 -47 -74 -57 -12 3 18 9 21 27 10 -7 5 2 -8 -3 17 -7 7 8 5 16 -10 -17 -11 -49 -50 -15 -1 24 24 41 17 21 -7 -9 -2 -12 -2 18 26 18 45 72 71 71 69 56 19 -4 -2 2 12 9 21 31 21 15 9 -13 4 -13 -2 18 30 34 50 69 63 69 74 43 41 2 -5 -8 1 -3 -2 -5 3 -6 -13 -2 5 3 9 -1 20 34 36 30 24 22 25 35 15 3 -17 -31 -25 -21 -19 -2 -13 -9 0 1 2 7 -12 -2 -6 11 -1 15 -2 -15 -2 11 14 7 -11 -17 -14 -11 -21 0 -16 -3 -10 -13 -7 -12 -3 -10 -6 5 1 -6 -9 5 9 5 16 16 18 14 -13 -14 -9 4 -3 1 -2 -1 3 4 0 -15 -2 -3 -11 6 -1 -5 -7 6 -2 -7 3 8 1 3 -4 -10 -10 -13 3 -3
-7 3 -9 -10 0 -9 3 3 8 4 -5 -1 2 -6 4 1 2 1 -4 0 1 -8 3 8 -10 -8 6 7 -5 9 -8 -8 -10 5 -7 -6 -9 -14 1 -1 -1 1 -5 -5 -4 -5 6 -10 6 -1 -8 -5 -4 -8 6 3 -2 -15 -20 -29 -16 -29 -29 -13 -11 -4 -1 1 0 -5 -2 5 -7 6 7 1 -8 -7 1 -7 -16 4 -4 12 -12 -18 0 3 -18 -8 -1 -4 3 10 -9 2 3 -7 4 -2 -15 -3 -3 -4 -16 -12 -20 -28 -17 -12 -27 -31 -22 -17 -18 1 16 6 0 5 1 1 3 -9 -10 -14 -11 -20 -27 -38 -30 -5 -4 -22 -46 -37 -40 -13 -7 13 28 28 -2 8 -4 -3 -2 3 16 8 19 11 9 37 76 124 79 -23 -53 -29 -6 10 3 22 25 5 -7 -3 7 -1 -10 2 36 52 61 70 91 97 115 127 64 -26 -28 -1 3 2 15 15 14 11 -6 -2 -3 0 4 15 40 62 85 81 65 47 33 21 -2 -20 -5 0 24 24 7 20 6 -2 -10 -8 9 1 -6 -2 34 46 24 15 -10 -24 -29 -32 -43 -25 -8 5 7 -2 5 9 3 -4 5 -1 7 4 -2 -13 -7 -6 -23 -12 -32 -23 -24 -39 -31 0 19 -5 -13 2 2 11 -4 -11 -8 3 7 -6 3 -14 -25 -14 -11 -9 -9 3 -17 -38 2 22 14 -3 4 6 7 -6 -9 -17 4 5 -1 -5 -5 -21 -18 -7 -2 -7 6 -4 -12 -13 19 20 -4 -7 -10 4 -7 -9 -9 -16 -8 2 -6 -6 -2 -29 -27 -18 -8 -13 -8 -4 5 11 2 5 5 2 -2 -8 -1 -14 -17 -4 6 5 -2 -10 -6 -7 -21 -30 -19 11 0 9 26 13 4 -1 8 -6 -2 6 -3 -5 -8 4 -1 9 -6 -4 -6 -13 -24 -30 -14 1 -1 -1 1 -11 9 1 17 11 17 16 16 11 -5 -11 4 -10 0 4 1 -8 -10 -6 1 -6 -17 -18 -29 -29 -5 -1 -4 2 16 8 1 2 9 -4 -6 -1 -10 -2 -1 2 -8 -7 5 8 -11 1 -3 -8 -11 1 -4 -4 0 -5 -1 2 -6 4 -5 6
0 4 7 -1 -3 6 1 -4 -1 -5 0 9 -2 -5 -1 -3 7 9 12 -1 -8 5 3 8 0 -3 10 10 -4 12 11 3 3 -9 -15 -13 -10 6 -1 4 -9 -3 -4 10 1 8 10 -5 -6 0 -5 -5 -1 -1 7 3 2 5 -7 4 6 7 3 5 -7 17 5 9 0 12 -7 -1 -6 10 -4 -2 17 16 22 19 23 3 5 0 -32 -31 -43 -31 -23 -3 8 -4 -1 9 -2 0 -5 -7 3 16 16 28 20 31 48 40 36 36 7 7 8 0 15 24 15 -1 1 2 -5 2 4 5 11 9 33 49 40 41 32 20 30 12 14 11 -12 -1 18 13 12 2 -3 6 8 -4 4 -7 11 14 32 35 38 25 14 10 10 28 58 58 8 -4 -11 -11 11 1 9 7 2 -6 -2 13 6 27 16 5 3 -11 -6 11 11 51 127 109 56 40 3 -4 -24 -17 -11 1 11 12 8 -6 8 8 -6 -29 -36 -41 -30 -57 -47 12 87 59 37 6 -15 -14 -36 -45 -39 -3 16 -4 11 9 11 -8 -18 -55 -87 -66 -84 -102 -95 1 34 16 -9 -14 -16 0 -26 -43 -51 -2 8 9 13 -5 9 -13 -34 -70 -80 -78 -81 -84 -54 -1 4 -28 -44 -52 -25 -7 -28 -35 -23 -1 0 11 9 8 -3 11 -31 -59 -68 -64 -69 -61 -28 6 11 -13 -53 -33 -31 -31 -37 -21 -4 -7 12 7 -9 -3 13 9 0 -29 -38 -20 -31 -18 -6 22 15 -3 -7 -5 -9 -14 -14 -7 10 10 14 7 4 11 12 -6 -10 -2 -5 1 0 -9 -32 -6 2 0 12 5 -6 0 -13 -1 6 -5 -7 13 8 11 7 10 18 17 4 2 -21 -27 -37 -35 -13 -13 6 13 7 9 -4 -3 15 3 11 11 3 -3 6 11 8 30 17 17 24 16 9 10 13 28 38 18 8 8 6 -8 11 -8 7 7 -6 9 -4 6 2 8 13 35 45 36 46 36 38 45 40 33 28 16 7 -8 5 -2 5 -4 2 12 -4 -4 -2 0 -5 18 0 4 -2 6 17 10 9 3 15 -3 12 -6 1 8 6 -4
0 0 0 0 0 0 0 0 0 0 0 0 0 0 0 0 0 0 0 0 0 0 0 0 0 0 0 0 0 0 0 0 0 0 0 0 0 0 0 0 0 0 0 0 0 0 0 0 0 0 0 0 0 0 0 0 0 0 0 0 0 0 0 0 0 0 0 0 0 0 0 0 0 0 0 0 0 0 0 0 0 0 0 0 0 0 0 0 0 0 0 0 0 0 0 0 0 0 0 0 0 0 0 0 0 0 0 0 0 0 0 0 0 0 0 0 0 0 0 0 0 0 0 0 0 0 0 0 0 0 0 0 0 0 0 0 0 0 0 0 0 0 0 0 0 0 0 0 0 0 0 0 0 0 0 0 0 0 0 0 0 0 0 0 0 0 0 0 0 0 0 0 0 0 0 0 0 0 0 0 0 0 0 0 0 0 0 0 0 0 0 0 0 0 0 0 0 0 0 0 0 0 0 0 0 0 0 0 0 0 0 0 0 0 0 0 0 0 0 0 0 0 0 0 0 0 0 0 0 0 0 0 0 0 0 0 0 0 0 0 0 0 0 0 0 0 0 0 0 0 0 0 0 0 0 0 0 0 0 0 0 0 0 0 0 0 0 0 0 0 0 0 0 0 0 0 0 0 0 0 0 0 0 0 0 0 0 0 0 0 0 0 0 0 0 0 0 0 0 0 0 0 0 0 0 0 0 0 0 0 0 0 0 0 0 0 0 0 0 0 0 0 0 0 0 0 0 0 0 0 0 0 0 0 0 0 0 0 0 0 0 0 0 0 0 0 0 0 0 0 0 0 0 0 0 0 0 0 0 0 0 0 0 0 0 0 0 0 0 0 0 0 0 0 0 0 0 0 0 0 0 0 0 0 0 0 0 0 0 0 0 0 0 0 0 0 0 0 0 0 0 0 0 0 0 0 0 0 0 0 0 0 0 0 0 0 0 0 0 0 0 0 0 0 0 0 0 0 0 0 0 0
-24 -19 -22 -10 -12 -20 -17 -8 -7 -4 -11 -26 -22 -24 -11 -17 -21 -25 -10 -17 -10 -15 -20 -25 -21 -9 -21 -10 -13 -9 -17 -18 -21 -22 -17 -4 -11 -4 -8 -13 -6 -13 -10 -5 -6 -12 -14 -24 -3 -24 -3 -8 -25 -16 -10 3 15 5 15 13 3 1 -8 -13 -12 -25 -14 -24 -17 -10 -13 -12 -8 -10 -14 -20 -1 2 22 30 54 51 56 42 25 20 47 29 17 15 -22 -39 -31 -2 -22 -9 -22 -10 -16 -14 -7 27 34 58 52 22 11 2 -16 -14 -5 12 14 5 -2 -24 6 -11 -18 -25 -3 -4 -6 1 17 36 38 55 42 26 6 -14 -30 -13 2 0 6 11 20 16 28 12 -6 -7 -2 -26 -7 -10 -2 34 47 37 35 27 7 -24 -56 -41 19 44 40 44 24 43 45 27 0 -19 -19 -21 -18 -7 5 23 15 0 -14 -20 -31 -52 -89 -87 8 22 11 12 15 17 12 -3 -7 -6 -18 -17 -12 -11 -20 -3 -13 -12 -44 -26 -32 -49 -127 -90 -27 -9 1 -3 12 19 22 -4 -2 -13 -22 -19 -15 -22 -8 13 10 1 -12 -19 -18 -54 -89 -90 -33 0 13 25 6 8 14 -2 -12 -16 -9 -18 -20 -4 12 44 47 24 3 -16 1 -23 -80 -53 8 52 43 46 25 30 10 11 5 -14 -22 -23 -19 -6 20 81 88 69 43 27 6 -48 -69 15 83 77 74 57 45 55 33 22 4 -7 -11 -3 -4 -5 42 65 99 92 53 22 -3 -40 -13 44 72 65 69 54 46 38 22 4 -8 -20 -13 -23 -11 10 22 28 61 35 29 2 -10 -8 -3 21 39 32 35 61 36 37 17 -18 -24 -3 -18 -13 -21 -8 -16 3 -15 -14 7 24 48 45 34 34 11 13 26 31 21 22 -15 -4 -9 -3 -21 -8 -7 -14 -16 -19 -29 -8 2 18 29 48 27 30 7 -8 -13 1 -15 -7 -16 -4 -3 -19 -9 -19 -22 -11 -29 -30 -11 -29 -12 -8 -4 0 0 -11 0 -11 -12 -9 -24 -3 -9 -7 -24 -9 -19 -21 -6 -15 -15 -20 -21 -25 -22 -17 -7 -15 -26 -15 -14 -15 -27 -16 -25 -26 -13 -23 -25 -21
