[[-9, -3, 0, 3, 6, -6, -3, 0, -3, 6, 6, 9, -6, -6, 0, 3, 3, 0, -3, -6, 3, 6, 3, -3, 6, 6, 6, 3, -3, 0, 9, 6, -9, 6, -6, -3, 6, -9, -9, -87, -96, -6, 0, -50, -64, -12, -6, -9, -6, -6, 6, -3, -3, 0, -3, 6, -6, 6, 0, 9, -6, -6, 6, -23, -12, -90, -96, -67, -23, 9, 9, -47, -38, -23, -44, 41, 23, 70, 84, -76, -35, -50, -3, 0, -3, 0, -3, -3, 6, -84, -58, -50, -61, -15, -119, -128, -90, -67, -29, -41, -108, 26, 3, -38, -108, 15, 108, 127, 122, -20, 9, 6, 3, 6, -44, -6, -9, -50, -35, -50, -108, -41, -58, -58, -41, -26, -32, -23, -35, 35, 6, 52, -17, 84, 55, 122, 127, 47, -90, -6, 3, 0, 6, -82, -128, -128, -84, -61, -6, -32, 20, 6, -32, 12, 20, -32, -12, 3, 29, 6, 70, 44, 23, 55, -12, 127, -12, 6, -3, 6, 55, -64, -50, -90, -44, 29, -20, 17, 17, 32, 61, 35, 26, 44, 35, 38, -20, 82, 17, 47, 50, 76, 127, 127, 127, 29, 9, -38, -38, -44, -128, -90, -23, -6, 41, 55, 70, 70, 50, 70, -9, 79, 9, 12, 12, 15, 9, 9, 32, 93, 127, 127, 122, -15, -6, 35, -3, -90, -111, 47, -9, -9, 32, 52, 44, 61, 50, 41, 17, -32, -26, -17, 6, -26, -29, 15, -6, 108, 127, 127, 127, 58, -6, -6, 50, -41, -99, -12, 47, -12, 96, 58, 114, 127, 119, 87, -64, -114, -38, -32, -26, -9, 15, 44, 64, 105, 127, 127, 102, 3, -9, 17, -44, -73, 38, 23, 64, 105, 127, 127, 127, 127, 127, 122, -29, -105, -128, -58, 26, 32, 67, 47, 73, 93, 127, 127, 127, 47, -6, -76, -58, -128, 64, 111, 127, 127, 127, 127, 127, 102, 84, 84, 44, -67, -20, -9, 0, -3, 12, 84, 122, 93, 114, 96, 127, -6, -6, -9, -38, 125, 127, 127, 127, 127, 127, 114, 64, 90, 20, 41, 0, -38, -32, -12, 12, 12, 93, 127, 127, 127, 17, -61, 64, 0, 6, 23, 29, 127, 50, 127, 127, 127, 105, 41, 38, 26, 0, -12, -35, 20, -3, -17, 3, 67, 127, 127, 127, 64, 58, -76, -15, -102, -6, -29, 26, 102, 90, 108, 127, 96, 15, 20, 70, 12, -23, 6, -9, -32, 9, 6, -47, 50, 55, 20, 73, 32, 47, -99, -125, 0, -3, -23, 17, 3, -17, -6, -73, 23, 15, 52, 38, -20, -9, -50, -9, -17, -23, 15, 55, 73, 12, 6, 3, 3, -55, -84, -128, -61, 6, 0, -73, -128, -64, -58, -61, -64, 125, 26, 12, 17, -17, -90, -15, 44, 9, 26, 3, 6, -6, -15, -58, -15, -76, -128, -128, -96, 3, 3, -76, -128, -108, -58, -44, -12, 55, 127, 127, 79, 47, 3, 32, 6, -3, 41, 20, 3, 23, -9, -64, -82, -64, -128, -128, 0, 3, 9, -111, -128, -114, -114, -47, 17, 67, 76, 119, 58, 32, 41, 3, 9, -15, -23, -29, -6, 15, -6, -26, -117, -79, -128, -58, -64, 9, 3, 3, -111, -111, -26, -23, -17, -12, 15, -3, -35, -6, -12, -12, -44, -38, -52, -15, 15, 9, -93, -23, -9, -102, -128, -114, -9, -6, 47, -64, -128, -117, -9, -64, -32, -9, -32, -23, -38, 38, 32, -26, -20, 0, -26, 6, 20, -35, 0, 44, -26, -90, -128, -70, 6, 3, 0, -55, -26, -96, -47, 6, -23, -35, 6, 3, 32, 64, 35, 47, 35, 15, -3, 3, -23, 29, 64, 9, -119, -32, -102, -6, 3, 6, -3, -90, -128, -84, -70, -29, -44, 9, -23, 23, 17, 76, 84, 47, 52, 32, 0, 23, -32, -73, -29, -67, -67, -12, 17, -15, 0, -3, -9, -55, -128, -119, -84, -32, -82, -26, 0, 29, 58, 61, 96, 82, 52, 55, 26, -12, 17, 23, -12, -114, 20, -111, -64, -61, 3, -3, 3, -41, -20, -64, -15, -76, -117, 9, 9, 32, -9, 55, -9, 44, 73, 26, 23, 93, 114, 29, 23, 29, 47, -79, -102, 3, 6, 9, -9, 9, 67, -23, -82, -128, 0, -96, -82, -17, 35, 9, 44, 82, 117, 122, 127, 23, 127, 111, 20, 26, 52, -38, 3, 6, 9, 3, 9, 3, -6, -93, -79, 32, 41, -26, 12, 76, 73, 125, -50, -29, -26, 29, -64, -99, -128, -41, -6, 26, -26, 3, 6, -3, -6, 6, -6, 6, -6, 9, -26, -12, -119, -128, -122, -117, -128, -128, -79, -47, 102, -96, 35, -99, -61, -50, -70, 87, 6, 3, 6, 0, -6], [7, 0, -5, 2, 7, 0, 7, 5, -2, -5, 5, 0, 2, -2, -7, -4, -2, 5, 2, 4, 0, -5, 7, -4, -7, -7, 5, 4, 5, 0, 4, 2, -5, -5, 2, -4, -7, 4, 0, -72, -70, 4, 4, 49, -81, -7, 2, -9, 5, 4, 4, 7, -5, -7, 4, 7, 5, 4, -5, 4, -7, 0, -7, -9, -7, -23, -47, -5, -81, -9, 29, 22, 52, 38, 18, -38, -13, -22, -11, -63, -4, 0, 0, -7, 5, -5, 7, -5, -2, 72, -54, 52, -79, -5, -97, -104, -128, 23, -56, -92, -81, -106, -113, -124, -124, -77, 7, -70, -79, -54, 5, 4, -7, 0, 36, 4, 27, 0, -99, -106, -97, -49, -43, -85, -56, -38, -13, 16, 40, 31, -9, -34, -74, -16, -22, -22, -52, 0, 59, 0, -2, -4, 7, 31, 83, -9, -32, -38, 16, -43, -61, -29, 7, 11, -29, 14, -45, -23, -36, -11, -77, -14, -7, -92, 25, 31, 50, -4, 5, -4, -45, 70, -13, 20, 27, 20, 11, 38, 47, 58, 59, 85, 99, 103, 112, 127, 97, 76, 40, 16, -9, -83, -128, -9, -67, -4, 4, -14, 22, 0, -20, 11, 52, -14, -13, 31, 56, 72, 112, 99, 101, 126, 112, 122, 86, 101, 59, 50, -7, -16, -16, -108, -29, -34, 5, 47, 4, -52, 13, 77, 2, 14, 43, 43, 74, 38, 70, 59, 122, 61, 50, 41, 59, 72, 32, 47, 16, 40, -36, -110, -95, -7, 7, 40, 85, 104, -34, 29, 63, -11, 41, 34, 95, 79, 65, 43, 70, 29, 34, 54, 32, 72, 76, -47, 11, -29, -32, -83, -40, -9, 11, 43, 18, 45, -18, 7, 13, 79, 88, 34, 52, 31, 38, 29, 34, -25, -7, 38, 83, 68, 92, 54, 36, 29, -54, -128, -128, -72, -2, 83, 115, 50, 50, 25, 63, 122, 61, 61, 61, 58, -45, 32, 103, 65, 32, 108, 79, 65, 95, 115, 127, 115, -11, -41, -121, -5, -2, 85, 121, 47, 5, 76, 79, 77, 52, 38, -23, -63, -126, -43, 72, 25, 4, 65, 92, 88, 74, 127, 127, 127, 127, -23, 52, 2, -7, 18, 108, 36, 52, 88, 23, 36, 40, 34, -20, -99, -108, 20, 50, 40, 67, 34, 54, 76, 32, 90, 126, 115, 101, -70, -14, -85, 4, 58, 29, 88, 11, 20, 29, 16, -7, -36, -11, -72, -54, 14, 18, 32, 32, 20, 7, 34, 50, 36, 36, 54, -52, -18, -74, 7, 5, -25, 4, 4, 65, 31, 54, 31, -27, -27, -34, -52, -63, -7, -32, -18, 7, 23, 92, 4, 2, 70, 61, 2, -27, -128, -86, -41, -5, 5, -47, -34, -9, -23, -36, 4, 31, 25, -32, -29, -32, -27, -56, -13, 31, 7, 29, -13, -59, -27, 7, -16, -94, -115, -68, -70, 7, -5, -81, -23, -58, -79, -95, -9, 32, 5, -34, 11, -18, 0, -20, 4, 5, -9, -34, 5, -40, -18, -11, -77, -112, -128, -72, -7, 2, -5, -76, -81, -97, -122, -94, -58, -4, 36, 20, -2, -43, 5, -34, -58, -61, -29, 5, 9, -43, -49, -25, -112, -128, -85, -20, -34, 4, -2, -97, -34, -113, -85, -32, -31, -25, -25, 13, -45, -29, -77, -59, -79, -67, -41, -52, -27, -32, -65, 27, 36, -128, 0, -63, 0, 5, -43, -52, -50, -128, -61, 40, 25, -20, 18, -41, -76, -34, -59, -54, -61, -20, -27, -56, 18, -45, -9, -56, -86, -79, 29, -54, 5, 4, -9, -16, -128, -128, -72, 23, -23, -13, 18, 18, -5, -29, -23, -45, -41, 9, -40, -20, -47, -27, -27, -92, -128, 68, 56, -5, 7, -4, 0, -108, -124, -99, -27, 31, 29, 27, 13, 29, 7, 18, -14, 9, 13, 40, 7, -34, -68, -126, -77, -54, -4, 88, 41, 2, -2, -5, 5, -31, -128, -31, -56, 68, 99, 95, 4, 9, 13, 7, 38, 36, 5, 11, 0, -36, -56, -68, -16, 27, 88, 59, -59, -34, -2, -5, 4, -29, 13, 13, 68, 72, 83, 88, 5, 38, 14, 22, -7, -16, 14, -40, 7, 11, 7, 45, 106, 67, 77, 63, -86, -7, 7, -5, 4, 5, -32, -18, 127, 13, 103, 104, 92, 23, 56, 23, 38, 49, 74, 113, 72, 72, 127, 127, 127, 86, 86, 41, 5, -4, 4, 4, -5, -4, -2, 41, 95, 85, 127, 127, 56, 124, 119, 92, 115, 127, 101, 127, 127, 127, 76, 117, 74, 122, 20, -4, -5, 5, 0, -2, -4, 7, 2, -7, 22, 11, 112, 119, 22, 124, 22, 70, 127, 124, 27, 83, 103, 52, -7, 43, -56, 72, 2, 4, 4, 5, 4], [35, -35, 0, -35, -104, -69, -69, -104, 104, 35, -35, 0, 104, 35, 35, 69, 69, -104, 0, -69, -104, -35, -69, 35, -104, 104, 0, 0, -69, -35, 0, 0, -69, 35, -35, -35, 0, -35, 69, 127, 127, 0, -128, 127, 127, 127, -35, 0, 69, -35, 35, 0, 35, 104, 69, -69, 35, 69, 0, 35, 0, -35, 0, 127, 104, 127, 127, -128, 127, -128, -128, -128, 127, 127, 127, -128, -128, 127, 127, 127, 127, 127, -69, 0, -35, 35, 35, 0, -35, -128, 127, -128, 127, -128, 127, 127, 127, 127, 127, 127, 127, 127, 35, -128, -128, -128, -128, -128, 35, 127, 0, 104, 35, -104, 127, 104, -128, -128, -128, -128, -128, 104, -104, -104, -128, 127, 127, 127, -35, 0, 127, -128, 0, -128, -128, -128, -128, 127, -128, 35, -69, -104, 0, -128, -128, -128, -128, -128, -128, -35, -128, 127, -128, 127, 127, 127, 127, 127, 127, 69, -128, 127, 127, -128, -128, -128, -128, -35, 35, 104, 127, -128, -128, -128, -128, -128, -128, 127, 127, 127, 127, 127, 127, 35, 127, -128, -128, -128, -128, -69, 127, -104, -128, -128, -128, -128, 104, 127, 127, -128, -128, -128, -128, 127, 127, 127, 127, 127, 127, 127, 127, 35, 127, -128, -128, 104, 127, 127, 127, -128, -35, -128, -128, 127, -35, 127, 127, 127, -128, 35, -128, 127, 127, 127, 127, 127, 127, 127, 127, 127, 127, 35, 127, 127, 127, 127, 127, 127, -128, -128, -128, -128, 127, 127, -128, 127, 127, 127, -128, 127, 127, 127, 127, 127, 127, 127, 127, 127, 127, 127, 127, 127, 127, 127, 127, 127, 127, -128, -128, 104, 127, -128, 127, 127, 127, 127, -104, 35, 127, 127, 127, 127, 127, 127, 127, 127, 127, 127, 127, 127, 127, 127, 127, 127, 127, -128, -128, 127, 0, 127, 127, 104, 127, 127, 127, -128, -128, 35, -128, -128, 127, 127, 127, -128, -128, -128, 127, 127, 127, 127, 127, 127, 127, -128, -128, 35, 104, 127, -128, -128, -128, -128, -128, -128, -128, -128, -128, -128, -128, -128, -128, -128, -128, -128, -128, -128, -128, 127, 127, 127, 127, 127, -128, 69, -35, -35, 127, -128, -128, -128, -128, -128, -128, -128, -128, -128, -128, -128, -128, -128, -128, -128, -128, -128, -128, -128, 127, 127, 127, 127, 35, 127, -35, 127, 69, -128, -128, -128, -128, -128, -128, -128, 127, 35, 127, -128, -128, -128, -128, -128, -128, -128, -128, -128, 127, 127, 127, 127, 127, -104, 104, -128, 127, -128, -128, 127, -128, 127, 0, -128, 127, 127, -128, -128, -128, -128, -128, -128, -128, 35, 104, 127, -104, 127, 127, 127, 127, 127, 69, -69, 127, 127, 127, -128, 127, 127, 0, 127, 127, -128, -128, -128, 127, 127, -128, 127, -128, -128, 127, 127, 127, 127, 127, 127, 127, 127, 0, 127, 127, 127, 127, 127, 127, -128, 0, 127, 127, 127, 104, 127, 104, -128, -69, 127, 35, 0, 127, -128, 127, 127, 127, 127, 127, -35, -104, -69, 127, -128, 127, 127, 127, 127, 127, 127, 127, 127, 127, 127, 127, 127, 127, 127, 127, -128, 127, 104, 127, 127, 127, 127, -69, 69, -104, 69, -128, -128, 127, 127, 127, 127, 127, 127, 127, 127, 127, 127, 127, 127, 127, 127, 127, 127, 127, -128, 127, 127, 127, 127, 127, 127, 35, 127, -128, -128, 127, 127, 127, 127, 127, 127, 127, 127, 127, 127, 127, 127, 127, -128, 127, 127, 127, -128, 127, 127, 127, 127, 127, 69, -35, -35, 127, 127, 127, 127, 127, 127, 127, 127, 127, 127, 127, 127, 127, 127, 127, 127, 127, 127, -128, -128, 127, 127, 127, 127, 69, -69, -69, 104, 127, 127, 127, 127, 127, 127, 127, 127, 127, 127, 127, 127, 127, 127, 0, -128, 127, 127, 127, 127, 127, 127, -128, -128, 69, 0, 69, -69, -104, 127, -128, 127, 127, 127, -104, 127, 127, 127, 127, 127, 127, 127, 127, -104, 0, 127, 127, 127, -128, -128, -128, 127, -128, 69, 0, -35, 127, -128, -128, 0, -128, -128, -128, -128, 69, 127, 127, 127, 127, 127, 127, 127, 127, -128, -128, -128, -128, -128, -128, 127, 104, 35, -104, -104, -104, 127, -128, -128, -128, -128, -128, -128, -128, -128, -128, -128, -128, 127, -128, -128, 127, -128, -128, -128, -128, -128, -128, -69, 0, -35, 104, 0, 35, -35, -128, -128, -128, -128, -128, -128, -128, 127, -128, -128, 35, 127, 127, -128, -128, -128, -128, -128, 127, -128, -69, 0, 35, -69, -69, 35, -69, -104, -104, 127, 127, 127, 127, 127, 127, 127, 127, 127, -128, 69, 127, 127, 127, -128, 127, -128, -128, -35, -69, -69, -69, 0], [-3, -2, -7, 0, -2, 0, 5, -5, 0, 7, -7, 5, 3, -3, 2, -5, -7, -7, 7, -3, -5, -3, 3, -2, 2, -5, 2, 5, -7, 5, 5, 7, 0, 7, -3, 5, -5, 3, -2, 21, 26, 7, 12, 30, 0, 9, 5, 2, 3, 5, 5, 3, 5, -5, -5, 7, -3, 2, 5, -7, -5, 0, -2, -2, -2, -83, -10, -26, 19, 28, 66, 75, -19, -30, 85, 45, 36, 57, 68, -5, -14, -9, 2, 0, -7, 7, -3, -3, 0, -59, 33, -28, -28, 59, 19, 54, 61, 43, 36, 78, 87, 127, 76, 80, 95, 36, 68, 54, 80, 57, -3, 0, -3, 2, 5, 0, 40, 31, 26, -24, -9, 14, -19, 47, -10, 2, 17, 17, -12, -9, -26, 59, -21, 75, 118, 127, 33, 76, 3, -3, 2, 2, 0, 9, -71, 0, -47, -5, -3, 16, 36, 3, -12, 36, 17, 26, 2, -36, 33, 21, 62, 23, 52, 62, 2, 127, 9, 7, -5, -2, -52, -62, -49, -35, -3, -59, -52, -3, 9, -7, 21, 35, 43, 54, 52, -7, 31, 73, 66, 35, 24, 89, 127, 127, 73, 3, -3, 5, -78, 21, -111, -24, -66, -33, 5, 2, -7, 21, 42, 35, 75, 75, 24, 21, 57, 26, 85, 33, 12, 28, 113, 127, 62, 10, 5, 40, -38, -14, -128, -62, -64, -38, -24, -64, -19, 43, 64, 61, 94, 52, 7, -28, -17, -17, 47, 16, -3, 31, 94, 108, 95, 16, 5, 33, 43, -73, -73, -108, -31, -43, -28, 2, 7, 90, 123, 127, 57, -42, -87, -128, -99, -128, -83, -78, -52, -38, 12, 101, -28, 7, 10, 26, 92, 82, 71, -19, 52, 30, -36, 38, 92, 94, 83, 127, 30, -115, -128, -128, -128, -128, -128, -128, -128, -128, -87, 127, 127, 31, 5, -19, 33, 54, 111, 87, 78, 64, 90, 69, 66, 43, 59, 64, -14, -99, -78, -42, -21, -62, -106, -128, -128, -128, -128, 24, 97, -5, 10, 10, 52, 54, 113, 106, 80, 71, 12, 14, 43, 38, -36, -52, -7, -47, -64, -7, 0, -5, 9, -71, -73, -128, -128, -35, 14, -5, 5, 26, 109, 40, 59, 76, 127, 61, 64, -3, 17, -9, 2, 0, 16, -21, -78, -59, 2, 14, 43, -104, -2, -7, -35, -17, -19, -40, 2, 33, 19, 104, 36, 23, 62, 30, 19, -9, -9, -92, -66, -89, -5, -30, -76, -47, -47, -21, -14, -43, 45, 106, 115, 30, -78, -3, -7, 36, 59, 38, -40, -31, -42, -5, 33, 9, -17, -95, -69, -54, -31, -36, -59, -56, -14, -10, 30, -7, 30, 127, 122, 99, -66, 0, 3, 7, 42, 5, -69, -33, -111, -54, -61, -71, -61, -17, -64, -83, -33, -80, -66, -19, -24, 59, 42, 33, 83, 82, 40, -128, -125, -83, -3, 0, -26, 73, -40, -50, -66, -59, -111, -111, -90, -43, -68, -128, -90, -36, -59, 9, 42, 14, 43, 64, 35, 52, 43, -95, -90, -5, 0, -2, 57, 109, 52, 30, 2, -12, -56, -123, -94, -104, -128, -83, -21, -12, -45, 57, 47, 47, 64, 82, 42, 28, 73, -35, -36, -56, 3, -3, 36, 127, 104, 99, 9, 38, 33, -36, -66, -113, -71, -35, 0, 9, 49, 45, 50, 42, 35, 0, 26, 38, 76, -89, -62, -17, -5, 9, -33, 16, 23, 31, -35, -10, 61, 14, -21, -14, 21, 50, 28, 61, 71, 85, 16, 66, 17, 3, 97, 94, 57, -128, 9, 3, 0, -7, -28, 12, 31, 30, -19, 21, 52, 19, 43, 26, 68, 64, 92, 90, 71, 43, 42, 14, 9, 62, 69, -24, -33, -89, 0, 5, -7, -2, -7, -76, -38, 31, -85, -24, -31, -17, 3, -3, 49, 24, 80, 54, 82, 45, 38, 47, 45, 42, -2, -52, -71, -36, 17, 0, -3, -3, 3, 73, -7, -17, -31, -36, -35, -30, 26, 49, 28, 0, 45, 57, 28, 59, 47, 21, 47, 17, -47, -87, -64, -33, 5, 7, 2, -7, 26, 69, 75, -2, 10, 24, 23, 59, 68, 57, 62, 42, 42, 12, 23, 83, 76, 71, 59, 73, -62, -47, -68, -23, -3, -5, -7, 5, 5, 62, 102, 43, -42, -40, -64, -16, 57, -14, 16, -38, 45, 2, 49, 45, -16, -38, -101, -54, -95, 2, 0, -5, -3, -7, 0, -7, 5, 3, -17, -71, -73, -122, -47, -9, -95, -36, 3, 5, -50, -66, 33, -49, -115, 76, -3, 19, -7, 0, 3, -3, 5, 2, -5, 7, -5, 5, -2, 24, 16, 21, 38, 50, 101, 95, 120, 115, -24, -28, 68, 116, -2, 24, 50, -85, 0, 0, 5, -7, -3, 7], [47, 47, 47, -24, -24, -24, -71, -24, -71, 118, 47, 71, -94, -71, -24, -47, -47, 0, -71, -47, -94, -47, -94, -24, 71, 94, 71, -71, 94, 0, 71, 47, -118, -94, 94, 71, 127, 47, -128, -128, -128, -24, -128, -128, -128, -118, -71, 0, 0, 47, -24, 47, 47, -94, 24, 0, 71, -47, 71, -71, 94, 94, -118, -128, 127, -128, 127, -128, 94, -118, -128, -128, -128, -128, -128, -128, -128, 118, 127, 127, 127, 127, -71, -71, 0, -71, -24, 71, 0, 127, -128, 127, 127, -128, 127, 127, 127, -24, 127, 71, -128, -128, -118, -128, 127, -128, -128, 127, 127, 127, 24, -47, 47, -24, 0, -24, 127, 127, -128, 127, 127, -128, -128, -128, -128, 118, -128, -128, -128, 127, 127, 127, 127, 127, 127, -128, 127, -128, -128, -47, -24, 47, 0, -24, 127, 127, 127, 127, -128, 127, -128, -128, -128, 118, 127, 127, 127, 127, 127, 127, 71, -128, -128, 71, 47, -128, -128, -71, -71, 94, 127, 127, 127, 127, 127, 127, 127, 0, 127, -71, 127, 24, 127, 127, 127, 127, 24, 127, 127, 127, 127, -128, -128, -128, -128, -128, -71, 127, 127, 127, 127, 127, 127, 127, -128, -94, -128, 127, 127, 127, 127, 127, 127, 127, 127, 71, -94, -128, 127, -128, -128, -128, -128, 127, 71, 127, 127, -128, 127, 127, 127, 127, -128, 71, 127, 127, 127, 127, 127, 127, 127, 127, 127, 127, 127, -128, 47, -128, -128, -128, -128, -128, 47, 127, 127, 127, 127, 127, -128, -128, -128, -128, 0, -128, 127, 127, 127, 127, 118, 127, 127, 127, 127, 127, 118, -128, -128, -128, -128, 47, -47, 127, 127, 127, -128, 127, -128, 94, -128, -128, -128, -128, -47, 127, -128, 71, 127, 127, 127, 127, 127, 127, 127, -128, -128, -128, -128, -128, 0, 127, 127, 127, -128, -118, -128, -128, -128, -128, -118, 127, 127, -128, -128, -128, 127, 127, 127, 127, 127, 127, 127, -128, -128, -128, -128, 71, -94, 127, 127, 127, 127, -128, 127, -128, 127, 127, 127, 127, 127, 127, -128, -128, 127, 127, 127, 127, -128, 127, 127, 127, 127, -128, -128, -71, 47, 127, 127, 127, 127, 127, 127, 127, 127, 127, 127, 127, -128, 0, -128, -128, 127, 127, -128, 127, -128, -128, 127, 127, 127, -128, -128, -128, -94, 127, 127, 127, 127, 127, 127, 127, 127, 127, 127, -128, -128, -128, -128, -128, -128, -24, 0, 127, 127, 127, 127, 127, 127, -128, -128, 71, -71, 127, 127, 127, 127, 127, 127, 127, 127, 127, 0, -128, -128, -128, -128, -128, -128, 127, 127, 127, 127, 127, 127, 127, 127, -128, -128, -128, 0, -94, -118, -128, -24, 127, 127, 127, 127, 127, 127, -128, -128, -128, -128, 24, 127, 127, 127, 127, 127, 127, 127, 118, 127, -128, -128, 127, -94, 127, 127, -128, -128, 127, 127, 127, 127, 127, -128, -128, -128, -128, -128, 127, 127, 127, 127, 127, 127, 127, 127, 127, -128, 127, -47, 24, 94, 0, 127, -118, -128, 127, 127, 127, 127, -128, 71, -128, -128, -128, -128, 127, 127, 127, 127, 127, 127, 127, -128, -128, -128, -128, -128, -128, -71, 71, -128, 127, 127, 127, 127, -128, 24, -128, 71, -128, -128, -128, 127, 127, 127, 127, 127, 127, 0, 127, -128, -128, 127, 127, -128, -118, -47, 127, 127, 127, 127, -71, 127, -128, -128, -24, 127, -128, -128, -128, 127, 127, 127, 127, 127, -118, -128, -128, -128, -128, -128, 0, 127, 47, -47, 71, 127, 24, 127, -128, 71, -128, -128, 127, -128, 0, 127, 127, 127, 0, 127, 24, -94, 47, -128, -128, -128, -128, 127, -128, -24, -118, 0, 71, -47, 127, 127, -128, -47, 127, 127, 127, 127, 127, 127, 127, -128, 127, 127, -128, -128, -128, -128, -128, 127, 127, -128, 127, -128, 118, -24, 24, 127, 127, -128, -128, -128, 127, 127, -24, 127, 127, 127, 127, 127, 127, -128, -128, -71, -128, -128, 127, 127, -128, 127, 127, -128, -94, -71, -118, -128, 127, 127, 127, 127, 127, 127, -71, 127, 127, 0, 127, 127, 127, 127, 127, -128, -128, 127, -128, -128, -128, 127, 127, -47, 0, -94, 47, 94, -128, 127, 127, 127, 127, 127, -128, 127, 127, 127, 127, 0, 127, -24, -128, -128, -128, -128, 24, 0, -128, -128, 47, -94, 0, 0, -118, 71, -71, -128, 127, -128, 127, -128, -128, -128, -128, -128, -128, -128, -128, -128, -128, -128, 127, 127, -128, 127, -128, 71, -94, -71, 0, 0, -71, 94, -94, 118, 127, 71, -128, -128, 47, -128, -128, -128, 127, -128, -128, 127, 127, 127, -128, 127, -128, 127, 118, 94, 47, -47, -94], [0, -29, 57, -29, 114, 29, 114, -57, 114, 86, 114, -29, -114, 57, -57, 0, 0, 86, -29, -114, 57, -57, 57, -29, -57, -57, 29, 0, -57, -57, 86, 57, 57, 29, -29, -114, 127, -29, 29, 127, 127, 57, -128, -128, -128, 29, -114, 0, 0, 0, -114, -29, -57, 114, 29, 114, -57, -86, 114, -114, 86, 0, -57, -128, 114, 127, -128, 127, 127, 127, -128, -128, -128, -128, -128, 127, 127, -128, -128, -128, -114, -128, 57, -86, -57, 29, 57, 0, -57, 127, 127, 127, 127, 127, 127, 127, 127, 127, 57, 127, 127, 127, 127, 127, 127, 127, -128, 127, 127, 127, 29, -29, 86, 0, -128, -86, 127, 127, 127, 127, 127, 127, 127, 127, 127, 127, 127, 127, 127, 127, 127, 127, 127, -128, -128, -128, 127, 127, -128, 29, 114, 0, 86, 127, 127, 127, 127, 127, 127, 127, 127, 127, 127, 127, 127, 127, 127, 127, -29, 127, 127, -128, -128, 127, 127, 127, -128, -86, -86, -57, 127, -128, 127, 127, -128, -128, 127, -128, -128, -128, -128, 127, 127, 127, -114, -128, 127, -128, 127, -128, -128, 127, 127, 127, 127, 127, 57, 127, -128, 86, 127, 127, -128, -86, 29, -128, -128, -128, -128, 127, 127, 127, 127, 57, 127, -128, -128, -128, -128, 127, 127, 127, 127, 127, 57, -128, -128, 127, 127, -128, 127, -128, -128, -128, -128, -128, -128, -86, -128, 127, 127, 57, -114, 127, 127, 127, 127, -114, 127, 127, 127, 127, -86, -128, -128, -128, 127, -128, -128, 127, -128, -128, -128, -128, -128, 57, 127, 127, -128, -128, 127, 127, 127, 127, 127, 127, 127, 127, 127, 0, -29, -128, -128, -128, -128, -128, 86, -128, -128, -128, -128, -128, -128, 0, 127, -86, -128, -128, -128, -114, -128, -128, 127, -57, 127, 127, 127, 127, 0, -128, -128, -128, -128, -128, -128, -128, -128, -128, -128, 127, 127, 127, 127, -128, -128, -128, -128, -86, -128, -128, -128, -128, 127, 127, 127, -86, -29, -128, -128, -128, -128, -128, -128, -128, -128, -128, 127, 127, 127, 127, 127, 127, 127, 127, -128, 127, -128, -128, -128, -128, -128, 127, 127, 114, 29, -128, -128, -128, -128, -86, 127, -114, 127, 127, 127, 127, 127, 127, 127, 127, 127, 127, 127, -128, -128, -128, -128, -128, -128, 127, 127, 0, -29, -128, -128, -128, -128, 127, 114, -128, 127, 127, 127, 127, 127, 127, 127, 127, 127, 127, 127, -128, -128, 127, -128, -128, -128, -128, -128, 114, 114, 127, 57, -128, -128, -128, -128, -128, 127, 127, 127, 127, 127, 127, 127, 127, 127, 127, -128, -128, -128, -128, 0, 127, -128, 127, 127, 127, -29, -29, 127, 127, -128, -128, 57, -128, -128, -128, 127, 127, 127, 127, -57, -128, 127, 127, -128, 86, 127, -128, 127, 127, 127, -128, -128, 114, -114, -29, 127, 127, 127, 127, 127, 127, -128, -128, -128, -128, -128, -128, -128, 86, 127, 127, 127, 127, 127, 127, 127, 127, 127, -128, 127, 29, 0, -86, 127, 127, 127, 127, 127, 127, 127, -128, -128, -128, -128, -128, -128, 127, 127, 127, 127, 127, 127, 127, 127, 127, 127, 57, -128, 127, -114, 86, 127, 127, 127, 127, 127, 127, 127, 127, 127, -128, -128, 86, -57, 127, 127, 127, 127, 127, 127, 127, 127, 127, 127, -29, 127, -57, -86, -128, 127, 127, 127, 127, 127, 127, 127, 127, 127, -128, -128, 114, 127, 127, 127, 127, 127, 127, 127, 127, 127, 127, 57, -128, -128, -57, -57, -57, 127, 127, 127, 127, 127, 127, 127, 127, -57, -128, 127, 127, 127, 86, 127, 127, 127, 127, 127, 127, 127, 127, -128, -128, 127, -57, 57, 57, 127, 127, 127, 57, 114, 127, 127, 114, 127, 127, 127, 127, 127, 127, 127, 127, 127, 127, 127, 127, 127, 0, -128, -128, 0, -29, -57, -114, 127, 127, 127, 127, -128, -57, 127, 127, 127, 127, 127, 127, 127, 127, 127, 127, 127, 127, 127, 127, 127, -128, -128, 127, -128, -57, 0, 29, 127, 127, 127, -128, 127, 127, 114, 127, 127, 127, 127, 127, 127, 127, 127, 127, -29, 0, -128, -128, 127, 29, -128, 127, -57, -57, 0, 29, -114, -128, 127, -128, 127, 127, 127, 127, 127, 127, 127, 127, 127, -128, -128, -128, -128, -128, -128, -128, 127, -128, -128, 29, 86, 114, -86, 29, -114, 57, 127, -128, -128, -128, -128, 127, 29, -128, -128, -128, -128, -128, -128, -128, -128, -128, -128, -128, -128, -57, 86, 57, -29, -86, 57, 86, 114, -57, -57, -128, -128, -128, -128, -128, -128, -128, -128, -128, -128, -128, -128, -128, -128, 127, -128, 127, -128, 86, 57, 86, -29, -57], [58, -29, 29, 0, 117, -29, -117, -58, -29, 0, -88, -58, -29, 29, -88, -88, -58, 29, 29, -29, 88, -29, 0, 0, 29, 88, 0, -29, -88, 58, 0, 58, -29, 88, 29, -29, 29, -29, 0, 127, 127, -58, 88, -128, -128, 29, 88, -29, 88, 117, 58, -58, -88, -29, 58, 58, -29, 58, 117, 58, -29, 0, 117, 29, -128, -128, -128, -128, 127, -58, -128, -128, -128, -128, -128, 127, 127, 127, 127, -128, -128, -128, 0, -29, 88, -58, -58, 117, -58, -128, 127, 127, -128, 127, -128, -128, 127, -128, -128, -128, -128, 127, 127, 127, 127, 127, -29, 127, 127, 127, 88, -88, -29, 88, -128, -29, 127, 127, 127, 117, -128, 127, -128, 127, 127, 127, 29, 117, -128, -128, -128, 127, -128, -117, 127, 127, 127, 127, -128, 88, 29, 29, 58, -128, -128, -128, -128, -29, 58, 127, 127, 127, 29, 127, 29, -128, -88, -128, 29, -128, 127, -128, -88, 127, 127, 127, -128, 0, -29, 0, -128, -128, -128, -58, -128, -58, 127, -128, 127, 127, 127, 127, 58, 58, -88, 29, -128, -58, -128, -58, -128, 127, 127, 127, 127, 29, 29, 127, -128, 127, -128, 127, -128, 127, 127, 127, 127, 127, 127, 127, 127, 127, 127, 127, 127, -128, 0, -128, 127, 127, 127, 127, 127, 127, 58, -128, 127, 127, -128, -128, 127, -128, 127, 127, 58, 127, -128, -128, -128, -117, 127, 127, 127, -128, 127, 88, 127, -29, 127, 127, 127, 29, -117, -128, -128, -128, -128, -128, -128, 127, 127, 127, 127, 127, 117, 58, -128, -128, -128, -128, 127, -128, 29, 127, 127, 127, 127, 127, 127, 0, -58, -128, -29, -128, 127, -128, 127, 127, -128, 127, 127, 117, -128, -128, -128, -128, -128, -128, -128, -128, -88, -128, 117, 127, 127, 127, 127, 127, -117, -128, -128, -128, -128, -58, 127, 127, 127, 127, 127, 127, 127, 127, -58, -128, -128, -128, -128, -128, -128, -128, -128, -128, 127, 127, 127, -88, -117, -128, -128, -128, -128, 0, 127, 127, 127, 127, 127, 127, 127, 127, 127, -128, -128, -128, -128, -128, -117, -128, -128, -128, -128, 58, 127, 117, 117, -128, -128, -128, -128, 127, 127, 127, 127, 127, 127, 127, 127, 127, -117, -128, -128, 29, 127, 117, 127, 58, 127, -128, -128, -128, -128, -128, -88, -128, -128, -128, 127, 127, 127, 127, 127, 127, 127, 127, 127, 127, -29, -128, -128, 58, 127, 29, 0, 127, 127, 127, 127, -128, -128, 58, 0, 127, 127, -128, -128, -128, -128, -128, 127, 127, 127, 127, 127, 29, -128, -128, -128, 58, 0, 127, 127, -128, 127, 127, -128, -88, -128, -128, 29, 58, 117, -128, -128, 88, -128, -128, -128, -128, 127, 127, 127, -58, -128, -128, -128, 127, 127, 127, 127, -128, 127, 127, 127, -128, -128, -128, -88, 58, 127, 29, -128, 127, 127, 0, -128, -128, -128, -128, -128, -128, -128, -128, -128, 127, 127, 127, 127, 127, -29, 127, -88, -128, -128, 0, 58, 117, 127, 127, 127, 127, 127, 127, 0, -128, -128, -128, -128, -128, -128, 127, 127, 127, 127, 127, 127, 127, 127, -128, -29, -128, -128, -128, -88, 127, 127, 127, 127, 127, 127, 127, 127, 127, -58, 29, -128, -128, -128, 127, 127, 127, 127, 127, 127, 127, -128, -128, -128, -128, -128, -128, 29, 127, -29, 127, 127, 127, 127, -128, 127, 127, 127, 0, -58, -88, -128, 127, 127, 127, 127, 127, 127, -29, 127, -128, -128, -128, -29, 0, 88, 88, 127, 127, 127, 127, 127, 127, 127, -58, -128, -128, 127, 127, 127, 127, 127, 127, 127, 127, 127, 127, 127, -128, -128, -128, 0, -58, -88, -29, 127, 127, 127, 127, -128, -128, -58, -128, 29, 127, 127, 127, 88, 127, 127, 127, 117, 127, 29, 127, -128, -128, -128, -128, -128, -29, 29, -117, 127, 127, 127, 127, -128, -128, -128, 127, 127, 127, 127, 127, 127, 127, 127, 127, 127, -128, 58, -128, -128, -128, -128, -128, -128, 58, 88, 58, 127, 127, 127, 127, 127, 127, 127, 127, 127, 127, 127, 127, 127, 127, 127, 127, 127, 29, -128, -128, -128, -128, -128, -128, 29, -29, 58, 117, 0, 127, 127, -128, 127, 127, 127, 127, 127, 127, 127, 127, 127, 127, 127, -128, -128, -128, -128, -128, -128, -128, -128, -117, -58, -88, -117, -58, -29, 0, -128, -128, -128, -128, -128, -29, -128, -128, -128, -128, -128, -128, -128, -128, -128, -128, -128, -128, -128, 58, -29, -117, -117, -88, 29, -88, -88, 58, 0, -128, -128, -128, -128, -128, -128, -128, -128, -128, -128, -128, -128, -128, -128, 88, -128, 127, -128, 117, -117, 88, -29, -29], [97, -32, 97, -32, 97, 32, -65, 32, -32, 32, -32, -32, -65, -32, 65, 97, -65, 0, 32, -32, -97, 65, -65, 0, -65, 0, -97, 0, -32, -97, 65, -65, -32, -97, 65, -65, -65, 0, 97, -128, -128, 97, -32, 127, -128, 32, -32, 65, -32, -97, -32, -65, -97, 0, 97, 127, -128, 97, -65, 65, 0, -128, 32, 127, -128, 127, 127, 65, -128, -128, 127, 127, -97, -128, -128, -128, -128, -128, 32, 97, 0, 97, -32, -97, -65, -97, 97, 65, 32, 127, -97, 127, -128, -128, 127, 127, -128, 127, -128, -128, -128, -128, -128, -128, -128, -128, -128, -128, 127, 0, 32, -128, 32, 32, 127, 97, 127, 65, -128, -128, 127, 127, 127, 127, 127, 127, 127, -128, -128, -128, -128, -128, -128, -128, -128, 127, -128, -128, 32, -65, 0, -32, 97, 127, 127, 127, 127, 127, 127, 127, 127, 127, 127, 127, -128, 127, -128, -128, -128, -128, -128, -128, -128, -128, -128, -128, -128, -32, 0, -65, -128, 127, 127, 127, 127, 127, 127, 127, 127, 127, -128, 127, 127, 127, 127, 0, -128, -128, -128, -128, -128, -128, -128, -128, -128, -65, 0, -97, 127, 32, 127, 127, 127, 127, 65, 127, -128, 127, 127, 127, 127, 127, 127, 127, -128, -128, -128, -128, -128, -128, -128, -128, -128, -128, 0, 127, 127, 97, 127, 127, 127, 127, 127, -128, 127, 127, 127, 127, 127, 127, 127, 32, -128, -128, -128, -128, -128, -128, -128, -128, -128, -128, -32, 127, 127, 127, 127, 127, 127, -128, 127, 0, 127, 127, 127, 127, 127, 127, 127, -128, -128, -128, -128, -128, -128, -128, -128, -128, -128, 32, 127, 127, 127, 127, 32, 32, -65, 127, 127, 0, 127, 127, 127, 127, 127, -32, -128, -128, -128, -128, -128, 127, -128, -128, -128, -128, -128, -128, 32, 127, 127, 127, 127, 97, 127, 127, 0, 127, 127, 127, 127, 127, 127, 127, -128, 127, -128, 0, 127, 127, 127, -128, -128, -128, -128, -65, 0, 127, 127, 127, -128, 127, -65, 65, 127, 127, -128, -128, -128, -128, 127, -128, -65, 127, 0, 127, 127, 127, 32, -128, -128, -128, -32, -65, 0, 127, 127, -128, 127, 127, -128, -32, 127, 127, -65, -128, -128, 32, 127, -128, 127, 127, 127, 127, 32, 127, 0, -128, -128, -128, 127, 127, 0, 127, 127, 127, -128, -128, -128, 65, 65, -128, 0, -128, -128, -128, 97, 127, 127, 127, 127, 127, 127, 127, 127, -65, -128, -32, 127, 32, -65, 127, 127, -128, 127, 127, 127, 97, -32, 127, 97, -128, -128, -128, -128, 127, 127, 127, 127, 127, 127, 127, 127, -128, -128, -128, 127, -97, -65, 0, -128, 0, 127, -128, -128, -128, 127, 127, -128, -128, -128, -128, -128, 127, 127, 65, 127, 127, 127, 127, -65, -65, -128, 127, 127, -128, -32, 65, -128, 127, 127, -97, -128, -128, -128, -128, -128, -128, -128, 127, 65, 127, 127, 127, -128, -128, 127, 127, -65, -128, -128, 127, 127, 0, -32, 97, -128, -128, 127, -128, -128, -128, -128, 127, -128, -128, -128, -128, 127, 127, 127, 127, 127, -128, -128, 97, -128, -128, -128, 127, 127, 127, 0, 65, -128, 65, 127, 127, -128, -128, 32, -128, -128, -128, -128, -65, 127, 127, -32, 127, -128, -128, -128, -128, 127, -65, -128, 127, 127, -65, -65, -128, -128, 127, -128, -128, -128, -128, -128, -128, -128, -128, -128, -128, 127, 127, 127, -65, -128, 127, -128, -32, -128, -128, -128, 127, 127, -65, 32, 97, -65, -128, -128, -128, -128, -128, -128, -128, -128, -128, 127, -65, -65, -128, 127, -128, -128, -128, -128, -128, -128, -128, 127, 127, -65, 97, 0, 32, -128, -128, -128, -128, -128, -128, -128, -128, -128, 127, 127, -128, -128, -97, -128, -128, -128, 127, -128, -128, -65, 127, 127, 127, 97, -97, 32, 0, -128, -128, -128, -128, -128, -128, -128, -128, -128, -128, -128, -128, -97, -128, -128, 32, -128, -128, -128, 127, 127, 127, 127, -128, 127, -65, -65, -65, -128, 127, 127, -128, -128, -128, -128, -128, 127, -128, -128, -128, -128, -128, -128, 127, 32, 32, 127, 127, 127, 127, 127, -128, -65, 0, 32, -32, 65, -128, -128, -128, -128, -128, 127, 127, 65, 127, 127, 127, 127, 127, 127, 127, 127, 127, 127, 127, 127, 127, 127, -65, 0, 97, 32, 32, 65, -97, 127, -128, -97, 127, 127, 127, 127, 127, 127, 127, 127, 127, 127, 127, 127, 127, 127, 127, 127, 127, 32, 0, 0, 0, -97, -97, 127, 0, 65, 127, 127, 127, 127, 127, 127, 127, 127, 127, 127, 127, 127, 127, 127, 0, 127, -128, 127, -65, 0, 97, 0, 97], [4, 0, -6, 4, -3, 1, -3, -1, -1, 3, -1, -4, 6, 1, 3, 3, -1, -4, 3, -1, 1, -1, -3, 4, -1, -6, -4, -4, 1, 0, -1, -1, -1, -4, 6, 0, -4, -1, 6, -3, -9, 1, 28, 9, -64, -1, 6, -3, 3, -3, 6, 0, 1, -4, 1, -3, 1, 4, -3, -1, 1, 3, 0, 4, -6, -35, -59, 26, -1, 7, 1, -38, -51, -29, -9, 23, 7, 41, 35, -54, -34, -35, 4, 1, 4, 0, 4, -4, 4, 18, -18, -25, -61, 25, -1, -70, -20, -37, -31, -54, -16, 38, -4, -51, -10, -16, -13, 20, 23, 56, -3, -3, -6, -3, 23, -6, -3, 44, -13, -18, -9, -47, -44, -1, -15, 23, -22, 69, 29, 10, 6, -3, 1, -20, 42, 82, 13, -6, -85, -1, -4, 1, -3, 3, 9, 18, 9, -7, -67, -44, -42, -78, -19, -16, -47, -20, 1, -38, -12, -25, -7, -34, -42, 12, 7, 4, -29, 1, 0, 4, 12, 78, 4, -6, 7, -26, -31, -26, -20, 3, 0, -13, -1, 6, -28, 12, -16, 16, -9, -19, -51, -16, -1, -9, 4, 4, 0, 9, -22, 73, 4, 50, 12, -9, -35, -16, -7, 15, 0, 16, 19, 38, 18, 4, 22, 35, 40, 38, 32, 18, -26, -13, -6, -16, -3, 40, 13, 32, 28, 51, -7, 25, -23, -45, -16, -15, -22, 32, 47, 26, 31, 38, 37, 63, 64, 101, 88, 40, 63, 79, 51, 15, 9, 31, 45, 22, 40, 16, 32, -9, -40, -60, -54, -35, 34, 66, 88, 57, 63, 42, 48, 51, 50, 72, 64, 48, 127, 98, -15, 16, 6, 34, 64, 66, 63, 0, 15, -16, -69, -128, -64, -31, 23, 61, 117, 69, 63, 28, 28, 40, 40, 54, 66, 127, 127, 127, 99, 23, 1, 45, 80, 56, 40, -22, 22, -51, -80, -98, -73, -13, 31, 80, 102, 61, 41, 13, 22, -10, -22, 3, -13, 44, 86, 88, 104, -1, 0, 54, 76, 57, 26, 15, -28, 1, -37, -72, -31, -34, 4, 61, 70, 41, -10, -15, -16, -73, -101, -69, -99, -111, -128, -22, -13, 1, -4, -26, 70, 72, 117, 16, 50, 16, 7, -63, -59, -28, 1, 26, 44, 40, 4, -3, -9, -20, -72, -78, -89, -128, -123, -117, -61, -1, 0, 7, -15, 73, 15, -15, -3, -19, -7, -28, -29, -25, 7, 10, 48, 23, -4, 13, -15, -29, 0, -48, -123, -128, -114, -25, -37, 3, -4, 13, 1, -18, 32, 6, -23, -56, -64, -15, -53, -7, 34, -1, 25, 10, 6, 7, 15, -25, 23, -29, -94, -124, -94, -127, -34, -7, 3, -1, -15, -40, 10, 37, -13, -69, -54, -50, -70, -40, -1, 42, -1, 12, 32, 44, 10, 10, -29, -85, -128, -110, -107, -102, -13, -3, -3, -1, -59, -19, 15, 59, 57, 28, -54, -38, -10, 1, 19, 42, 38, 38, 6, 37, 6, -22, -42, -66, -102, -127, -113, -98, 7, 3, -4, 6, 7, -25, 0, 6, 88, 40, -12, -18, -25, 7, 3, 37, 63, 40, 18, 38, 38, -40, -73, -92, -128, -128, -88, -89, 19, 4, -4, 0, -35, -19, -1, 10, -18, 61, -6, 19, -3, 13, 19, 44, 53, 35, 1, -16, -38, -20, -38, -116, -94, -89, -66, 10, 13, -1, 6, 32, -35, -1, -50, -42, 31, -6, 9, 25, 15, -12, 15, 7, 50, 32, -40, -31, -56, -60, -128, -128, -128, -41, 3, 4, 20, 4, 6, -3, 22, 16, -32, -1, 34, 7, 19, 0, 10, -1, -3, 20, 23, -7, -18, -53, -61, -82, -86, -128, -107, -78, -41, 13, 1, -1, 1, 1, -44, 20, -7, 44, 42, 6, 19, 23, 23, 4, 26, -7, 19, -38, -29, -48, -99, -45, -128, -99, -83, -69, -37, -25, 9, -1, 4, 4, -25, -69, 1, 16, 9, 44, 22, -1, 6, 22, -12, -19, -20, -18, -101, -80, -114, -128, -92, -75, -78, 3, -57, -12, 47, 1, 4, -4, -19, 19, 7, 64, 56, 37, 44, -34, -4, -19, 22, 15, -25, -3, -50, -6, -61, -34, -13, -32, -35, -26, 0, -4, 4, -3, -3, -1, 1, 7, -4, 67, 25, 63, 42, 78, 47, 47, 66, 78, 59, 85, 124, 45, 69, 51, 47, 10, -1, -51, 6, 0, -3, -3, 3, 6, -3, -1, -20, 13, 23, -6, 26, 18, 23, 56, 40, 41, 53, 66, 29, -9, 4, -4, 35, 13, 51, 3, 1, 1, 3, -3, 3, 4, 4, 1, 0, 23, 18, 57, 73, 28, 76, 12, 20, 118, 19, -12, 75, 78, 25, -15, 32, -6, 3, 3, -6, 1, -1, -3], [-50, 25, -25, 0, 100, -25, -25, 25, -50, 0, -25, -75, 0, 50, -25, -50, 100, -50, 75, 0, 75, 100, -75, -125, -25, -50, -50, 100, -50, 0, 0, 50, 25, 25, 50, 25, -25, 50, 25, -128, -128, -125, 127, -128, -128, -128, -75, 25, -75, -50, -50, 25, -50, 75, 25, -50, 75, -25, 75, 75, -75, 25, -75, 0, 0, -125, 127, -128, 25, 127, 127, 127, -128, -128, -128, -128, -25, 0, 25, 0, -25, 50, 0, -100, 25, -25, 0, -50, -25, -75, -50, -25, -128, 127, 127, -128, 127, 127, 127, -100, -128, 25, -128, -128, -100, 127, 127, 127, 0, -25, 75, 50, 100, -25, 0, -75, -128, 127, 127, 127, -128, -128, -128, -128, -128, 127, -128, -128, -128, 127, -128, -128, 127, 127, 127, 127, 127, -128, 127, -100, 50, -100, 75, -128, -128, 127, 127, 127, 50, 127, -125, -128, -128, -128, -128, -128, -75, -128, -128, -128, -128, -128, -128, 127, 127, -128, 100, -75, -25, -25, 127, -128, -128, 127, 127, 127, 127, -128, -128, -128, -128, -128, -128, -128, -128, -128, -128, -128, -128, 127, 127, 25, 127, -128, 127, 127, 0, -128, -128, 127, 127, -128, 127, 127, -25, -128, -128, -128, -128, -25, -128, -128, -128, -128, -128, -128, -128, -75, -128, -128, -128, 127, -128, -125, -128, -128, -128, -128, 127, -125, 127, -125, -50, 127, -128, -128, -128, -128, -128, -128, -128, -128, -128, -128, -128, -128, -128, -128, -128, -128, -128, -128, -75, -128, -128, -128, -128, -128, -128, 125, -128, -128, -128, -128, -128, -128, -128, -128, -128, -128, -128, -75, -128, -128, -128, -128, -128, -128, 127, -100, -25, -128, -128, -128, -128, -128, -128, -128, 127, 127, -25, -128, -75, -128, -128, 127, 127, 127, -25, -128, -128, -128, -128, -128, -128, -128, -128, -128, -50, -128, -128, -128, -128, -128, -128, 127, 127, 127, 127, 127, 127, -128, -128, 127, 127, 127, -128, -100, -75, -75, -128, -128, -128, 127, -128, 75, -50, -128, -128, -128, -75, -128, 127, 127, 127, 127, 127, 127, 127, -128, 127, 127, 127, 127, 127, 127, 125, 125, -128, -128, -128, -128, -128, -75, -50, -125, -128, 25, 127, 127, 127, 127, 127, 127, 127, 127, 127, 127, 127, 127, 127, 127, 127, 127, 127, 127, 127, -128, -128, -128, -128, 75, -25, -128, -128, -128, 127, 127, 127, 127, 127, 127, 127, 127, 127, 127, 127, 127, 127, 127, 127, 127, 127, 127, -128, 127, -128, -128, -128, 75, 25, -50, 127, 127, 127, -128, 127, 127, 127, 127, 127, 127, 127, 127, 127, 127, 127, 127, 127, 127, 75, -128, 127, 0, -128, -128, -128, -128, 25, 50, -128, 75, -128, -128, -128, 127, 127, 127, 127, 127, 127, 127, 127, 127, 127, 127, 127, 127, -128, -25, -125, -128, -128, -128, -128, -128, 75, -100, -128, -128, -128, -128, -128, -128, 127, 127, 127, -50, 75, 127, 127, 127, 127, 127, 25, -128, -128, -128, -128, -128, -128, -128, 127, 50, 25, 100, 127, -128, -128, -128, -128, -128, 50, -128, -128, 127, 0, 127, 127, 127, 127, -128, -128, -128, -128, -128, -128, -128, -128, -128, -75, 75, 0, -125, 100, -128, -128, -128, -128, -128, -128, -128, -128, -128, -128, 127, 127, -50, -128, -128, -128, -128, -128, -128, -128, -128, -128, -128, 127, 25, -100, -75, -25, 127, -128, -128, -128, -128, -128, -128, -128, -128, -128, -128, -128, -128, -128, -128, -128, -128, -128, -128, -128, -128, -128, -128, 127, 0, -100, -125, -128, -128, -128, -128, -128, -128, -128, -128, -128, -128, -128, -128, -128, -128, -128, -75, -128, -128, -128, -128, -128, -128, -128, -128, -75, 50, 100, 75, -128, -128, -128, -128, -128, -128, -128, -128, -128, -128, -128, -128, -128, -128, -128, -125, -128, -128, -128, -128, -128, -128, -128, 127, -25, -25, 75, 75, 25, -128, -128, 127, 127, 127, -128, -128, -128, -128, -128, -128, -128, -128, -128, -100, -128, -128, -128, 127, -128, -128, -128, 127, -128, 50, 0, 25, -75, -128, 127, 127, 127, -128, -128, -128, -25, -128, -128, -128, -128, -128, -128, 0, 25, 127, 127, 127, 127, 100, -128, -128, 75, -25, -25, -50, -25, -50, 127, 127, 127, 127, 127, -128, 127, 50, -128, -128, -128, -128, -128, 127, -128, -125, 127, 127, 127, -128, -128, 25, -25, 50, -100, -100, -100, -75, 127, 127, -75, 127, -25, -128, -128, -128, -128, -128, -128, -128, -128, -128, -125, 127, 127, 127, -128, -75, 50, 0, -25, -100, 25, 50, -50, -25, -25, -128, -128, -128, -128, -128, -128, -128, -128, -128, -128, 127, -128, -128, -128, 75, -128, 127, -128, 25, -50, 25, -100, 75], [-45, 0, 0, -45, -89, -45, -45, 45, 0, 0, -89, -45, 45, 45, 0, 45, 45, 0, 0, 89, 0, 0, 0, -45, 127, -45, 45, 89, -45, 89, 89, 0, 45, 0, 45, 45, 127, 45, -128, 127, 127, -89, -128, -128, -128, -128, -128, 0, -128, -89, 89, 0, 89, 89, 45, -89, 89, -89, 127, 89, 45, 89, -45, -45, 127, -128, -128, -128, 127, -128, -128, -128, -128, -128, -128, 127, 127, 127, 127, -128, -128, -128, 89, 45, -89, -45, 89, 45, 45, -128, -128, 127, -128, -128, -128, 127, 127, -128, -128, -128, -128, 127, 127, -128, -128, -128, -128, 127, 127, 127, 45, -89, -45, 45, -128, 89, 127, 127, -128, -128, -128, 127, 127, 127, 127, 127, 127, 127, 0, 127, 127, 127, -128, -128, -128, -128, 127, 127, -128, -89, 45, 0, 89, -128, -128, -128, -128, -128, 127, 127, 127, 127, 127, 127, 127, 127, 89, 127, 127, 127, 127, -128, -128, -128, -128, 127, 127, -45, -45, 89, 127, -128, -128, -128, -128, 127, 127, 127, 127, 127, 127, 127, 127, 127, 127, 127, 127, 127, 127, -89, -89, -128, 127, 127, -128, -89, 89, -128, -128, -128, -128, -128, 127, -128, 89, 127, 127, 127, 127, 127, 127, 127, 127, 127, 127, 127, 127, -128, -128, 127, 127, 127, -128, 127, -89, -128, -128, -128, -128, -128, 127, -128, -45, 127, 127, 127, 127, 127, 127, 127, 127, 127, 127, 127, 127, 127, 127, 127, 127, 127, -128, -128, -45, -128, -128, -128, -128, -45, 127, -128, 0, 127, 127, -128, 127, 127, 127, -45, -128, 127, 127, 127, 127, 127, 127, 127, 127, 127, 127, -128, -128, -128, -128, -128, -45, -45, 127, 127, 127, 127, 0, 127, 127, 127, -128, -128, -128, 0, 127, 127, 127, 127, 127, 127, 127, -128, -128, -128, 0, -89, -128, -128, 0, 127, 127, 127, 127, 127, 127, 127, -45, 127, 127, -128, -128, 127, 127, 127, 127, 127, 127, 127, 127, 45, -128, 45, -45, -128, -128, 127, 127, 127, 127, 127, 127, 127, 127, 127, 89, 127, 127, -128, -128, 127, 127, 127, 127, 127, 127, 127, 127, -128, 127, -89, -89, -128, -128, 127, 127, 127, 127, 127, 127, 127, 127, -128, -128, 127, 127, 127, 89, -128, 127, 127, 127, 127, 127, 127, 127, 127, -128, -128, 89, -128, -128, 127, 127, 127, 127, 127, 127, 127, 127, -128, -128, 127, -128, -128, -128, -128, -128, 89, -128, 127, 127, 127, 127, -128, -128, 89, 127, 127, -128, -128, 127, 127, 127, 127, 127, 127, 45, -128, -128, -128, -128, -128, -128, -128, -128, 45, -128, -128, 127, -128, -128, -128, -128, -128, -89, 0, -128, -128, -128, -128, 127, 127, 127, 89, 127, -128, -128, -128, -128, -128, -89, 127, 127, -128, -128, -128, -128, -128, -128, -128, -128, -128, -45, 89, -128, -128, -128, 127, 127, 127, 127, 127, -128, -128, -128, -128, -128, -128, 127, 127, 127, 127, -45, 127, 127, -128, -128, -128, -128, -128, -45, 0, -128, -128, -128, -128, 127, 127, 127, 127, 127, -128, -128, -128, -128, -128, 127, 127, 127, 127, 127, 127, 127, -128, -128, -128, -128, -128, -89, 89, 45, 127, -128, 127, 127, 127, 127, 127, 127, -128, -128, -128, -128, -128, -128, 89, 127, 127, 127, 127, 127, 127, -128, -128, -128, -128, 0, 127, 127, -128, -128, 127, 127, 127, 127, 127, 127, -128, -128, -128, -128, -128, 89, 45, 127, 127, 127, 127, 127, -128, -128, -128, -128, 45, -45, 45, -128, -128, -128, -128, 127, 127, 127, 127, -128, 45, 127, 127, -128, -128, 127, 45, 127, 127, 127, 127, 127, -128, -128, -128, 0, 0, 89, 89, -128, -128, -128, -128, -128, -89, 127, 127, 127, 127, 127, 127, 127, 127, 127, -128, -128, -128, -128, 45, -128, -128, 45, 127, -128, -89, -45, 45, 127, 127, -128, -128, -128, 89, 127, 127, 127, 127, 127, 127, 127, 127, 127, 127, -128, 89, 127, 127, 127, 127, 127, -128, -128, 0, 89, 0, 127, 127, 127, -45, 127, 127, 127, 127, 127, 127, 127, 127, 127, 127, 127, 127, 127, 127, 127, 127, 127, 127, 127, -128, -45, 89, -45, -128, 45, 127, 127, 127, 127, 127, 127, 127, 127, 127, 127, 127, 127, 127, 127, 127, 127, 127, 127, 127, 127, 127, 127, 89, -45, -45, 89, 89, 0, 89, 127, 127, 127, 127, 127, 127, 127, 127, 127, 127, 127, 127, 127, 127, 127, 127, 127, 127, -128, 127, 89, 89, -45, -89, 45, 89, 89, 89, -45, -128, -128, 127, -128, -128, -128, 127, 127, -128, 127, -128, -128, -128, -89, 127, -128, 127, -128, 45, -45, 45, -89, -89], [110, -82, -55, 27, -82, 55, -110, 110, -55, 110, -27, -110, 55, -55, 127, 110, 0, -27, -27, -27, 27, 0, -55, 110, -55, 82, 82, -82, -82, 55, 27, -27, 27, 0, -55, 82, 127, 82, 0, -128, -128, -27, -128, -128, 127, -27, -128, -27, -110, 27, -55, 82, -82, -27, 82, 27, -55, 110, -110, 27, 55, 0, -27, 0, 82, 127, 127, -128, 127, 127, -128, 27, 127, 127, 127, -128, -128, 127, 127, 127, 127, 127, 110, 27, 82, -82, 0, 82, -55, -128, 127, 127, 127, -128, 127, 127, 127, -128, 127, 127, 127, -128, -128, -128, -128, 27, 127, -128, -128, -128, 27, -27, 27, 27, -55, 82, -128, -128, 127, 127, 127, 127, 127, 127, 127, 82, 127, -128, -128, -128, -128, -128, -128, 0, -128, -128, -128, -128, 127, -82, -27, 27, 0, 27, -55, 127, 127, 127, 127, 127, 127, 127, 127, 27, 127, 127, 127, -128, -128, -128, -128, -128, -128, -128, 27, -128, -128, -27, 110, -55, -128, -128, 127, 127, -82, 127, -128, -128, -128, 0, -27, -128, 127, 82, -128, -128, -128, -128, -128, -128, -128, 0, -128, -128, -128, 127, 55, -110, 127, -128, 127, -128, -128, -55, -128, -128, -128, -128, -82, -110, 127, 127, -128, -128, -128, 127, -128, -128, -128, -128, -128, -128, -128, 127, -27, -128, -128, -128, 127, -128, 127, 55, -128, -128, -128, -128, 55, 127, 127, 127, -128, -128, -128, -128, -128, -128, -128, -128, -128, -128, -128, -128, 27, -128, -128, 127, 127, 0, 82, 127, -128, -128, -128, -128, -110, 127, 127, 127, -128, -128, -128, -27, -128, 127, -128, -55, -128, -128, -128, -27, -27, -110, -128, -128, -128, 127, 127, 82, 127, -27, -128, -128, -128, -128, -128, -128, -128, -128, 127, 55, -128, -110, -128, -128, -128, -128, -128, -128, -82, -128, -128, 127, 127, 127, 127, -128, -128, -128, -128, -128, -128, -128, -128, -128, -128, -128, -128, 127, -128, 127, 55, 127, 127, -128, -128, 27, -82, -128, -128, 127, 127, 127, 127, 127, 127, -55, -128, -128, -128, -128, -128, -128, -128, -128, 127, 127, 127, 127, 127, 127, 127, 127, -128, -82, 55, -128, -128, 127, 127, 127, 127, 127, 127, 127, 127, 0, -128, -128, -128, -128, -128, -128, -110, 127, 127, 127, 127, -128, -82, 127, 127, 127, 110, -128, -128, 127, 127, 127, 127, 127, 127, 127, 127, 127, -128, -128, -128, -128, 127, 127, 127, 127, 127, 127, -82, -128, -128, 127, 127, 55, -82, -128, -128, 127, -128, 127, 127, 127, 127, 127, 127, -128, -128, -128, 127, 127, 127, 127, 127, 127, 127, -128, -128, -128, -128, 127, 127, 127, 27, 110, -128, 127, 127, 127, 127, 127, 127, 127, 127, 127, 127, 127, 127, 127, 127, 127, 127, 127, 127, 27, 127, -128, 127, 127, 127, 127, -55, 82, 127, -128, 127, 127, 127, 127, 127, 127, 127, 82, 127, 127, 127, 127, 127, 127, 127, 127, 127, -128, 127, 55, 127, 127, 127, 110, 110, 55, -128, -128, 127, 127, 127, 127, 127, 110, -128, 55, 127, 127, 127, 127, 127, 127, 127, 127, 127, 127, 127, 127, 82, 127, 127, 127, -110, -55, 127, -128, -55, 127, 127, 55, -128, -128, -128, 127, 127, 127, 127, 127, 127, 127, 127, 27, -82, 127, 27, 55, -82, 127, 127, 127, 27, -128, 127, -128, 127, 127, 127, 127, -128, -128, -128, 127, 127, 127, 127, 127, 127, -110, 127, -128, -128, 127, 110, 127, 127, 127, 127, -55, -27, 27, -82, -82, 127, 127, -128, 127, 27, 27, -128, -128, -128, -128, 127, 127, 127, 127, 127, 127, 127, 127, 127, 127, 127, 127, 127, 82, -27, -55, 127, -128, 127, -128, 110, 127, 127, 127, -27, -128, -128, -128, -128, 110, -128, -128, 127, 127, 127, 127, 127, 127, 127, 127, 110, 0, 55, 55, -128, 82, -128, 127, 127, -82, 127, -128, -128, -128, -128, -128, -128, -128, -128, -128, -128, 127, 127, 127, 127, 127, 0, 127, -128, 0, -110, 82, -128, -128, -128, -128, -128, -128, -128, -128, -128, -128, -128, -128, -128, -128, -128, -128, -128, -27, -128, -128, 127, -110, 127, 127, 82, -55, -27, 82, -82, -128, 127, -128, 127, -128, -128, -128, -128, -128, -27, 27, -128, -128, -128, 127, -128, -128, 127, -82, -128, -128, -128, 55, 55, 27, 55, -110, -27, 27, 127, 127, 127, 127, 127, -128, 127, 127, 127, 127, 127, 127, 127, 0, 0, 110, 127, 127, -128, -128, -55, 27, -82, 55, 27, -110, 55, 27, 82, -110, -110, -128, -128, -128, -128, 127, 127, -128, 127, -128, 127, -128, -128, 127, -128, 127, -128, 27, -82, 110, 82, 55], [27, -81, -27, -27, 0, 81, 27, 81, 0, -81, 109, -109, 27, 127, 109, 81, 109, 54, 81, 27, 109, 27, 54, -109, 27, -109, -27, 0, -81, -54, -27, -81, 54, -54, -81, -81, -128, 81, 0, -128, -128, -27, 127, 127, -128, 27, 109, 81, 109, -81, 109, -54, 81, -81, 0, -27, 0, 27, 54, 27, -109, 54, 81, -128, -128, -128, -128, 127, -128, 127, 127, 127, -27, 127, 127, 127, 127, 127, 109, -128, -128, -128, -81, 81, 0, -54, -81, -81, -109, -128, -128, -128, -128, 127, -128, -128, -128, -128, 109, -109, -128, 127, 127, 127, -128, 27, 127, 127, 127, -128, 81, 27, -54, -54, -128, -54, -128, -128, 127, -128, -128, -128, 0, -128, 127, -128, 127, 127, 127, 127, 127, 127, -128, 127, -128, 127, 127, 127, 127, 54, -27, 27, 0, -128, -128, -128, -128, -128, 109, -128, 127, -54, 127, 127, 127, 0, 27, -128, -128, 127, 127, 127, 127, 109, 127, 127, 127, 0, 0, -81, -128, -128, -128, -128, -128, -128, -128, -128, -128, -128, -27, 81, 109, 127, 127, -128, -54, 127, 127, 127, 127, 127, 127, 127, 127, 127, -109, -128, -128, -128, -128, -128, -128, -128, -128, -128, -128, -128, -128, 127, 127, 127, -128, -128, -128, -128, 127, 127, -128, 127, 127, 127, 127, 27, -128, -128, -128, -128, -128, -128, -128, -128, -128, -128, -128, -128, 127, 127, 127, -128, -128, -128, -128, -128, -128, 127, 0, 127, 127, 127, 127, 127, -128, -128, -128, -128, -128, -128, -128, -128, -81, 127, 127, 127, 127, 127, -128, -128, -128, -128, -128, -128, -128, -27, 127, 127, 127, 127, 127, -54, -128, -128, -128, -128, -128, -128, -81, -109, 127, 127, 127, 127, 127, 127, 127, -128, -128, -128, -128, -128, -128, -128, -128, 127, 127, 127, 127, 127, -54, -128, -128, -128, -128, 127, 127, 127, 127, 127, 127, 127, 127, 127, 127, -109, -128, -128, -128, -128, -128, -128, -128, 81, 127, 127, 127, 54, -128, -128, -128, -128, -128, 127, 127, 127, 127, 127, 127, 127, 127, 127, 127, 127, 127, 127, 109, 127, 127, 27, 127, 127, -128, 127, 127, -109, -27, -128, -128, -128, -128, 127, 127, 127, 127, 127, -109, 127, 127, 127, 127, 127, 127, 127, 127, 127, 127, 127, -27, -128, -128, -128, 127, 127, -54, -128, -128, -128, -128, -81, 127, -128, -81, 81, 109, 127, 127, 127, 127, 127, 127, 127, -128, -128, -128, -128, -128, -128, -128, -128, 127, -81, -81, -128, -128, -128, -128, -128, -128, -128, -128, 27, -109, 127, 127, 127, 127, 127, 127, -128, -128, -128, -128, -128, -128, -128, -128, 127, 127, -128, 109, -81, -128, -128, -54, -128, -128, -128, 127, 81, 127, 127, 127, 127, 127, 54, -54, -128, -128, -128, -128, -128, -128, 127, 127, -128, -128, -128, 81, -54, -128, -128, 127, -128, -128, 127, 127, 127, 127, 127, 127, 127, 127, -128, -128, -128, -128, -128, -128, -128, -128, -54, 127, -128, -128, 0, 54, -109, -128, -128, -128, -128, 127, 127, 127, 127, 127, 127, 127, 127, 27, -54, -128, -128, -128, -128, -128, -128, 127, 127, 127, -128, 127, 127, -109, -54, 127, -128, -128, -128, -128, 109, -128, 127, -128, 81, -54, 127, -128, -54, 127, -128, -128, -128, 127, 127, 127, 127, -128, -128, 127, 127, 27, -128, -128, -128, -128, 127, -128, 127, 81, -128, -128, -128, -128, 127, -109, -128, 127, 127, 127, 127, 127, 127, 127, 54, -128, -128, -128, -27, 27, -109, -128, -128, -128, 127, -27, -27, -54, 127, -81, -128, -109, 127, 127, 127, 127, 127, 127, 127, 127, 127, 127, -128, -128, -128, -128, 27, -27, 54, -128, -128, -128, -128, -128, -128, -128, -128, -54, -128, 127, 127, 127, 127, 127, 127, 127, 127, 109, 54, -128, -128, 127, 127, -81, 109, 54, -27, -54, -128, -128, -128, -109, -128, -128, -81, -128, -27, 127, 127, 0, -54, 127, 127, 127, 127, 127, -128, -128, 127, -128, -128, 81, 0, -109, 81, -81, -128, -128, -128, -128, -128, -128, 127, -128, -128, 127, -128, 127, 127, 127, 81, 127, 127, -128, 127, 127, 127, -128, -128, 0, -54, -109, 54, 81, 127, -128, -128, -128, -128, -128, -128, -109, -128, -128, -128, 109, -128, 127, 127, 109, 127, 127, 127, 127, 127, 127, 54, 27, -27, -27, 27, 81, 81, 127, -128, 27, 127, -128, 127, 127, 127, 127, 127, 127, -128, 127, 127, 127, -128, 127, 127, -128, 127, 0, 27, 0, 81, 54, 109, 0, -27, -27, -128, -128, -81, -128, -128, -128, -128, -128, -128, 127, 127, -128, -128, 127, 127, -128, 127, 127, 81, 0, 81, -54, 81], [-34, -34, -34, 101, -101, 101, 0, 34, -34, 34, -101, 34, 34, 101, 0, -101, -67, 34, 34, -67, -67, -101, -101, 101, 34, 67, -34, 34, 101, -34, 34, -101, -34, -67, -34, -34, 127, 127, -128, 127, 127, 34, -128, 127, 127, 127, -34, -67, 67, 0, -34, -101, 67, -67, -101, -34, -101, 0, -34, 101, 34, 67, 67, 127, 127, 127, 127, -128, 127, -128, -128, -67, 127, 127, 127, -128, -128, -128, -128, 127, 127, 127, 34, 67, 101, 67, 0, -128, 0, 127, 127, -128, 127, -128, 127, 127, 127, 127, 127, 127, 127, 127, -128, -128, -128, -128, -128, -128, -128, -128, -34, 0, -34, 0, 127, -101, -128, -128, -128, 127, 127, 127, 127, 67, 127, 127, 127, 127, 127, 127, 127, -101, -128, -128, -128, -128, -128, 127, 127, 0, 101, 101, -67, 127, 127, 127, 127, 127, 127, 127, 34, 127, 127, 127, 127, 127, 127, 127, 127, 127, -128, -128, -128, -128, -128, -128, 127, -67, -34, 101, -128, 127, 127, 127, 101, 34, -34, 101, 127, 127, 127, 127, 127, 127, 127, 127, 127, -128, 127, -128, 34, -128, -128, -128, -128, -128, 101, -128, 127, -128, 127, -128, 127, -128, -128, -128, -128, -67, 127, 127, 127, 127, 127, 127, 127, 127, 127, 127, -128, -128, -128, -128, -128, 127, 34, -128, 67, 127, 127, -128, -128, 127, -128, -101, 127, -128, 127, 127, 127, 127, 127, 127, 127, 127, 127, 127, 127, 127, -128, -128, -128, -128, 34, 67, -128, 127, 127, 127, -101, 127, -128, -128, -128, -128, 127, 127, 127, 127, 127, 127, 127, 127, 127, 127, 127, 127, -128, -128, -128, -67, 0, -128, 127, 34, -128, 127, -128, -128, -128, -128, -128, -128, 127, 127, 127, 127, 127, 127, 127, 127, 127, 127, 127, 127, -128, -128, -128, -101, 34, -101, 127, 127, -128, -128, -128, -128, -128, -128, -128, -128, -128, -128, 127, -128, -128, 67, 127, 127, 127, 127, 127, 127, 127, -128, -128, 0, 127, -128, 127, -128, -128, -128, -128, -128, -128, -128, -128, -128, -128, 101, 127, 67, -128, 127, 127, 127, 127, 127, 127, 127, 127, 127, -128, -67, 0, -128, 127, -128, -128, -128, -128, -128, -128, -128, -128, -128, -128, 127, 127, -34, 0, -128, -128, -128, -128, 127, 127, 127, 127, 127, 127, 127, 101, 67, -128, -128, -128, -128, -128, -128, -128, -128, -128, -128, -128, 127, 127, 67, -128, -128, -128, -67, -128, -128, -128, 127, 127, 127, 127, -67, -67, -128, -128, -128, -128, 127, 127, 127, -128, -128, -128, -128, -128, 127, 127, 0, -128, -128, -128, -128, -128, -128, -128, -128, 127, 127, 127, 127, -34, 67, 127, 127, 127, 127, 127, 127, 127, 127, 127, -128, 127, 127, 127, -128, 127, 34, -128, -128, 127, 127, 127, 127, 127, 127, 127, 127, -101, 67, 127, 127, 127, 127, 127, 127, 127, 127, 127, 127, 127, 127, -128, -34, 127, -34, -128, 127, -101, -128, 127, 127, 127, 127, 127, 67, 101, -34, -128, -128, 127, 127, 127, 127, 127, 127, 127, 127, 127, 127, 67, 127, 127, 127, 127, 127, 127, -34, 127, 127, 127, 127, 67, 127, 101, -67, -128, -128, 127, -128, 127, 127, 127, 127, 127, 127, 127, 127, 127, 127, 127, 127, 127, 127, 127, 127, 127, 127, 127, 127, 127, 127, -34, -128, 127, -128, 127, 127, 127, 127, 127, 127, 127, 127, 127, 127, 127, 127, 127, -128, 127, 127, 127, 127, 127, 127, 127, 127, 127, -101, 101, -34, 0, -128, -128, 101, 127, 127, 127, 127, 127, 127, 127, 127, 127, 127, 127, -34, 127, 127, 127, -128, 127, 127, 127, 127, 0, 0, -67, 101, 127, 127, 127, -128, 127, 127, 127, 127, 127, 127, 127, 127, 127, 127, -128, -128, 127, 127, 127, 127, 127, 127, 127, 127, 101, 67, -67, 67, 127, 127, 127, -34, 127, 127, 127, 127, 127, 127, 127, 127, 127, 101, 127, -128, 101, 127, 127, 127, 127, 127, 127, 127, -128, -34, 67, 0, 127, -101, -128, -128, -128, 127, -34, 127, 127, 127, 127, 67, 127, -128, 127, 34, -128, -128, -128, -128, 127, -34, 127, 127, 0, 34, 34, -101, 0, -128, -128, -101, 127, -128, 127, -128, 34, 34, -128, -101, -128, -128, -101, -128, 127, 127, 127, 127, 127, -128, 127, 34, -34, -101, -101, 0, 0, -101, 127, 127, 127, 127, 127, 127, 127, 127, 127, 127, 127, 127, 127, 127, 127, 127, 127, 127, -128, 127, 101, 0, 34, 0, 0, -34, 127, -101, 101, 127, 127, 127, 127, 127, 127, 127, 127, 127, 127, -128, 127, -128, 127, 127, 127, 127, -128, 34, 34, -67, -101, -34], [-45, 22, 90, 67, -112, 45, -112, -112, 22, -45, 22, -67, 22, 67, 0, 45, 112, -45, 45, -22, -67, 22, 67, 90, 22, 22, 90, -22, 0, 112, -90, 67, 22, -112, 22, -22, -128, -45, 45, 127, 67, 90, 127, 127, 45, 90, 67, 0, -67, 67, 90, 67, 0, 90, 22, 112, -67, 90, -90, -22, -112, 112, -67, -45, 22, -128, -128, 127, -128, 45, 127, 127, -128, -128, -128, -128, -128, -128, -128, -22, 22, 0, -90, -90, -45, 0, 90, 0, 22, 127, 127, 127, -128, 127, 127, -128, 0, 22, -128, -128, 127, 127, 127, 127, 127, -128, -128, -128, -128, 112, -22, -22, 22, 112, 127, 90, 127, 127, 127, 127, 127, 0, 127, 127, 90, 127, 127, 127, 127, -128, 112, 67, 127, -45, 127, 127, -128, 127, -128, -112, -112, -22, -45, 127, 127, 127, -128, -67, -128, 0, -90, -90, 127, 112, -128, 127, 127, -128, -128, -90, -128, 127, 127, 127, 127, -67, -128, -67, 112, 45, 127, 127, 127, 127, 127, -128, 127, -128, 127, 127, 112, 127, 127, 127, 127, 45, 127, -128, -45, -128, -128, 90, -128, -128, -128, 0, 67, 127, -128, 127, 127, 127, 127, 127, -45, 127, 127, 127, 127, 127, 127, 127, 127, 127, 127, 90, -22, -128, -128, -128, -128, -128, -128, -128, 112, 127, 127, 127, 127, -22, 127, 127, 127, 127, 127, 127, 127, 127, 127, 112, 90, 127, 127, 127, 127, 127, -45, -128, -128, -128, 127, 127, 0, 127, 127, 127, 127, 127, 127, 127, 127, 127, 127, 67, -128, -128, 127, 127, -67, 45, 127, 67, 90, -90, 67, -128, -128, -22, -128, 90, -45, 127, 127, 127, 127, 45, 127, 127, -128, -128, -128, -128, -128, -128, 127, 127, 127, 127, -112, -112, -45, 127, 127, 127, -67, 127, 127, 127, 0, 127, 127, 127, 127, 45, 127, -45, 112, -128, -128, -90, -128, 127, 127, 127, 127, 127, 127, 127, 127, 127, 127, 112, -112, 127, 127, 45, 45, 127, 127, -128, -128, 127, -128, 127, -128, 127, 127, -128, -128, -128, 127, 127, 127, 127, 127, 127, 127, 127, -128, -128, -128, 127, -128, -112, -67, 112, 127, -128, 127, -90, 127, 112, 127, 127, -128, -128, -128, -128, 127, -128, 112, 127, 127, 127, -128, -128, -128, -128, -128, -128, -128, -67, -22, 127, 127, 127, -128, -128, -128, -128, 127, -67, -128, -128, 45, -128, 112, -22, -128, 127, 127, -128, -128, 127, 127, 127, -128, -128, -128, 45, 22, 127, 127, -128, 45, -128, -128, -128, -128, 67, 127, 127, 127, 127, -128, -128, -128, 112, 22, -128, 127, 127, 127, 127, 127, -128, 127, 127, 67, -22, 127, 127, -128, -128, -128, -128, -128, 127, -67, 127, 127, 127, -128, -128, 0, -128, 127, 127, 90, 127, 127, 127, 127, -128, 127, -128, 112, 127, 127, 127, -128, -128, -128, -128, -128, -128, -128, -128, -128, -128, -128, 127, -128, -128, 67, 127, 127, 127, 127, 127, -128, -128, 127, -90, 67, 0, 127, 127, -128, -128, -128, -128, -128, -128, -128, -128, -128, -128, -128, -128, -128, 127, 127, 127, 127, 127, 45, -67, -128, -90, 127, -22, -45, -45, 22, 127, 127, 127, -128, -128, -128, -128, -128, -128, -128, -128, -128, -67, -90, 127, 127, 127, 127, 127, -90, -128, -128, 127, 127, -45, 22, 22, 127, 127, 127, 22, 127, 127, -128, -128, -128, -128, -128, -128, 90, -22, -128, 127, 127, 127, 127, -128, -128, -128, -128, -128, 127, 0, 90, 112, 127, -90, 127, 127, 127, 127, 127, -67, 127, -90, 45, 127, 127, -67, 127, 127, 127, 127, -128, -128, -128, -128, -128, -128, -45, -112, 45, 22, 127, 127, 127, 127, 127, 127, 127, 127, 127, 127, 67, -128, 127, -128, 127, 127, 127, 127, 127, -128, -128, -128, -22, -128, 127, -90, 112, -67, 127, 127, 127, 127, 127, 127, 127, 127, -128, -22, 22, -128, 127, 127, 127, 127, 127, -22, -128, -128, 127, -128, 127, -128, 127, 112, -45, 22, 127, 127, 127, 127, 127, 127, 127, 127, 127, 127, 127, 127, 127, 22, -128, 127, -128, -128, 127, 127, -128, 127, 127, -128, 0, -22, 0, 67, 45, -128, 127, 127, 127, 127, 127, 127, 127, 127, 127, 127, 127, 127, 127, 127, 127, 127, 127, -128, 90, 127, 127, 112, 45, -67, 112, -45, 90, -45, -90, -128, 127, -128, 127, 127, 127, 127, 127, 127, 127, 127, 127, 127, 127, 127, 127, 127, 127, 127, 0, -112, -45, 90, 67, 90, 45, -67, 67, 127, 127, 127, 127, 127, 127, 127, 127, 127, 127, 127, 127, 127, 127, 90, 127, -128, -128, -67, 0, 90, -112, 112], [-99, -99, 74, 99, -25, -99, -49, 99, 99, 74, -49, -74, 99, 0, -49, 99, 99, -99, 99, 0, 99, -99, 49, -99, -74, -99, 99, 74, 124, 49, -49, -49, -49, -49, 99, -124, 25, 74, -25, 127, 127, -25, 127, 127, 127, 49, -25, 0, 124, 74, 25, -99, 74, 74, 49, 49, -74, 25, 49, -99, -124, -74, -49, 127, -74, 127, 127, 127, -128, -25, 127, 127, 127, 127, 127, -128, -128, -128, -128, 127, 127, 127, -49, -74, 0, 49, 74, 49, -99, 127, 127, 127, 127, 127, 127, 127, -128, 127, 127, 127, 127, 127, 127, 127, 127, -128, -128, -128, -128, -128, -25, -49, 49, -74, 127, -49, -128, 127, 127, 127, 127, 127, 127, 127, 127, 127, 127, 127, 127, 127, 127, -128, -128, -128, -128, -128, -128, 127, 127, -25, -99, -74, -74, 127, 127, 127, -124, -74, -128, -128, 99, 127, 127, 127, 127, 127, 127, 127, -128, 127, -128, 127, 127, -128, 124, 127, 127, 74, 25, -25, 127, 127, 127, 127, -128, -128, -128, -128, -128, 127, 127, 127, 127, 127, 127, 127, 127, 49, 127, -128, -128, -128, -128, -128, 127, 127, 0, 127, 127, -128, 127, 127, -128, -128, -128, -128, 127, 49, 127, 127, 127, 127, 127, 127, 127, 127, 127, 127, -128, -128, -128, -128, 127, -128, 25, -128, 127, 127, 127, -128, -128, -128, -128, -128, 99, -128, 127, 127, 127, 127, 127, 127, 127, 127, 127, 127, 127, -128, -128, -128, 127, 127, 124, -124, -128, 127, 127, -128, 127, 127, -128, 127, 74, 49, -128, 74, 127, 127, -99, 124, 127, 127, 127, -128, 127, 127, -128, 127, 127, -124, 0, -124, -128, 127, -128, -128, 127, -124, -128, -128, -128, -128, -128, 0, 127, 127, 127, -124, 74, -128, 127, 127, 127, 127, 127, 127, 127, 127, 99, 127, 127, 127, 0, -128, 99, -128, 74, -128, -128, -128, -128, 127, 127, 127, 25, 127, 127, 127, 127, 127, 127, 127, 127, 127, 127, -124, 0, 127, 127, -124, -128, 49, -128, -128, -128, -128, -128, -128, -128, 127, 127, 127, 127, 127, 127, 127, 127, 127, -128, -128, -128, 127, 127, 99, -99, -128, -128, -128, -128, -128, -128, -128, -128, -128, -128, -128, 127, 127, 127, 127, 127, 127, 127, 127, -74, -99, -128, -128, -128, 127, 127, 127, -74, -128, -128, -128, -128, -128, -128, -128, -128, -128, -128, -128, 127, 127, 127, 127, 99, -99, 127, -128, -128, -128, -128, -128, -128, 127, 127, -99, -124, 25, -128, -128, -128, 25, -128, -128, -128, -128, -128, 74, 127, 127, 127, 127, 25, -128, -128, -128, -128, -128, -128, -128, -128, 25, 127, 127, 49, 99, 127, 127, 127, 127, -124, -128, -128, -128, -128, 127, 127, 127, 127, -128, -128, -128, -128, -128, -128, -128, -128, -124, 25, 127, 127, 127, -99, 99, 127, 127, 127, 99, -128, 99, -128, -128, -128, 127, 127, 127, -128, -128, 99, -128, -128, -128, -128, -128, 127, 127, 127, 127, 127, -99, 0, 127, -74, 127, 127, 127, 127, -128, -128, 127, -128, 124, -25, 127, -128, -128, -128, 127, 127, 127, -124, 25, 127, 127, 127, 127, 127, 127, 74, 127, -25, 127, 127, 0, -25, 127, 127, 127, 127, 127, 49, -124, -128, 74, 127, 127, 127, 127, 127, 127, 127, 127, -128, 127, 127, 74, 99, -128, 127, 127, 127, 127, 127, 127, 127, 127, 124, 127, -128, -49, 127, 127, 127, 127, 127, 127, 127, 127, 127, -128, 127, 127, 127, 124, 99, -74, -128, -128, 127, 127, 127, 127, 127, 127, 127, 127, 49, 127, 127, 127, 127, -99, 127, 127, 127, 49, 127, 127, 74, 127, 49, 25, -25, -99, 127, 127, 127, 127, 127, 127, 127, 127, 127, 127, 127, 124, 127, 0, 127, 127, 127, 127, 127, -25, 127, 127, 127, -128, 127, 99, 74, 74, 127, 127, 127, 127, 127, 127, 127, 127, -74, 74, 127, -49, 127, 127, 127, 127, 127, 127, 127, -128, 127, 127, 127, -128, 127, 0, 99, 99, 127, -128, 25, -128, 127, 127, 127, 127, -74, 127, 127, 127, 127, 127, 127, 127, 127, 127, 127, 127, 127, 127, 127, 127, 0, 99, 25, 99, 74, -128, -128, 127, 127, 127, 127, 127, 127, 127, 127, 127, 127, 127, 127, 127, 127, 127, 127, 127, 127, 127, 127, 124, 99, 124, -74, 74, 74, 49, 127, 127, 127, 127, 127, 127, 127, 127, 127, 127, 127, 127, 127, 127, 127, 127, 127, 127, 127, 127, -99, -25, 0, -49, -99, 49, 49, -49, 99, -99, 124, -124, -124, 127, 127, 127, 127, -128, 127, 127, -124, -128, 127, 127, -128, 127, 127, -74, 99, 99, -124, 0]]